Gender,Height,Weight
-1.0,-0.5756386047723604,151.275532926064
-1.0,-0.9928428762835073,123.96516248087
-1.0,-0.9259644055592479,124.765437960402
-1.0,-1.4782104864599601,119.195697933808
1.0,-1.5986494587045272,146.956646118938
1.0,1.189568657195797,190.751029969281
-1.0,-1.6471466002051958,97.6874322554917
1.0,0.48398273568430383,189.841976070972
1.0,-0.3310070414915236,165.862942977357
1.0,2.162225398427525,224.630423960364
1.0,0.7583108230070624,206.883393042889
-1.0,-1.1050502757909517,146.493035831695
1.0,1.2698205146892636,204.655493822323
1.0,1.2699840769204274,193.829564444462
-1.0,-0.019768050932484762,140.319412644818
1.0,0.3732567370480931,158.347245692258
1.0,1.5363869432288881,196.709024642257
1.0,-0.873029403198906,158.316027971635
-1.0,-0.702242317032113,122.148252708969
-1.0,-1.4851385408620879,123.084293029792
-1.0,0.0069616276263248225,160.493872050002
1.0,-0.4958614560603532,161.378773212037
1.0,0.6275366784981227,162.3104725213
1.0,0.4964993033452386,182.205420082896
1.0,1.389256597094628,211.579158342379
-1.0,0.5301908574240882,165.572093360069
-1.0,-0.5116088463223422,130.863830035322
-1.0,-0.8495671845798795,132.957960670008
-1.0,-0.9610294449865615,111.080658285661
1.0,1.5326569910619228,204.416126921461
-1.0,-0.01133100687138311,148.938463980075
1.0,1.6645396968334112,210.657667000328
-1.0,-1.2833419131002781,131.181929536141
1.0,0.83275042044787,182.154139159232
-1.0,0.6217316333864956,175.90345246978
1.0,0.7065237484668203,194.643178186085
1.0,1.0908800330856572,193.321111841505
-1.0,-0.5121256169828953,148.369054489955
1.0,0.8315383948152067,175.448594726192
-1.0,-1.0339771203013701,110.805629277423
-1.0,0.1094945337594058,152.410698939111
-1.0,0.13573005840340702,162.401000843998
1.0,0.13522593816914627,187.581627340598
-1.0,-1.3732185227356157,117.987569728394
1.0,-0.07860583077826976,178.588954037204
1.0,0.8034398369813324,187.910875685823
1.0,1.2354697355849937,193.804892442478
-1.0,-0.5840275181418016,125.390390871556
1.0,0.8288287759831651,174.856849524344
-1.0,-1.5072846925769354,106.791251200868
-1.0,-1.061484913533959,132.576418436117
-1.0,-2.230307133191285,106.854116572758
-1.0,0.27234134706688046,150.498250922393
1.0,-0.41303376268269176,158.17255009629
-1.0,1.1075292062220419,170.148468502777
-1.0,-0.3143654023533273,148.361308433515
-1.0,0.5309017996772657,153.465334505013
-1.0,-0.44520200657895365,148.962313682125
-1.0,-1.0879838103763289,129.344409963241
-1.0,0.7934637582982119,181.853797589974
1.0,0.6517020018611144,177.133135520817
1.0,0.26731772242828383,144.277671090823
1.0,0.9547076260044509,199.037679063698
1.0,0.9558848657395561,180.424599217939
1.0,-0.3140149107360399,157.69050156762
1.0,0.6834730002393732,186.63531299665
1.0,2.041312652299708,231.130189759308
1.0,1.1529125005461782,191.947799747621
1.0,1.427758134699074,202.90685925773
-1.0,-0.5702132620338305,125.647820584166
1.0,0.12726573262446028,180.344335374479
-1.0,-1.4589509616530305,98.8791443666623
-1.0,-1.4359288205907623,116.50475222455
-1.0,-0.9032429849868253,142.895625913257
1.0,-0.0727440720330614,161.495814307993
-1.0,0.1783979219086801,160.943310921227
-1.0,0.3396905089697868,156.513341078976
-1.0,-2.2312396731389974,126.143595942272
1.0,-0.325260856683894,153.128067140559
-1.0,-0.44062445979466386,148.924409968802
1.0,1.1861116221829544,188.703885266529
-1.0,-0.2870812136829171,100.982899039723
-1.0,-0.7741769750702815,149.580424013912
-1.0,-1.1042759930129578,134.128691906617
1.0,0.8166077518327208,192.594226632306
1.0,1.1675058738323485,190.799189796735
-1.0,-1.6806451098345945,116.50342895858
-1.0,-0.1718020263568303,149.715822513582
-1.0,-0.4806148655720639,129.803719307602
1.0,0.7383502536339711,188.384881861092
1.0,-0.2648508447533683,156.274801434304
1.0,1.4397060663349,212.876015229567
1.0,-0.30679383894757073,172.606482559614
-1.0,-1.51751565121748,122.49167273083
-1.0,-1.3142516514711413,113.519613719958
-1.0,-1.5041939270289646,102.187820524886
-1.0,0.5179939116603969,166.570566198547
1.0,0.6822861299484715,193.754990936111
1.0,1.0046344936486777,184.025130592843
-1.0,-1.9717026628120704,90.7747091832357
-1.0,-1.0076069461720731,137.086322357491
1.0,-0.007137342718652962,163.001274168673
1.0,1.2007929327391018,214.792992556764
-1.0,-1.0413615151609836,148.713960108758
-1.0,0.14687772040244376,164.665490070478
1.0,0.6721949612930508,178.28778553369
-1.0,-1.095828649159641,117.622643059512
-1.0,-0.5656285077976112,121.889608784505
-1.0,0.08069398969762356,137.747980045506
1.0,1.5366366104781004,198.836514614642
1.0,3.048423249410765,255.690834836788
-1.0,-1.057412075017349,138.994964745233
-1.0,-1.1283340909553132,123.172683968554
1.0,-0.2480363372608578,142.593067283448
1.0,1.8026631762676801,232.250643278525
1.0,0.9924117596366743,188.529396626822
-1.0,-1.9729069712892229,112.561989237208
1.0,0.2675291601985663,178.300196634959
-1.0,-0.18219685515620238,129.664079829454
1.0,1.5157458303337772,218.292733091252
1.0,1.3216332352225182,203.448273004639
1.0,-0.18051005899035638,181.595631192572
-1.0,-0.1789676833486915,148.292152806936
-1.0,-0.031851054294404345,143.797489736556
-1.0,-0.4528345842701534,143.145608450255
-1.0,-1.5292697342930845,110.565497391584
-1.0,-0.01702043454756279,161.753978929902
-1.0,-1.1699003040071254,118.764489912888
-1.0,0.17019854754104785,162.026552396676
1.0,-0.3084272533820285,169.459630912183
1.0,0.3455752189997759,187.42389642109
-1.0,-0.9334123657036602,133.843538722038
-1.0,-1.3902995599315688,120.826700385081
1.0,0.5550583704069046,205.891233824314
-1.0,-0.23525093520627582,146.735677047421
-1.0,-0.6446135138985969,124.753377622056
-1.0,-7.754330797714583e-05,153.104104814365
1.0,1.0555132862635164,199.144177535778
-1.0,-1.4035043815882926,115.502468491191
-1.0,0.7835774688036354,182.308529635185
-1.0,-0.3974379425664043,151.922702049436
1.0,0.7365963653911497,176.220869569746
-1.0,-1.1404320701558892,119.910845573051
1.0,0.6263178996906498,177.356392951709
1.0,0.7987850284453945,184.436002879659
-1.0,-0.8186512468057349,139.745985788187
1.0,-0.03473981001000659,183.16123245569
-1.0,-0.6828519808782484,146.839515295126
1.0,-0.056864441665470056,170.793778489157
1.0,1.6219373807446555,221.175596114028
-1.0,0.13025326060859807,157.717527033019
1.0,1.5413326194034813,212.058246979834
1.0,0.8753804307575659,196.218174027164
-1.0,0.7786763494790514,169.453823851791
-1.0,-1.7842478669365889,109.974021861301
1.0,0.32270258455822715,174.36418237859
-1.0,0.221604643738268,168.809399222641
1.0,0.6049457964269642,195.115896090981
1.0,1.025159968624146,184.243860348496
-1.0,-1.3161408217619934,128.269264728816
1.0,1.4161867910838388,205.925139709548
1.0,-0.18036282574011675,170.062794097362
-1.0,-1.3249657473346448,103.71822371373
-1.0,-0.6973298978396373,134.263881206765
-1.0,-0.9243949764821017,117.181701114
1.0,0.23806228312795913,184.116924387548
1.0,1.558071385695064,198.262970327058
1.0,2.008022741026397,217.712531331905
-1.0,-1.2362215599605613,124.531675552031
1.0,0.8113892646113229,187.843253324295
-1.0,-1.0848278941777616,132.060156864781
1.0,-0.6738941195164359,160.627933946605
-1.0,-0.7410478835637904,120.810049058451
-1.0,-0.6613660579024672,136.825948505328
-1.0,-0.41722214842384686,135.780229475904
-1.0,-1.2828413159154528,131.424788888273
1.0,1.172735575889524,186.270382988466
-1.0,-0.1021426707541091,161.061364589181
1.0,1.3509859954412524,194.721856413693
1.0,0.7734948040010385,208.809775337563
1.0,1.4918027822681845,204.038125039021
-1.0,0.021224695555174155,152.482610299665
-1.0,0.8001309362661408,169.819908603971
-1.0,-0.015194623051085595,147.586500017265
-1.0,-0.727464342868247,154.14541190635
1.0,0.47597511359712075,188.202321094232
1.0,0.8803285701349195,181.641048884472
-1.0,0.17249790016349967,145.52519036879
1.0,1.0822073219902275,176.993077929943
1.0,0.5558499021915874,164.499918603085
-1.0,-0.8843726032036251,123.215903988835
1.0,-0.22270628877732823,157.205025302195
1.0,-0.5990138945819892,166.685112465687
-1.0,-0.9123254686035831,122.802404729026
-1.0,-0.2580238585903876,136.986076153268
-1.0,-1.451067464611884,114.892326418711
-1.0,-0.7661419009539913,125.962116034111
-1.0,-0.6489295961519259,129.587864426525
-1.0,-1.9243162708542756,91.785549827755
-1.0,-0.36563909985595017,134.050235266308
-1.0,-1.6178046909197366,118.797659019963
1.0,-0.056846406811300744,173.431672660432
-1.0,-0.6264015469220264,118.892956803453
-1.0,-0.5072875566185173,117.336588297242
1.0,0.34642109677169464,155.162586782756
1.0,-1.219585008873924,144.763012787371
1.0,0.5230675264016585,188.775536517828
-1.0,-0.8954530544955369,146.203090037089
-1.0,0.21863869352587337,171.184913466072
-1.0,-0.7880487941199869,126.69736732217
1.0,0.3847309952516875,153.031320830066
1.0,-0.02421201612104686,158.387310490431
1.0,0.4188605425085367,179.415810617979
-1.0,-0.29021589568272166,151.729312917159
1.0,1.3514398197513213,211.15356645122
1.0,2.025753704028692,223.612953199062
1.0,0.5793887205212348,180.831237755497
1.0,0.9650523052915441,203.159659639421
1.0,0.18463982948892457,181.526491908666
1.0,-0.04278185138029365,164.63446367018
1.0,0.0028205411498113506,163.783702801819
-1.0,-1.0322638219620466,121.512779746521
1.0,1.901291413321468,211.285555004193
-1.0,-0.2956714266998873,141.30582260142
-1.0,-1.244984273828803,122.543726405007
1.0,1.5869253044853877,228.749628076241
-1.0,0.8957500335685514,167.79126564031
-1.0,-0.16458423937942232,135.642651899425
-1.0,-1.0857826345069799,126.912515456222
1.0,1.2672039105506419,220.261890190739
-1.0,-1.6752886141624828,125.547187166399
-1.0,-0.7206007524511189,145.477539500486
-1.0,-1.0663820188862376,147.964386978245
-1.0,0.3532610270551702,154.362795395461
1.0,0.7767840212150446,185.916641885235
-1.0,-0.6222778610760846,149.408992650491
-1.0,0.008350511199484286,148.633153610737
1.0,1.049067151834643,188.594408168625
-1.0,-0.43758250892046063,144.404883988058
-1.0,-1.3900770703128706,106.855294660298
1.0,-0.24610584587287287,167.55203159963
1.0,-0.3929370035798326,158.34144236048
1.0,0.24374498776046788,173.105548810837
1.0,1.3219999428718905,195.538165951745
1.0,0.4101721724292886,183.704177453964
-1.0,-0.6213979119447441,142.372879940519
1.0,1.0569151429734585,186.550232737993
1.0,0.049115866973850966,173.386830210271
1.0,0.14994635815924431,177.026087781898
-1.0,-0.7373703876324821,131.41893369402
-1.0,-0.2582506478327267,144.018809201117
-1.0,-1.4180693354995284,131.710812833578
-1.0,0.6398856597388807,162.987082787001
1.0,-0.5278372625199057,175.68327610844
1.0,-0.8296402958476731,139.132976418735
-1.0,0.4241607782430832,161.321899972785
1.0,0.8825185013423955,186.236750761078
1.0,0.19596503916616045,167.191527196189
-1.0,-1.2407270420090546,122.221535113172
1.0,0.4915115892019927,171.350323500254
-1.0,-0.3696519641036841,124.231937266715
1.0,0.7250041490258498,190.695532793412
1.0,1.0309929395315853,187.247847502349
1.0,0.5398230780661502,183.818407694197
1.0,0.34558035656762354,163.939878580161
1.0,1.4654685816087292,205.961922492582
-1.0,-0.11798229974419852,152.000214278373
1.0,0.30138828177220695,167.209586154744
-1.0,-0.6249345197686731,110.581001855524
1.0,0.29859880583350795,173.520052717905
-1.0,0.09918736354767309,166.880315557521
1.0,-0.34074780902948076,173.43476234503
1.0,1.375003432101677,204.426255570436
1.0,0.6526575911777405,182.30909810641
-1.0,-1.2954677028224828,125.754421731247
1.0,2.072251206524581,209.237513065822
-1.0,-1.566481088401281,111.077754467776
-1.0,-0.8763180585344442,141.072078285295
-1.0,-1.9027534133984199,111.707368983008
1.0,0.7986769905565435,202.308297333384
1.0,1.4232572964549464,196.505813604593
-1.0,0.007099946617551809,162.303398750158
1.0,0.44805411347422386,181.644444983884
-1.0,-0.2549798348785563,146.08816324695
-1.0,-1.170895059686477,132.602229328457
1.0,0.32459429160174486,165.955952926709
-1.0,-0.8105107077779662,131.647765438899
1.0,-0.1308763554690072,175.56257866451
1.0,0.28121832446982714,192.585560750949
-1.0,-0.4626677210731181,150.817036498971
1.0,1.2484098534282668,200.356641747284
-1.0,0.6085897738854565,151.337910856476
-1.0,-0.036244908911506536,139.638425673039
1.0,0.7722689347308558,191.445654280964
-1.0,-1.764954162367557,99.6584919612722
-1.0,-2.4644557561516502,99.873592652194
-1.0,-0.1336467532644739,149.11852839278
-1.0,-0.5391498064667989,146.701616834121
-1.0,-0.756527937253606,128.196017267302
1.0,-0.4099222751836607,157.000463793552
-1.0,-1.1195696950187943,115.381538188906
-1.0,-0.6734932364341658,122.459648371846
-1.0,-0.02886304850977424,148.414305257976
-1.0,-1.1341431450952493,131.856912229764
-1.0,-0.19868074315522366,152.793643566824
1.0,1.4563237195453653,211.542784549023
1.0,1.072982092586496,203.907421994433
-1.0,-1.2288162170108266,117.848626145069
-1.0,-1.54833089939726,106.642293994736
1.0,0.14147544267260986,166.901514585429
1.0,1.239822434824634,198.824169852665
1.0,-0.4141365503207107,182.589844094188
-1.0,-1.084964622011569,101.232044530406
1.0,0.308912865294005,158.567987385418
1.0,1.572364246903121,217.722610111543
-1.0,-1.937375469482021,116.421136368464
-1.0,-0.9912907639763066,132.006232980316
1.0,0.6119207906056061,186.42541956267
-1.0,-1.1022965531537585,114.142898598438
1.0,0.6874210298985028,177.057807017784
-1.0,-1.523975091304961,116.381974250403
1.0,0.33418207406570594,182.481228574266
1.0,1.2870902477006974,210.270568536018
1.0,0.30649826168718075,163.495202566767
1.0,1.5368663071031237,192.691521628113
-1.0,-0.06486228830932472,160.240878588095
-1.0,0.11035886959893719,142.853118161288
1.0,-0.0476826746982423,172.637611536679
-1.0,-1.401082948388973,121.398690698863
1.0,0.0817924489714382,162.766968330461
-1.0,-2.0247736242878625,109.05162928532
1.0,1.633750025627327,223.935449889002
-1.0,0.3628340912909254,154.041758704619
1.0,0.5260584523231193,181.695335403659
-1.0,-1.71086474516566,118.353635094036
1.0,0.043340837338187096,166.37125799811
-1.0,-0.772421914883625,145.615016741257
-1.0,0.12476817713607119,165.272511306906
-1.0,-1.939311417930557,94.9769448720611
-1.0,0.14497731900684144,162.713391630611
-1.0,-0.4284941628832045,149.111052200052
1.0,0.2710068173694318,178.833361389928
-1.0,-1.4634878585017597,120.926500000733
1.0,-0.2986441149209856,185.467788373205
-1.0,-0.42240014732689657,167.14159826059
1.0,2.1046847318985997,213.482102570528
-1.0,-0.6677432335382021,137.465807551397
-1.0,-0.5022505806549841,122.563653466312
-1.0,0.8510333570185376,186.206456202357
-1.0,-0.49397677981831206,143.663382287202
1.0,1.3129838988035147,209.858256604748
-1.0,-1.584729347884577,121.647420362571
-1.0,0.08794268733125017,159.696170551903
1.0,0.014718594828083952,157.288087962353
1.0,-0.7160146203428179,155.433246561107
1.0,0.2639730001620171,198.550575484524
1.0,-5.015035012908205e-06,166.40188621771
1.0,0.7970371168675064,214.588317240019
-1.0,-1.0934087254839209,118.512310847137
1.0,-0.29850131184629214,155.137550948868
1.0,1.1909313581763472,185.971650002441
1.0,0.7907900806453019,187.084888803081
-1.0,-0.6882156271948212,134.217253090247
-1.0,-0.7800214655612224,128.03723531909
-1.0,-0.42182551321831857,125.775812303844
-1.0,-2.472224487104004,97.3649783271705
1.0,0.07829847390734768,175.192720785303
1.0,-0.6598302155747368,148.916937318908
-1.0,0.8396842092472224,173.529944739299
1.0,0.0750140966461229,168.014029738329
-1.0,0.31549103741813145,179.019157511712
1.0,-0.4172498787792718,177.224826339205
1.0,1.4419031121283796,182.67157794822
-1.0,-0.35317076395732266,151.04164827609
1.0,0.509536011893831,207.784924645001
-1.0,0.684158151085242,179.640836207311
1.0,0.09282278355120355,185.313911322154
1.0,-1.3757761238636714,122.680111752611
-1.0,-1.626832352393336,98.0885173454698
1.0,1.3623088878653538,204.488412374024
-1.0,0.34109633186894023,175.012799747873
1.0,2.3646059226241847,217.971052703788
1.0,-0.6276112922890987,164.77147535216
-1.0,-0.1475403576777336,142.146437863022
-1.0,-0.6957645534843016,121.633408724521
1.0,0.6398340711179165,200.330819451536
-1.0,-1.029138564601357,142.76441834988
1.0,2.168267417833523,207.243853998445
-1.0,-0.023467105708488485,140.856367027129
-1.0,-0.1093966020440556,145.098144824548
-1.0,-1.480018727086732,112.715432765977
1.0,1.0296823903475723,209.58529221358
-1.0,-1.275925758868731,109.20833136435
1.0,1.4533766668484764,209.783979953586
-1.0,-1.4506817783387458,119.209885387305
1.0,1.9269736844326117,221.240095762718
-1.0,0.1945177554428684,131.720517256489
-1.0,-0.3139755972642164,145.442724219011
1.0,1.4488668050485822,198.672697481603
1.0,1.218532699116223,203.139433025567
-1.0,0.4983700367616639,158.535927119776
-1.0,-0.831743361432777,124.490478472305
-1.0,-1.0621789082355246,122.533501204297
-1.0,0.04351040599841464,163.561500746848
-1.0,-0.14294651854878074,138.710513674517
-1.0,-0.7815928239951502,134.955817345201
1.0,1.128793162347952,197.060884068186
1.0,1.367730517260632,201.50381284692
-1.0,-0.7403935184034757,124.467490920429
-1.0,-1.2208578793317957,129.401286721447
1.0,0.6979033425614042,194.68090179018
1.0,0.2714830075981037,195.472663918172
-1.0,-1.3763072960914775,111.765896991427
-1.0,-0.17399881887865268,145.625184197326
-1.0,-0.4239827945105551,137.770832168014
1.0,0.01230001974657413,155.194771686925
-1.0,-0.8710928553407363,125.661024907223
1.0,0.5224446911103255,168.997323920848
-1.0,0.20174246605884194,155.831560422294
-1.0,-0.5490215916768834,124.900181375055
1.0,0.16393941695618372,189.893342494401
-1.0,-0.012945156463723444,151.211971866353
1.0,0.5509053544658177,193.726609048864
1.0,0.10047733816048815,178.382812540571
-1.0,0.14084877211471925,151.612890693732
-1.0,-2.22804203678358,112.45816791089
1.0,1.661968516050957,200.507356240265
-1.0,-0.18270724152264692,139.62257313096
1.0,1.1764842809081972,194.687100760466
1.0,0.45423811859516733,171.452922070786
-1.0,-1.2030461235866943,127.160584033742
-1.0,-0.8188215334186669,140.159026447613
1.0,-0.44095039316211415,160.188531344114
-1.0,-0.0062921515219834905,163.832917412347
1.0,1.3921142401100686,202.268277404949
-1.0,-1.0067182538588588,126.515655307694
-1.0,0.9844626240926252,164.003370219607
-1.0,-1.1374101460958033,129.321530441353
-1.0,-1.663321239489693,103.616818443881
1.0,0.6901956474730602,187.568690225956
1.0,-0.16997511198974452,167.828760290252
-1.0,0.8430115697009473,167.738696686611
1.0,0.5208045303908929,185.536558599738
1.0,0.4263819277689059,171.222080694357
-1.0,-1.1472340277146056,139.48034520638
1.0,0.4207623014944964,170.276247779189
1.0,1.3739751330046606,203.560177162322
-1.0,-1.4311098648636666,110.303388219113
1.0,-0.6817270617657826,146.159211075878
-1.0,-0.9479978684162338,136.135549774157
1.0,2.064110785095363,210.267888499549
1.0,0.3430870024948379,177.909685022625
1.0,1.6058990450448973,199.168830256129
1.0,-0.24471001690450667,165.848029266853
-1.0,0.41621988712077423,188.872275271893
1.0,-0.13293875561974294,157.317461364304
1.0,2.0669707687320797,210.041703167251
1.0,0.7404052440246509,184.936690322645
-1.0,-0.3725409531365927,154.700225446816
-1.0,0.16072515169520185,142.920389277444
-1.0,0.34990399384077914,157.22089790489
-1.0,-0.7426980469651346,114.087595997379
1.0,-0.28487172831529095,156.579802693243
1.0,0.6007989090741997,177.521933002092
-1.0,0.3978196838424017,153.280480607347
1.0,-0.4266078985900533,143.347565498203
1.0,0.662472577700684,213.143153783936
1.0,1.1397724349912486,202.741657260278
1.0,1.3415625974280685,220.94065027989
1.0,0.7380535578486609,172.775162679409
1.0,0.18392819300047394,182.241531585206
1.0,1.9457888334333395,217.886922005966
1.0,1.2370958543928965,207.575178539761
1.0,-0.010007573627085717,175.683587869239
1.0,-0.22424272991534175,161.745070770761
1.0,0.44742218279123197,173.828764940752
-1.0,0.24766408678488291,149.078827195281
-1.0,-1.280966669599031,124.260070655872
-1.0,-0.6040471647048697,165.326424284525
1.0,-0.08403001518193946,170.79874387414
-1.0,-0.7064787701160529,134.638714693708
1.0,2.4647062562214006,227.277965379289
1.0,-0.8507384733595563,154.888895277244
-1.0,-1.8273555959870245,121.185995798438
-1.0,-1.7812018511595913,109.421206011743
-1.0,-0.8673339007140828,126.733534709637
-1.0,-1.3345572571909814,117.144139439547
1.0,0.9852838831579088,200.534178304201
-1.0,-0.9066682335438986,124.954627794587
1.0,0.8993049391743402,206.592175127763
1.0,0.6873506483374865,182.686684277419
-1.0,-1.2038197278160296,145.559462503418
-1.0,-1.2153905574901043,118.201971175305
-1.0,-1.0739413029871985,120.421334011018
1.0,-0.4257346783324165,161.952431163973
1.0,0.5186583517631712,179.949089266523
1.0,0.04211916858201944,180.296519921324
-1.0,-2.0143908195139826,113.16806665488
1.0,0.903743412329991,198.630278194117
1.0,2.241601366167844,227.010084050185
-1.0,-0.35914461629227445,141.288353684465
-1.0,-0.9182619229107973,132.419183779592
-1.0,-1.9910723957010614,120.253512026281
-1.0,-1.2452604897887398,109.07631723818
-1.0,-1.0005173188170555,129.279567833282
1.0,-0.05713597651062269,183.935070087864
-1.0,0.42588672524683047,160.498871328297
1.0,1.5152486814420296,193.790994645888
1.0,2.0346589946954583,225.327779059732
-1.0,0.25486010679609306,154.877197038327
1.0,0.16357371439102253,164.943302997003
1.0,0.5178260920678505,174.198289239276
-1.0,-1.5444260707619168,130.629367670644
1.0,1.6046862700564735,213.716956783022
-1.0,-0.9437508140736937,124.771600947162
1.0,0.5453154977998985,200.010156872524
1.0,1.4804064350765445,205.941639835332
1.0,0.5847754766313951,179.132024597883
1.0,1.7394423762806541,196.059169371603
-1.0,-1.7695133727852617,110.918225634754
1.0,0.6270050627281579,174.579325278338
-1.0,-2.13437869699888,95.6788715811646
1.0,0.5834053920891482,187.739192919863
-1.0,-0.5648707638864076,135.971015008065
-1.0,-0.2502193562821636,144.025941163566
1.0,0.6621860111775812,172.930340699224
-1.0,-1.507296595265498,110.490718413001
1.0,1.161681367272031,215.946998824017
1.0,-0.36043377164713364,151.449737418287
1.0,0.8339827518592301,203.289127006805
1.0,1.3219998155071293,210.692147696716
1.0,1.2248797928697581,209.853553640725
1.0,0.567488797301544,175.219518795655
1.0,0.4910111747828132,201.868142674519
-1.0,-1.2573504612526936,106.304317303014
-1.0,0.2647872466932975,168.140553130811
-1.0,-0.7866393951556454,140.618434726989
1.0,0.10870998372386764,186.304735627593
1.0,1.6765047320427628,202.948003531212
1.0,0.37379636525377774,197.082611042199
-1.0,-0.6062067235303642,137.424657358474
1.0,1.976679816424432,216.859756161093
1.0,0.07806278814570058,176.882637427565
-1.0,-1.6043993103796097,127.860000106261
-1.0,-1.4785769551822,120.618534909866
1.0,0.4942262998818579,196.843333927174
-1.0,1.0377476101918828,185.848720873231
-1.0,-1.1463312480211962,130.971641450175
-1.0,-0.9532421648023416,128.052130974831
-1.0,-0.7864272197172503,126.839225475095
1.0,0.06444177496294205,165.350100773614
1.0,0.8417052871808569,187.531900174482
-1.0,-0.054454850348787415,160.410502733551
-1.0,-2.331436608786711,106.58756270741
1.0,0.9577063113621069,200.818737313254
-1.0,0.3302435638597455,152.026630885817
-1.0,-0.8700204460383779,137.899014653914
-1.0,-1.5068508045786169,100.272980557897
-1.0,0.7829249482122073,177.700043739673
-1.0,-0.7902237606581454,144.273382407219
-1.0,-1.7519131582835283,127.003820747696
1.0,-0.2981754538591888,161.719569770897
1.0,0.6682857064347466,178.209301402565
1.0,0.003606568132147877,172.735908265385
-1.0,-1.6809776058430004,118.468947054012
1.0,0.3210280768897761,149.5671682469
1.0,2.038204287353948,197.474827622943
-1.0,-0.5759787379254816,130.434558208938
1.0,1.7254894951339532,201.745667002798
1.0,-0.45973706801789516,173.992094268605
1.0,-0.6331019392214179,162.247075758548
-1.0,-1.7310875756087731,109.923623246467
1.0,0.35350995877803776,175.209963984455
1.0,0.8917592213654376,181.418073997721
1.0,0.3681047276517731,182.62172982373
1.0,2.7226942960648235,211.724166456081
-1.0,-0.23445126918449938,150.469160712364
1.0,0.3279715736704001,177.429507082272
-1.0,-0.5102408776583949,142.161396233841
-1.0,-0.46799941441991766,143.07222337068
-1.0,-0.08368156773436973,143.327828781158
1.0,1.1471253311680598,191.96817787473
1.0,0.3403035731016115,179.750807982436
-1.0,-1.591238765456768,135.511964950233
1.0,0.9100643475923473,195.71469296987
-1.0,-0.6942932565548704,145.573254253088
-1.0,-1.0201352027396529,126.522643200024
-1.0,-1.5387695524953295,117.653785035939
1.0,-0.6645079550890611,166.461037984827
-1.0,-0.8453362214279407,127.508135982421
1.0,0.46952074792687604,179.070339397527
1.0,1.311015062746468,210.430610474423
1.0,0.05654140011759663,175.056233911292
-1.0,-0.15234021415163557,143.155041309031
-1.0,0.042089800758012996,149.739207835778
1.0,1.1194649719570793,193.55919238721
1.0,-0.49809746324266246,147.044657352242
-1.0,-0.7780493680648723,138.024803709393
1.0,1.5853737724835313,208.294588690205
1.0,0.4882298988613295,193.277623999542
1.0,1.1118424147867343,204.868290709098
-1.0,-1.4317881567284672,114.214034424918
-1.0,-1.3490592973026707,127.197055303308
1.0,0.32664578053611265,178.233066353302
-1.0,1.0462248021966662,184.658610479957
-1.0,-1.047399442548124,129.256562323502
1.0,0.4958756139864645,176.179068841408
1.0,1.4125756396280509,190.354210360156
1.0,2.0881072770778686,223.825507204988
1.0,1.6501305580295629,195.356431283068
-1.0,0.1568499499314186,166.398387131634
-1.0,-0.5482281617584044,140.236766031172
-1.0,-0.19684179891829087,151.169475049508
-1.0,-1.9381796189864398,102.08832636784
1.0,0.7543582704692487,175.046841795658
-1.0,-0.7566308108287737,138.206754175679
1.0,0.6869901960745495,177.586828357483
1.0,2.5092137455062034,235.926060648678
1.0,2.1316496745531315,234.809179633524
1.0,1.4840600731355693,213.188863570632
1.0,0.9688822751655536,196.188048348087
-1.0,-1.4039054655910577,109.946334605674
1.0,0.28518888514552576,180.875860459663
1.0,-0.6375889285382595,167.842391509704
1.0,0.6827498976682084,199.782400694049
-1.0,-0.7460373176791261,146.229435886445
-1.0,-0.33832384888456185,154.493133335891
-1.0,-0.4957055611685913,138.537481395977
-1.0,-1.4238108174000759,116.567487619501
1.0,0.10342421256365819,168.074511931168
-1.0,-0.6995653187260363,122.344654587626
-1.0,-1.4992513426012308,104.850596393218
1.0,0.4243251665574165,181.146041967053
1.0,0.054758637665058785,164.117030445541
-1.0,-0.5700777991626937,135.131330793471
-1.0,-0.12672295604888079,131.761442822398
-1.0,-2.0240681190841983,98.585908219447
-1.0,-0.4879057008624687,157.116970421069
1.0,0.09774163800560319,167.739775344302
1.0,0.14843174012711163,175.942606656407
1.0,1.362160577563933,210.325952008248
-1.0,-0.36568767489721116,142.093483033212
1.0,0.4155724463522971,186.606551866311
1.0,1.8398777559712352,203.240583689209
1.0,0.1860259835308184,182.008910846813
-1.0,-1.0239411253612092,146.435582366983
-1.0,-0.2678857080734446,132.008418192074
-1.0,0.2642197311566215,156.492674361252
1.0,0.43959700300194327,187.779075398895
1.0,-0.30493378038659774,166.707373059357
-1.0,-1.4835992391338266,117.931116327742
1.0,0.8315192026334494,194.984263204543
1.0,0.9138508654433138,181.674739027445
-1.0,-0.6180556760803803,141.487752526284
-1.0,-0.5989745101545162,114.059617387543
1.0,1.2584382535491845,196.14550620845
1.0,1.7418903375690495,207.652627821709
-1.0,0.15836201348516343,157.611683331829
1.0,1.2172991916666882,200.734578094148
1.0,0.39812591850679463,186.381289115608
-1.0,-1.9200262220128939,105.971759903372
1.0,1.7605937724898038,193.926034192487
-1.0,-0.8300473667397968,134.931119765396
-1.0,-0.9688628706759886,114.82280277388
1.0,0.3713360915931792,184.862913284896
1.0,-0.4752691458593703,157.129277198286
1.0,0.08518868306877797,155.128964521951
1.0,1.4072476865814456,196.522152004661
1.0,0.6396777852956997,197.737905022318
1.0,-1.3361794867881618,153.520978630761
-1.0,-1.2896148255970636,125.006103618663
1.0,1.0672626915247274,199.356143981321
-1.0,0.6270737876221106,176.450817700996
-1.0,-1.0412920735247237,112.283012471067
1.0,1.8970605986351563,208.366179328565
1.0,1.3341409051113793,195.476003211213
1.0,-0.8042989923446636,143.248671752226
1.0,0.48976143846043724,187.060552163801
-1.0,-0.9734587453256839,106.593985687972
-1.0,-1.184534188171411,132.522516142785
-1.0,-0.20419240165974886,143.541242212163
-1.0,-1.5540795762533486,126.703053378312
-1.0,-0.09168064181651257,161.107167807521
1.0,-0.6185150740483363,150.979051250134
1.0,0.3052665797306587,168.761479501684
1.0,-0.045170986016346275,176.585339759219
1.0,-0.6513614007108588,157.413147081601
-1.0,-0.7214782363651915,128.614684828773
1.0,1.647125463441136,203.192182107662
1.0,0.42926287716589656,174.265162856676
1.0,-0.3015627355356512,151.875669056137
-1.0,-1.149708311085101,113.649102675312
-1.0,0.2637968689598118,158.81750239703
1.0,0.8432388831368148,193.635366334802
-1.0,-0.6563647213851845,129.555974846026
-1.0,-1.716684483703835,105.152517099366
1.0,0.40622920669049756,178.965963782647
1.0,0.4431880800394991,177.554863409929
1.0,0.8449723176993181,189.584957331078
1.0,1.636676956481478,219.87729779787
1.0,1.3848343626553876,197.375665701557
1.0,0.8928008466617966,173.041255909233
1.0,0.42225429324680913,172.515530483668
-1.0,-1.303875265090812,121.966343592203
1.0,1.4523822358136023,205.564071301754
-1.0,-0.18114937546500529,158.044333094153
-1.0,-0.7438044108862839,138.221630721892
1.0,-0.3784537757898639,159.195105564942
1.0,1.0356355930756591,187.82047312958
-1.0,-0.4111958612556325,148.431176858902
-1.0,-0.44880481585327614,119.32933018666
1.0,0.5072671743015099,173.777186361387
-1.0,-1.115967271264975,121.95199423137
-1.0,-1.1808308237042544,133.692684009314
1.0,0.8189762066653731,189.617453817508
-1.0,-1.486861254327553,121.880256816862
-1.0,-1.1203149651363513,138.296689367365
1.0,1.044927463147989,181.002358907756
-1.0,-1.1207985409535255,122.674048590663
1.0,-0.17537589421697733,168.232586357251
-1.0,-0.23842387394894637,150.33879365403
-1.0,-1.3732661773313966,130.377467219993
-1.0,-0.02659947240193469,158.742915050982
-1.0,-0.501792248690823,151.979661880657
-1.0,-0.9991194265354423,127.149734648921
-1.0,1.0153685026378336,187.001787580092
-1.0,-1.4476874082945996,125.934423770373
1.0,0.4827496585568464,186.197249914529
1.0,0.8230072569638809,175.818974977575
1.0,0.044771883328815876,175.093254689416
1.0,-0.027223960618027787,162.77958340469
1.0,0.7613762873948273,185.649086336434
1.0,-0.2653243475848157,162.687710272736
1.0,1.6066422687035962,203.627583742114
1.0,-0.48549170229678257,164.723130530328
1.0,1.0993230263171074,188.4506741498
-1.0,-1.0803831998105449,136.354632672288
-1.0,-1.0498500901334553,114.384283512834
1.0,0.7391211844837303,183.096624151011
-1.0,-0.49761185559764076,134.550509213021
1.0,0.5336972359639685,190.795542169576
-1.0,-0.6173088799766098,134.353308041025
-1.0,0.2650001379689061,153.134385399519
-1.0,-0.9902893003466356,136.168888322192
-1.0,-0.04513986898515927,163.811182573868
1.0,1.0851231370298833,197.04185851977
-1.0,0.40106373271944007,164.395261722055
-1.0,-1.0176637115142237,123.263809871912
1.0,2.0545279733978727,209.937492806304
1.0,0.18300980562614919,164.806605914513
1.0,0.9031951093271335,174.213404449956
-1.0,-0.6207741786013232,134.311979088381
-1.0,-1.459878961445663,113.418401494811
1.0,0.6280484045160156,187.635463802389
-1.0,-0.3096444945120513,139.996347326218
-1.0,0.12555867473469068,154.082410864962
-1.0,-0.9786775974444256,117.130920241326
-1.0,-2.669201407310571,104.954100411731
-1.0,-1.2736676517815664,137.143537430737
-1.0,-0.6014721559040689,142.999379460173
-1.0,-1.0228204064896085,116.161491547557
1.0,-0.4592682668321672,165.463352397708
-1.0,-1.2568735502858817,127.961964112276
1.0,1.5641320710491011,189.16559194736
-1.0,-1.2764821582830814,119.548497493285
-1.0,-0.5447155304234395,121.741340005636
1.0,1.7651389361270187,230.994904705117
1.0,0.8635466055346507,177.988816163596
-1.0,-1.2443716755792755,137.053056598707
-1.0,-0.15933419342798194,152.284627603385
-1.0,-0.004209108883776511,131.277990256992
-1.0,-0.9221466213642833,125.441175745584
-1.0,-0.6692023865372707,132.119905454684
1.0,0.5733793082362625,199.487271198336
1.0,0.7756724885632068,174.359598738334
1.0,0.12987843442899752,166.398121654861
-1.0,-2.34304141998092,72.7501446905149
1.0,0.23541844451213,185.285081776391
-1.0,0.10387386299336114,157.006813541203
-1.0,-1.4916975090218312,130.999824233273
-1.0,0.19000772155066048,160.693329855376
-1.0,-1.6519939406377577,109.049629540284
-1.0,-0.5266499770106019,128.631500410281
1.0,1.0921571751698484,185.963995077841
1.0,0.5609528396818452,194.110669885852
-1.0,-1.2062762070417268,117.37032054242
-1.0,-0.6808519443542237,137.152976378839
-1.0,-0.5841771306352161,142.053883569617
-1.0,-0.3871564768719526,149.81288156909
1.0,1.4276667911932852,198.407146347278
-1.0,-1.422967623415458,134.713555165105
-1.0,-1.2165988021197602,118.738642506669
-1.0,-0.4677026006568351,143.236838685381
-1.0,0.21071998217119275,166.601376562662
-1.0,-1.1889951689180691,129.781407047572
-1.0,-0.4439755880235933,151.461272012951
1.0,0.8487956748727401,189.651557182534
-1.0,0.20316568501407956,139.552814769724
1.0,0.053888455143636285,163.241254688207
1.0,0.3037084398156877,177.056515488706
-1.0,-1.2891294844415715,126.474528182468
1.0,1.4011164224720611,211.737441830037
1.0,1.0756549198439036,214.26941396547
-1.0,-0.11559080298546602,161.747261136108
-1.0,-0.9910070288018136,107.732872765917
-1.0,-0.4924530539395661,128.191746209401
1.0,1.8822237666472708,211.460479807153
1.0,0.7994351474578807,197.645645149133
-1.0,-1.887686943186811,125.04975697772
-1.0,-1.1820899517121606,121.580383946857
1.0,1.6166551320765836,189.104045711967
-1.0,-1.16248774473779,153.465823856868
1.0,-0.5363118799450154,163.108017147583
-1.0,-0.6118275887642595,121.812722244771
-1.0,-1.023225733190049,127.765249467294
1.0,0.41613360307901603,192.059873564602
1.0,1.2591872915480193,198.045548342651
1.0,0.47319418821166664,190.268425459741
1.0,0.8166503937594449,203.985415487617
-1.0,-1.2620611179149273,136.424501103128
1.0,-0.7947293079837059,157.003543665807
-1.0,-0.33581315198972495,143.185710167675
1.0,1.24855069232429,213.457232614393
-1.0,-1.1288167175830623,116.971457537277
1.0,1.128187302176008,198.759126649571
-1.0,-1.0351343822176928,118.977188481373
1.0,2.329738647521121,240.44081593557
-1.0,-0.9573658203742672,124.440025569112
-1.0,0.4581999529774589,177.240131210861
1.0,0.7040226265841473,197.488242598925
1.0,1.3617683739503563,209.964943185152
1.0,0.055736949794305504,181.227981479645
-1.0,-1.30763236662819,127.341819977669
-1.0,-1.2574874197837567,126.352118738195
-1.0,-1.5717565971074534,114.777133984642
-1.0,0.748605620670703,169.630306849238
1.0,0.16208818540533182,159.761656400265
1.0,-0.32657499529644535,183.862263280682
1.0,-0.43110500477070207,184.426610901015
1.0,1.9538238156949208,209.626572419174
1.0,0.9628115721801963,207.086675062813
1.0,0.9505681272663103,189.91196464108
1.0,0.5808020963861701,191.958900203991
-1.0,-0.6662866390349251,120.607957981681
1.0,1.0801409208735138,207.532838518544
1.0,0.9434851321603707,198.817508176949
-1.0,-0.030655910351200157,154.857522823554
-1.0,-0.6795588113051247,129.872985401821
1.0,1.3126969495956113,209.226566604938
1.0,1.3852748362318608,212.509061383528
-1.0,-0.9750503746062887,127.965249309513
1.0,0.32523437562339025,190.740873102623
-1.0,-0.6496703119882377,126.834671797464
1.0,1.7069494553427045,210.054856010528
-1.0,0.06393241889847137,148.60525480615
-1.0,-0.3828816911252869,144.593585247652
1.0,0.46215390978052384,197.476929784559
1.0,1.6446962850599738,181.325329135447
1.0,2.2320654636038246,221.15946610755
1.0,-0.5964337557618374,156.797857988006
1.0,0.2809987442136755,170.505748711461
-1.0,0.5269154097179702,149.302806065575
-1.0,-1.1915822851248679,118.145506871255
1.0,-0.2643775505612414,146.739797635802
1.0,0.7643125599670768,195.176476367972
-1.0,-2.4479653595712896,107.171855854965
-1.0,0.052342839743824914,149.082480309893
-1.0,-1.2471601429011654,103.323656402734
-1.0,-0.5137695055640158,138.471776884101
1.0,1.4958988159452717,200.907146122523
1.0,-0.3069631602945202,172.453691601477
1.0,0.6713764316899757,177.02318933412
-1.0,-1.7220436758300646,95.933285537061
1.0,1.9441333948138493,208.357964070332
1.0,0.16485288110764218,165.603321431167
-1.0,-0.2498505393202276,158.055365734088
1.0,0.9669531434627526,198.702175855683
-1.0,-0.7697469184758308,129.372212442842
-1.0,-0.36882999118336185,141.689745352379
1.0,0.3722278572415043,177.786077589165
-1.0,0.9428972462124015,176.550874225454
-1.0,-0.45333516717733185,138.056157131942
-1.0,-0.3937815366368007,140.228602729561
-1.0,-1.222906438197237,112.565576386528
1.0,1.7906211863017285,205.575284102209
-1.0,0.39371521084969374,144.915793862608
-1.0,-0.8392036022851908,141.769751769082
-1.0,-0.4982375600410424,128.1972734806
1.0,0.17862845452778164,169.814525371342
-1.0,-0.6275074523525968,131.453081198777
-1.0,0.0778561532616866,161.034529438125
-1.0,0.25345616415777034,144.924252084822
1.0,1.3836352042742608,188.656335367107
1.0,1.8730915689707968,199.46931903045
1.0,-0.04105242678098446,182.946419068857
-1.0,-0.3124492901368114,145.751634430947
-1.0,-0.6826695706938485,131.687999214627
1.0,0.30023394739950715,172.867726636091
1.0,0.4611196444098946,170.799951410169
-1.0,-0.25121830430507,158.224826445444
-1.0,-0.047361444186334346,157.682950391288
1.0,-0.6261641163018173,138.576564110431
1.0,1.019193345105957,192.737926737728
1.0,0.8062428838710833,202.649823456785
-1.0,-0.5588979524213642,137.001510230805
1.0,-0.6758984034388958,159.294090456045
-1.0,-0.6115852664298908,136.703387469422
-1.0,-1.2416658694611442,125.517769043557
-1.0,-1.0964117210403272,131.11497267071
-1.0,0.30796488835939545,160.726511331665
1.0,-0.9891048074439391,164.051982770603
1.0,3.14360221807595,227.342564876735
-1.0,-1.6605250884933578,114.29937109119
1.0,0.6294400988565045,187.056791918512
-1.0,-1.1413742795802788,141.855825003357
1.0,1.9020002777350855,223.270004412371
-1.0,-0.8655626570038628,131.048845282274
1.0,-0.1930267751616727,168.035235364942
-1.0,-6.289785597646247e-05,156.421116638841
-1.0,-0.9097822845582445,138.439090326543
1.0,1.5938364146220496,212.970303259001
-1.0,-0.768425288796902,129.196149161022
-1.0,-0.6770855455291318,132.611074008374
1.0,1.3217511422644612,196.142630885838
1.0,0.6956260257107271,181.377015019601
-1.0,-0.1716344231587333,156.063310980655
-1.0,-0.7694337492857551,128.848389435403
1.0,0.4574638894373332,175.636538177126
-1.0,0.583145556639665,174.978168656253
1.0,0.20187514829765896,175.679190176701
-1.0,-0.29936755415262983,150.646649579347
1.0,1.4308666242240047,193.13807676563
-1.0,0.31743527473524163,150.380597436566
-1.0,-1.5395102867499981,115.440497895383
1.0,0.29310108976846055,188.956673957718
1.0,0.38011800381826055,172.776568980666
1.0,0.3891491703799511,202.441043226235
1.0,-0.11509748301887657,152.949488391698
-1.0,0.35131669975311397,151.846182102681
-1.0,-0.5889314981868266,125.109482735642
-1.0,-0.6346981371018778,146.80505773827
-1.0,-0.6964708891994194,136.353418523922
-1.0,-0.41252955846782097,137.922681216022
1.0,-0.3461548508394803,168.61867585563
1.0,1.6747880327169684,208.848846495439
-1.0,-1.3225937274083186,141.212122695795
1.0,1.7301962519927363,205.281493175
-1.0,-0.10534092801031587,156.096074244372
-1.0,-0.7562391829804402,133.575257573268
-1.0,-0.23301026103012654,144.379121833208
1.0,-0.35508899896775103,161.029415825707
1.0,0.5977118613881415,206.515756632978
1.0,1.3613540504880672,192.427913613357
-1.0,-1.4623532668875368,118.418728094186
1.0,0.7370993770951202,186.393762304283
1.0,1.2974984483336132,197.472655563994
-1.0,-0.8033091854073481,116.76184034426
1.0,0.1763706546863743,160.156115646141
-1.0,-0.6707263229185235,120.838528221416
1.0,-0.021185278353670157,191.279163405694
-1.0,-1.170146259683016,106.732049474341
-1.0,-1.180027326028182,123.822844285578
-1.0,-0.6442588072483649,160.584557338175
-1.0,-1.4683848426306432,116.690215074499
1.0,1.5539571910074101,213.12967321174
1.0,0.8418494735774069,184.644156760949
1.0,-0.1823602716748936,164.21563918356
1.0,0.4778067160946987,200.754487560994
1.0,-0.872061779556051,162.690594098404
-1.0,0.05961370358289475,135.930894459066
1.0,0.04520589655977192,175.983491137569
-1.0,-0.9806268653116896,145.987786783849
-1.0,-1.048009897496532,126.311229615652
1.0,-0.20149157169103749,174.81534851306
1.0,0.5402784157906654,199.382880743295
-1.0,-0.9516252595718875,126.98432139872
1.0,1.0026064353826751,205.684438396274
-1.0,-0.6060957174902581,139.325029610765
1.0,1.4521205903576693,205.012924750896
-1.0,0.633452673617312,167.946171555331
1.0,0.6148224522212344,179.2047820686
-1.0,-0.3851526432317956,130.615848087016
-1.0,-0.6175397845189302,142.636072960776
-1.0,1.0318763008259106,174.031548236652
-1.0,-0.9449312565174881,126.373784882524
-1.0,-0.9162796868765252,134.991464818202
1.0,1.594141321243152,201.655055938162
1.0,0.8793195151122752,185.427970139056
1.0,0.705191056917422,174.391088447286
1.0,0.012698245518515401,193.601091494664
-1.0,-1.4238577780837884,113.062457650902
-1.0,-0.42254079509247794,152.978567802506
-1.0,0.18464147887838284,144.848007820046
-1.0,-0.28304297153517594,143.531071668535
-1.0,-0.46284081636349134,147.179384480972
1.0,1.5461557905337566,203.988287972572
-1.0,-1.5055210246956454,99.2862980777016
-1.0,-0.5489267523284374,142.503455243134
-1.0,-1.5926797490510778,121.502890813827
-1.0,-1.1940381883056193,121.895472058693
-1.0,0.011267025864485284,161.99138563683
-1.0,-0.9307290348363139,107.695853478586
-1.0,-0.8420156144204358,136.592800500294
1.0,1.4055085862945613,189.639305713299
-1.0,0.2841044430670516,165.866935218659
-1.0,-1.889439917793254,110.529685683049
-1.0,-0.6291290423761432,138.86544352364
-1.0,-1.4247019036169217,139.173175213203
1.0,0.5731562432737025,189.126581719615
-1.0,0.23651108334083074,146.491898249847
1.0,1.3871047862037114,202.995132804937
1.0,-1.3133853696390854,149.877065730976
-1.0,-0.9897927550165625,129.439231106236
-1.0,-1.0724331156583315,134.403266694157
1.0,1.6106368754243665,211.766426777818
-1.0,0.40764020331360995,154.104349404932
1.0,0.7750385062331668,184.316088219314
-1.0,0.5388162473617828,153.584230580735
1.0,1.0931634303527005,213.059851128224
-1.0,0.27066985568733404,170.270947718714
-1.0,0.020451006109440915,135.608858594301
-1.0,-0.943626318229576,112.871363392254
1.0,0.6452332283357847,193.762099235717
-1.0,0.8752829045443883,159.629646600913
1.0,0.687514080007546,196.322531072484
-1.0,0.18276228147227386,154.711459145125
-1.0,0.2592856436062647,154.044531626765
1.0,-0.3249196200691632,165.717112190107
-1.0,-1.4648326280731023,119.967881328411
1.0,-0.21541953487663468,158.703141332814
-1.0,-0.8020022468908055,128.489854292
1.0,0.520209365591585,187.923052494574
-1.0,-1.5020161947213702,109.306131003385
1.0,0.6439669634503988,187.02782850743
-1.0,-1.1169192476004273,119.298986787558
-1.0,-0.1536818040820746,134.001346887488
-1.0,-0.9301740765125187,130.071925160203
-1.0,-0.19154981329570567,157.834902333155
1.0,0.44296303705585843,172.706258283303
-1.0,-2.3991300531667834,99.1084992611307
-1.0,-1.5048067721398715,118.242811799265
-1.0,-1.8337431905221524,92.0430875699975
-1.0,-1.1384577738696824,126.409431105259
1.0,-0.7376339644564832,156.78929319434
1.0,0.7282765548177721,181.815921528124
1.0,2.2972816665114872,228.761780615196
-1.0,-1.1861964189623564,125.228439302866
1.0,0.6775914089715911,192.129879968925
1.0,1.1617386957399969,201.403402398429
1.0,0.4608463417605372,183.044660372103
-1.0,-1.1351344561286176,117.048353968405
1.0,1.8432559207809671,211.789007861233
-1.0,-0.2745342981683774,140.266700393455
-1.0,-1.0750718391825917,142.155661288298
-1.0,-2.074418339234748,102.063907340682
-1.0,-0.6288514216603265,125.818926471258
1.0,0.6062805043351163,186.812060623585
1.0,0.7250814443404598,185.414435390982
1.0,1.8880262376959158,215.554558736004
-1.0,0.4506007789601493,166.575660760601
-1.0,-0.22870886149120942,146.060156343627
1.0,-0.466469011580112,176.718916993233
-1.0,-1.4922444506309709,128.617380700552
1.0,0.7382008077517526,186.177473787603
-1.0,0.1596354403415248,158.847955733687
-1.0,0.07363889609606578,156.037047782656
-1.0,-0.7582280822180155,133.515492001933
1.0,0.34008697705779767,188.311394125276
-1.0,0.12975093910966332,156.518694727146
1.0,0.021957723950280995,174.913816677933
-1.0,-1.5192691845072408,113.266333576858
-1.0,-0.8484317012618553,131.794463059161
1.0,1.3207377934629723,210.20447888821
1.0,1.57070409706766,189.384438292527
-1.0,-1.211743471225543,126.787299377007
1.0,0.7472653800664912,189.627852131872
1.0,0.41288032262938,166.552966199901
-1.0,0.2117102101284334,164.779375641609
1.0,1.829265267513549,209.260758499741
1.0,0.49710418486479757,177.630111723563
1.0,-0.4190830396068499,160.975017654154
1.0,1.3900367890655403,220.273900961904
-1.0,-1.221374271766922,112.9355905576
1.0,0.9678865622158057,220.52341240301
1.0,0.7909635465733302,180.718257678176
1.0,-0.1334312832809275,178.031459645313
1.0,0.2319509213581893,186.320797193534
-1.0,-0.7543523566811747,126.355405632671
-1.0,-1.5799737204742164,130.440809040632
1.0,1.0702822078367453,194.786198325054
1.0,0.009054918275177149,165.955934671191
1.0,1.5311502732162219,192.910266551722
-1.0,-1.9244574468267592,110.815421111937
1.0,0.43069009760698007,185.404851939128
-1.0,-0.8180546744632684,125.074858607383
-1.0,-0.6023385273998344,144.662003387572
-1.0,-0.14319185828154538,110.488486684118
-1.0,-1.7178420835635269,119.164742669656
1.0,1.2078630127274745,192.873509134883
-1.0,-1.6316187296139557,117.895237394228
-1.0,-1.5417410895230588,118.098866565329
-1.0,-0.5619928677673705,143.623303795025
-1.0,-0.8648271134536075,129.545202140483
1.0,1.3843270115771513,206.940726173686
-1.0,-1.2251036604863357,141.49632459471
1.0,0.6539997867118108,181.512004045444
-1.0,-1.434401779618669,119.557245638926
1.0,1.4228353804611549,207.957832473152
1.0,-1.5851104087947605,126.455612757901
1.0,0.3994613305259648,165.763925844188
-1.0,0.019424370624735343,145.653808863046
1.0,0.9686072157322363,167.301408606857
1.0,0.16382823089417853,178.057335561343
1.0,0.17264350160439626,188.155622361558
1.0,0.3106963270025748,171.266429819698
-1.0,-0.2852526862278347,145.768090615387
1.0,0.9932087275695384,192.860019954761
-1.0,-0.9241854985331649,129.822383356382
1.0,0.4364672936578903,177.123991036941
-1.0,-1.0404629009622657,128.419625530123
-1.0,-0.855796273374493,146.905558126176
-1.0,-0.07922232770046621,160.292250557623
1.0,1.3411311173843783,206.54395342862
1.0,-1.127927665273244,149.231284287071
1.0,1.9666390914377834,218.550093254024
-1.0,-1.0683055461422315,115.79739340816
1.0,0.4543694720483109,167.880720453114
1.0,2.205579248234841,229.402041956599
-1.0,-0.7787469032890306,128.118169123676
1.0,0.9609581711881077,192.045217981351
-1.0,-0.7454281634000485,123.586079174951
-1.0,-0.2661037775667298,128.24054801676
-1.0,-0.8801960526847851,154.428477515132
-1.0,-1.1730482836260536,118.786262779977
1.0,1.5318717395801402,216.867467177739
-1.0,-0.3407938716429584,151.113500080107
-1.0,-0.6724417608022097,125.964967064398
-1.0,-1.116576471667893,142.663619361408
1.0,0.49734168825934283,186.677678273241
1.0,0.9924767212488945,188.001394221727
-1.0,-0.7006375281000943,149.155947076426
1.0,-0.9508543815032264,152.820468105226
1.0,0.9634554849157393,205.387909895344
-1.0,0.11549047831210317,139.786475579899
-1.0,-0.8387206235493104,134.749660807651
1.0,2.690803681055121,236.146730225573
1.0,1.8789555596836793,229.554636629063
1.0,-0.620922804734863,158.207409568587
1.0,0.3987084271834501,184.059658918228
1.0,0.9338831795027247,199.816809834134
-1.0,-0.5964229814697516,127.223188135152
1.0,0.5217209067449093,184.634413540264
1.0,0.9076484075203305,197.070856157865
-1.0,-0.5572126589042072,124.776506028559
1.0,0.20168497460621615,165.143923827387
-1.0,0.46593265070989354,158.096183401911
1.0,0.6789722124765435,195.122147532018
-1.0,0.13725600073672886,151.53128338156
-1.0,0.1534023353326151,150.823516056301
-1.0,-1.6764663910061341,118.463414143016
-1.0,-0.7505322787899773,150.470401297209
1.0,-0.18865275214343805,156.288168385739
-1.0,0.3810143046754328,180.289831374591
1.0,1.1577770240478749,184.447666728551
-1.0,-1.1779291596912291,118.361356571278
1.0,-0.4919801457613711,169.430634272192
1.0,0.23426665050142104,190.361496901964
1.0,-0.9792001562363265,151.720703729313
1.0,0.4100560586082331,176.935955204858
-1.0,0.2214697648285961,172.19297773909
-1.0,-0.7795651802625037,149.115504777396
-1.0,0.2614892231854845,146.023295039745
1.0,0.7075212194549484,184.435174408406
1.0,0.9904899274539811,198.367612206909
1.0,-0.4161920689562399,167.127461073476
-1.0,-0.6320900794549892,142.987758923614
-1.0,-0.5833677288506317,144.457759045625
1.0,0.8576208676051796,192.558899475879
1.0,1.6602800144874723,206.710916509747
1.0,1.3525293228853472,176.376642766115
-1.0,-1.6160609475450376,103.979162647724
-1.0,-0.11835264387277293,159.231768186134
1.0,1.1289553811182016,204.755780077144
-1.0,-1.1124491119698225,125.450263729454
-1.0,-1.5675731966586395,82.1984878532933
-1.0,-2.144044947608393,116.396779983347
-1.0,-2.4159325133209197,93.7461421572008
-1.0,0.20038723560094632,155.016937859477
1.0,1.3969969969325748,187.965355359453
1.0,-1.4117103583215924,152.349379859679
-1.0,-0.5708309698114917,153.174015012178
1.0,0.38990759994176694,168.817571526638
-1.0,-0.5033683190577917,130.277478579665
1.0,-0.26862350703687066,183.769605369823
-1.0,-0.33656886785600965,145.66853421761
1.0,1.9826061349914261,213.371576086756
-1.0,-0.207984026472165,137.022386265541
-1.0,-1.5293173911781885,104.41984960319
1.0,0.5011246587816087,181.724931465833
-1.0,-0.7235862962145344,128.219616657185
1.0,-0.3517790814368581,162.127953744518
-1.0,-0.646255854377395,137.170886333196
1.0,0.5060946112269344,186.63218530433
-1.0,-1.704562833123487,109.657436717525
1.0,-0.2684018614361934,174.655697250193
1.0,0.8925697434190866,203.258375100339
-1.0,-0.2566933627675605,142.875141463859
1.0,1.1511304920387555,192.293168460958
-1.0,-1.0013389840673728,132.103922525704
-1.0,-1.0666393567778651,124.034273329032
-1.0,-0.06106940093038468,153.5939524846
-1.0,-0.31721586049022416,155.776722258449
1.0,0.36117928114687237,184.938229910773
-1.0,-0.019140520163731155,168.143509951866
-1.0,-0.5545692840957576,151.540788870287
1.0,0.7868656831821804,192.708502929128
1.0,0.9349979088193804,186.451542800869
-1.0,-1.3459577482794558,112.250076566388
-1.0,0.002464747372357562,151.30918007298
-1.0,-1.0741513600104513,121.425250369257
1.0,1.4720762332832682,208.696207945507
1.0,0.9763124229527028,217.425674975721
1.0,1.2045699482066872,216.120094736912
-1.0,-0.8791294829047663,122.322000450754
1.0,0.4304900873912885,180.128532379147
1.0,0.8873533344906305,188.070801276438
-1.0,-0.59896866468609,136.627816992875
-1.0,-0.9416829709918685,117.601882795413
1.0,0.6175929336169427,189.780275471416
1.0,0.44369925531273524,176.977425541785
1.0,-0.26246746318751796,158.043230120099
-1.0,-0.06853754836534441,148.645182574529
-1.0,-0.8877133452960669,121.812362638044
-1.0,-0.7251020860070756,120.684128887998
1.0,-0.11559625220573935,175.424032286394
1.0,1.2898115526701215,196.619819738355
1.0,1.2475350322777259,206.942981776074
1.0,1.85497188319333,188.875893529098
1.0,0.22931207740029816,182.842746657182
1.0,1.0831151171095859,203.763291531888
-1.0,0.07398072793667758,152.697851303264
-1.0,-1.319145798595294,118.330546968483
-1.0,-1.114986669102911,138.691680275738
1.0,1.843366600196316,199.868208976835
1.0,0.9929701524197653,194.400248420937
-1.0,-0.3653153251496256,141.482513741701
1.0,0.6385956286789535,190.764014395057
-1.0,-0.2599439371485569,139.195691983163
-1.0,-0.6605925478866403,149.369118956566
1.0,0.5084318130572661,183.586860436387
1.0,1.533541037111902,196.527466895855
-1.0,-1.048520956449715,133.294103037557
1.0,-0.21403993751981246,171.980331261146
-1.0,-0.3688328557184176,155.133186403789
1.0,0.7584216566147732,197.194547517085
-1.0,-1.5358543291109026,118.428035391858
1.0,0.829273128247103,181.321297491082
1.0,1.7711497483380316,208.83916249552
-1.0,-1.4378938293598353,104.698454435334
1.0,0.1726962717974986,171.732943347725
-1.0,-0.47913996696159117,129.201505959375
1.0,1.9654027834518712,215.620035427178
1.0,-0.7004786644998845,161.013145838894
-1.0,-1.1299910352484137,122.153979816841
1.0,0.14068894708913796,181.996286828824
1.0,1.226106689151194,178.53549010833
1.0,0.7205818918457298,181.756130263158
1.0,-0.3289309205825857,156.658459671895
1.0,0.7035861853744181,179.38681672232
-1.0,-0.8189754412219832,134.896117147254
1.0,-0.37215762858224255,145.765027349235
1.0,0.5239333315726618,179.164866559106
-1.0,-1.1391234714502616,118.215457726561
-1.0,-0.6805505451087459,133.511540858199
-1.0,-2.3646006808426043,94.4996341477564
1.0,2.1905588275941286,232.63540284736
-1.0,-1.1266275417431424,108.174020271596
1.0,1.2981724472616838,189.156791331041
-1.0,-1.346724349791556,109.582355619731
-1.0,-0.6263489324101412,138.386111841329
1.0,1.6710707144943207,196.504136070637
-1.0,-0.05297995377533147,138.032075185304
1.0,1.2934269868264332,218.58633639737
-1.0,-1.2878064599163235,123.96228506799
1.0,1.6031922784664756,205.56178934004
1.0,0.1450780840891577,182.802828488013
-1.0,-1.4929616299455901,136.656054750481
-1.0,0.2895867199359579,170.617082005891
-1.0,-0.4175185452149235,151.942264691657
-1.0,-0.2048961050748577,154.804363625151
1.0,0.7153854566281738,189.625914076302
-1.0,0.27350882026429957,148.605734775702
1.0,0.7634940240472943,193.529606316647
-1.0,0.37539352648405905,138.097703200497
-1.0,-1.4267845001635446,128.031249745851
-1.0,-1.9796312665128504,97.7224905977011
-1.0,-1.6005417932844934,111.048452312775
-1.0,-0.9956945105550893,128.357711606643
-1.0,-0.23021852588851713,134.954434856605
-1.0,-1.1260365461467552,119.418134889076
-1.0,-0.4463248250346922,143.510788498396
1.0,0.8790402130513574,193.476258831235
-1.0,-0.2539516274246484,139.111128777132
-1.0,-1.3426825508721345,102.179562817238
1.0,0.3965554435754859,188.623549343073
-1.0,0.39889746857256375,150.724448776685
-1.0,-0.8184367143225121,140.407857970989
1.0,-0.20917218072696533,162.521915643865
1.0,-0.4799976964331216,171.303495123217
-1.0,-0.10086793317031148,150.485298076258
-1.0,-0.29225355006094683,134.567162921654
-1.0,0.21835140652785018,152.157986017427
-1.0,0.30452600192433443,138.522789158014
1.0,1.315199863296797,201.842808664398
-1.0,-0.77292673029106,134.33174640659
-1.0,-0.6188311635151577,146.265814757148
1.0,1.0961153507234969,205.707877350487
1.0,0.01918658852123953,185.995470559149
1.0,0.6606991703115289,184.615535693413
1.0,0.9275590229372497,187.728757464405
1.0,-0.6409409060374688,140.434705425235
1.0,1.3260150813231268,197.416687271549
1.0,0.26621383907348994,174.658930950808
-1.0,-0.4464720066106286,153.263908334908
1.0,0.548186548257213,176.762771610032
1.0,0.9927547159568956,182.904303662755
-1.0,-1.366705042203687,111.734742461889
1.0,1.2282256677833638,198.829117326426
1.0,0.7040913595525186,173.363267679951
1.0,1.7385497259593468,204.4603316173
-1.0,-1.4430759171094711,132.174817011755
-1.0,-0.5465864993255021,162.804122273241
-1.0,-1.2598201854856739,127.39066090401
-1.0,-0.3208873348114736,163.390770134078
-1.0,-0.0004308200930591059,137.287606985786
1.0,1.3119742463885014,196.500492679805
1.0,0.4352742700562303,169.430852318367
1.0,-0.20941394029859373,172.808129352515
-1.0,-0.007771396557032618,141.38753191658
-1.0,-0.7399996240221723,137.958564772148
1.0,1.0335564965438313,177.473281889006
-1.0,0.0511055891037634,165.931397501618
1.0,0.3714043935604368,189.683151319762
-1.0,-0.9524958584172031,139.195593489926
-1.0,0.12207684652095714,152.919820790312
1.0,-0.33189157621432286,152.524792423902
1.0,-1.0809379308956848,130.838073839864
-1.0,-0.4890742210097678,132.953563732544
1.0,1.101922487697398,183.577380543142
-1.0,0.47571512160663343,172.381274901777
1.0,1.4105410837158348,199.316043562422
1.0,0.6073551784581158,184.277158793982
-1.0,-0.7100319646952638,125.504072092971
-1.0,-0.2856528618073325,161.477744308455
1.0,-0.05226851367719962,174.175176595102
1.0,0.4788049345104754,174.321828734599
-1.0,-0.39939771845551686,156.95437652465
1.0,-0.9550078690113227,153.889337017852
-1.0,-0.78967336811298,145.326993964224
1.0,0.5774673263465355,173.595796099507
-1.0,-0.8851969601822719,138.631288817846
1.0,0.5398546633538478,182.449407759534
-1.0,0.268104806936417,161.387355893036
-1.0,-0.30808875836988026,133.514009654304
-1.0,-2.3742412859399553,99.3712842598644
-1.0,-0.7548419541942899,138.039251467109
1.0,0.581740445729167,187.291391863172
1.0,1.3261641098446049,204.595732770733
-1.0,0.029037207481300197,159.792173362601
1.0,0.5238597465357534,185.845616779891
1.0,0.9511210838481159,186.35870219412
-1.0,-2.0182595015392253,102.319664235159
1.0,0.8106200905917095,199.534131277679
1.0,0.8505048925058636,190.251042014441
-1.0,-0.29526863402939774,174.470637325615
-1.0,-1.5894812709554496,125.34158254282
-1.0,-0.5408453901548379,143.509867879614
-1.0,-0.5916993597589053,142.162552780834
1.0,0.95206898107983,196.01833670293
1.0,0.3529869150252381,201.116400930408
1.0,0.06605144293853044,146.230804742359
1.0,0.3308082370043777,186.935279969432
-1.0,-1.4360117680714872,131.305434159197
1.0,1.1276499108949072,203.190610671248
1.0,-0.4659027070609613,160.16579097148
1.0,0.20289356977172246,182.03124803657
1.0,2.6341146891911893,217.882346394923
-1.0,-1.1862932788979397,130.442535781398
1.0,0.530991627464593,185.127735469558
-1.0,-0.8157697821872152,131.238126208326
-1.0,-0.530040184235952,134.744705000123
-1.0,-0.8244155491332337,114.127221548767
-1.0,-0.9645482635203594,123.870493713578
-1.0,-0.1265285179411793,159.873201407205
-1.0,-0.9927653933352599,123.712853940157
-1.0,0.1740549659485307,150.809188101112
-1.0,-0.5454222809256235,140.571139361807
-1.0,-1.0606616262493758,139.522707668371
-1.0,-2.069882350361574,106.771114569519
1.0,0.8409829208271182,189.816644900283
-1.0,-2.677417335537941,89.5712047395611
1.0,1.812061248256961,203.064741738865
1.0,0.4094327711016223,185.009609592898
1.0,1.5589148882859698,195.01383683324
1.0,-0.7566445908330387,156.399676387112
1.0,1.8225907444809275,200.011262518687
-1.0,-1.118460998477902,135.553886774225
-1.0,-2.496039846354673,79.1743758333647
-1.0,-0.8485638522763544,153.520357385879
1.0,-0.2541838675799595,178.437949265981
1.0,1.8729127928708504,207.209460472941
1.0,1.9022541976281289,220.711888309321
1.0,0.5781648450330109,196.184005335904
-1.0,-0.7845360941637163,144.072707031161
1.0,2.147340114183348,226.892153616578
-1.0,-1.5936143262935905,123.863208510544
-1.0,-0.1524209570253121,136.661427239037
-1.0,-0.030360990051098734,140.534427474639
-1.0,0.4091603289334688,142.961977935272
1.0,1.0989989549221193,197.314564065227
1.0,0.692496301424206,188.258598618738
1.0,0.8623950734038182,181.936701352328
-1.0,-0.336254888643777,141.810065009845
-1.0,-0.29765278955400903,153.450440466032
1.0,2.167579050341425,215.225508792443
-1.0,-2.062801723986234,114.50443776637
-1.0,-0.3127769833286838,156.886259983342
1.0,1.0492655216935705,193.856769419105
1.0,1.5798137863792903,202.99333104334
-1.0,-1.6609467907391529,110.800198280178
-1.0,-0.1315304878982149,142.969952434287
-1.0,-1.914524308995098,102.478664670655
-1.0,-0.6005673454795436,139.436196765653
1.0,0.7267089509196051,189.146861384614
1.0,0.8514588063123617,195.033700530063
1.0,0.7494058814490259,176.251744913945
1.0,0.48839222100721974,198.658673326418
1.0,1.4250861987811074,202.669703139689
1.0,1.1740867467508174,191.888042930316
-1.0,0.4300957098114239,162.65252823323
-1.0,-1.3258686587889754,101.244919138932
1.0,1.2464292739601006,199.443988986417
-1.0,0.11018092779667324,162.020486087884
1.0,0.2951150629301814,189.006568648402
1.0,0.8573215479344658,182.387247100752
1.0,0.19410863417223978,170.789162512475
1.0,0.9788712566510152,202.988055431583
1.0,1.0503863171812782,198.738874084069
1.0,0.014611561620385315,167.393255098349
1.0,0.27387329784133563,175.213922399227
-1.0,-0.6357324770473846,146.384324239399
-1.0,-0.02807182012302396,138.839939938552
1.0,0.39252913252471383,175.462661781329
-1.0,0.22890226140322095,172.713624757025
-1.0,-0.260913668502633,145.92867237291
-1.0,0.13130692943739833,158.855194208793
1.0,-0.4251342404950469,177.549263423371
-1.0,-1.4428886715386235,114.207873683335
-1.0,-0.529994962794888,135.819093790461
1.0,0.6188252443952443,174.654960984733
1.0,1.316935286628752,199.437922702396
-1.0,-0.41961987684727264,141.389346471343
1.0,0.5563918880460214,183.647248251892
-1.0,0.3499338568572626,163.334449922777
1.0,1.4964512244647983,215.443400528279
-1.0,-1.7904639674721377,107.869972910744
-1.0,-1.835959624557378,124.667939944881
-1.0,-0.7615829633293744,135.027554795509
1.0,0.941532920574654,208.107782762267
-1.0,-0.23610205654560426,148.636723186113
1.0,0.020166469534026663,163.293386740245
1.0,0.6911123622454224,180.702751395431
-1.0,-0.36120678027344977,123.699679626214
1.0,1.4111602965465502,209.379310185811
-1.0,-0.554433003735919,130.219638125047
1.0,0.9647620600651864,189.595960181422
1.0,0.40332313916011797,196.447702297553
1.0,1.2819511853049694,199.272274753083
1.0,0.369121430409028,190.506795646304
-1.0,0.3023652192931676,157.71529950187
1.0,-0.8288755298942249,153.606833081922
-1.0,-0.78743963600732,143.70862301245
1.0,1.2520347094829924,200.837100922882
1.0,0.282067276759542,195.154313749051
1.0,-0.045174124160589496,176.019621604136
1.0,-0.729409211887934,157.119544459453
1.0,0.27914786149018667,168.431869160444
-1.0,-0.4772346007182377,144.088522083089
1.0,1.5463338192336056,197.368589249335
-1.0,-0.33357951017234033,137.16811978359
-1.0,-0.8280899155487373,135.77465389635
-1.0,-0.8987310471992748,139.469037988929
1.0,1.1941984274683402,188.730942756504
-1.0,0.35747898853509485,152.650097547674
-1.0,-0.7553005659539958,128.950960852672
-1.0,-1.440423679144123,113.619397986316
1.0,0.21528034768881518,194.235438031997
-1.0,-0.7231894295992032,128.486555886959
1.0,0.952316392729379,197.692756439348
-1.0,-0.8598165806285407,145.589929145704
1.0,0.5183984722182656,188.786166592441
-1.0,-0.7844762200577909,156.005407993291
1.0,0.6169955736708729,183.401074600251
1.0,0.22518730417155913,203.350339274846
-1.0,0.029718107030089393,148.549695379998
-1.0,0.3286866807884805,164.86760520507
1.0,0.9914860285824053,184.723330838492
1.0,0.09565891509244177,166.251965359255
1.0,1.3729909992249205,200.677163947353
1.0,1.8829720366886666,236.780537487324
1.0,1.169135386563988,214.981393879642
1.0,0.588035740445137,184.289728965999
-1.0,-0.10456211145828029,148.800598054251
-1.0,-1.1941391844538378,112.267300513754
-1.0,-1.2560049623956846,129.615749421462
1.0,0.6975803287926218,163.82048892775
1.0,0.8937953862353141,186.673516437421
-1.0,-0.3772352757544777,133.200738371244
-1.0,-0.6999850020776864,134.660232151018
-1.0,-0.6676811553597253,133.593872067829
1.0,2.0871324510769447,212.636167793697
-1.0,-0.449676840760956,156.913239949382
1.0,0.9697665181608097,176.671149980511
-1.0,0.81428836254692,178.020674450648
-1.0,-1.04637698675157,137.492143041157
-1.0,-1.0706664774637713,138.382413290926
-1.0,-0.09534058892900896,159.130477117323
1.0,0.7699592734958799,178.954373950107
1.0,0.21546322355589248,179.209194759411
1.0,0.0877024307520823,164.179485990267
1.0,0.15839277741327107,195.198730107264
1.0,0.590737455104926,176.011959093185
-1.0,-0.6722430339562429,166.105800451365
1.0,0.7818652082145044,196.225085674717
-1.0,0.5970076890098531,160.409122548532
-1.0,-1.5492972523476842,122.22333868023
-1.0,-1.343804743012166,103.597987352546
-1.0,-0.8314614576800711,142.010379059998
1.0,0.834520154996376,184.219818154564
-1.0,-1.9183199281670242,100.743008049753
1.0,1.2952399175113198,213.313319203983
1.0,0.38569530078017455,181.718885083568
1.0,0.4056250495186124,183.475220126706
-1.0,0.4022925024416643,159.514292174193
-1.0,-0.8643806717833261,122.08724550819
-1.0,-0.6559084209832596,140.008238050349
-1.0,0.5040379926668889,166.781194968542
1.0,1.1931606250201041,201.663337321292
1.0,0.29248658777285974,183.383780173245
1.0,0.44028585674684545,168.519763118647
1.0,0.7263912638320855,179.817768188541
-1.0,0.19609501778995084,148.826486086286
-1.0,-1.1779339465048446,141.579654053645
-1.0,-0.6835581103771803,139.674979024569
-1.0,-0.8498142709374128,135.942769557151
-1.0,-1.3428942545983844,115.901128847343
-1.0,-0.39096505735686765,138.484541094995
-1.0,-1.2324831798858986,118.762925311885
-1.0,-1.5142375224938485,118.376376113162
-1.0,-1.4100056165265469,110.921330982054
1.0,0.20916233847545512,168.183014977891
1.0,0.50036882965466,176.007136256108
1.0,0.9739555164085545,216.946546571983
1.0,0.9365815995980278,202.863293032098
-1.0,-0.009155585457455956,147.725695974025
1.0,-0.12342930674070912,175.258072138987
1.0,1.995076728830665,219.337908800423
-1.0,8.249758540397285e-05,157.616005204023
1.0,0.5228392667908413,179.632490713938
1.0,0.3936608402353599,186.503549964805
1.0,-0.4063641374985244,165.60449044599
1.0,0.35276086440011,172.152772178008
1.0,2.0013516582518664,228.407444091575
1.0,-0.9381922515867972,140.266628386203
-1.0,-0.8138208948893364,132.175494890553
-1.0,-1.77794797634906,123.044667837303
-1.0,-0.40862836231683913,152.918265027715
-1.0,0.353887016610784,147.505871272483
1.0,1.6874220808475298,200.991476274266
-1.0,-0.6589097878330442,132.507460012275
-1.0,-0.15377690113262263,160.861750569939
1.0,1.051717228064244,184.232661744937
1.0,0.4959098483594474,181.454462321991
-1.0,-2.0368157732979544,110.58977757526
-1.0,-0.48857643186253924,148.225840518359
-1.0,0.7549168261986334,168.181741476728
-1.0,-2.762385103414445,108.121968520277
1.0,1.492345079898657,200.701730727388
1.0,1.3490267250369838,185.905909489285
-1.0,-1.5191415767752319,124.742290932328
-1.0,0.964616754088341,184.215084994391
1.0,1.8617364165315864,222.925916699257
-1.0,-1.1543169479675517,131.735986660939
-1.0,-0.9324005933478252,145.794374092131
1.0,1.1244668270834306,194.230612852264
-1.0,-1.177104938112177,116.403171293482
-1.0,-1.3124083037631729,97.1075042587005
-1.0,-0.7177799131467616,146.621049799341
-1.0,-1.035252161377317,134.787500986578
-1.0,-0.9708820853666952,121.986385835249
-1.0,-2.530880702265631,89.480480272958
1.0,-0.052250927985002894,187.30837025051
1.0,0.5693267171849055,186.064853856785
1.0,0.6451009406082897,189.791341203241
-1.0,-0.9156177146111948,131.134884527499
-1.0,-0.31707661607461685,134.662024671615
1.0,-0.7673865928170027,156.129232829763
1.0,1.411667523026017,205.899263878253
1.0,0.8151322970714073,198.721843463453
1.0,0.8163108708987918,200.24247867568
-1.0,-0.9485994019627103,113.622065762769
1.0,-0.41613050112943145,159.076587711134
1.0,1.2577688342909918,193.743259981117
-1.0,-0.33078153864718235,120.844445935844
1.0,0.04177083088335918,164.724934932117
-1.0,-0.9735521741301958,106.001349204059
-1.0,-0.39353744017899694,147.527955124934
-1.0,-0.75527611113784,115.863932095115
1.0,-0.22027813925521939,166.422109232451
-1.0,-0.08005268626833108,141.301108236847
-1.0,0.036088176418631664,152.440699734892
-1.0,-1.4901534247466988,120.640466571973
1.0,2.3943542243561433,239.333840315283
-1.0,-0.9483114813820828,122.874559484302
-1.0,0.6188669206810582,165.900896658328
-1.0,-0.6165985574514906,130.57766237841
-1.0,-0.6060170356600042,144.489626342583
1.0,-0.21502080876491927,145.913544882471
1.0,0.6501097757050979,178.818827668585
1.0,0.666920317999188,199.632935051206
-1.0,-1.0103660990350671,153.286220593713
-1.0,-0.4280846433427868,149.514689486199
1.0,0.9222167877899837,219.367916747189
1.0,1.4064717885220661,195.024268974457
1.0,0.9519444159573273,208.272738618747
1.0,-0.2465285917414187,171.935770913568
1.0,-0.29460857162299353,167.372980050571
1.0,1.7533216475839282,211.419775075714
1.0,1.7391004569149553,195.5928859972
-1.0,1.0477270302286474,167.542411293767
1.0,-0.17933221045922884,181.382417042021
-1.0,-0.5819464873771928,145.236805366237
-1.0,-0.7267803892065093,121.780597346099
-1.0,0.8066433070635946,178.981463730448
1.0,1.020772666291013,191.98661270755
-1.0,0.7999891769871698,164.369884142347
1.0,1.3466295393908578,197.819614833288
-1.0,0.6975270758139714,166.451937309373
-1.0,-0.4645689272261432,126.432720526499
1.0,1.3518897995716403,206.260457759816
1.0,0.457831326848416,177.897336186379
1.0,0.9199927086375941,183.280806712051
-1.0,-1.1800587490373198,122.766166670135
-1.0,1.1287238924478364,161.363484297774
-1.0,-1.2033846547095712,123.08006277697
-1.0,0.08642734273557125,135.856007822104
1.0,-0.13593284448957224,170.792356904563
-1.0,-0.599593868747218,137.798691417923
-1.0,-2.6673497868644658,87.298869133415
1.0,0.700893029898366,176.355211205018
1.0,1.2767022039380542,209.900130709698
1.0,1.1686634394593924,185.422777885581
-1.0,-1.1076952650744367,132.878811788612
-1.0,0.21396717563986817,176.432901559757
1.0,-0.0501037273959891,166.680607855786
-1.0,-1.1514059565975117,127.470148068618
1.0,2.237306973177413,214.495489269683
-1.0,-2.007797462270088,91.1363036572996
1.0,0.666496417279834,182.364295307144
1.0,0.4782722576700487,184.027977160472
1.0,0.6516759585838992,168.359034877323
1.0,0.23512658264042996,187.363365848207
1.0,0.2017226636541244,182.609139212536
1.0,1.5195979729002347,205.389760708631
1.0,1.4093441759473357,207.493691093771
1.0,0.664810469786426,200.060003456691
1.0,1.154634550291791,203.978417730569
1.0,1.4948232715206584,210.907435779066
-1.0,-0.5705980824638959,139.823867554424
1.0,-0.04782126894410205,180.11206040253
-1.0,0.4617631326475994,152.43056160373
1.0,0.7721546541762183,198.389549089506
1.0,0.9549094279228838,201.546424499691
1.0,1.1505995552915393,202.890757825725
-1.0,-1.0389480019920587,138.725475618616
-1.0,-1.4933968967130262,96.392483964259
1.0,0.27069800688736684,170.191325429211
-1.0,-0.678247404177506,152.039541910673
-1.0,-1.8253423548280683,113.415890493119
-1.0,-1.787564670768392,102.814527107089
1.0,0.44663660709714276,187.31048187008
-1.0,-1.065771726260627,129.351649873223
-1.0,-0.34081627504724493,148.80573965202
-1.0,-0.3118744811320344,135.714823804041
1.0,1.2971706166993642,195.937072750386
1.0,0.6748802878133711,192.858335833834
-1.0,-0.5589809209717858,154.446604850699
1.0,-0.3573039384598218,138.92417255949
1.0,0.567445849941374,197.011049712799
-1.0,-0.5265604717387936,138.297275974031
-1.0,-0.3598403309298554,144.259172710796
-1.0,-0.6458380226540101,139.202834593304
-1.0,-0.9415073684404581,133.292831832067
1.0,1.5643392766761295,212.212518831504
1.0,0.6821390120582179,194.350108768264
1.0,0.1618212739325561,160.178971538123
-1.0,0.8572838953695454,166.919445583037
-1.0,-1.3447299849254994,110.701340506353
1.0,1.7556166161289695,206.897643984916
-1.0,-0.7998615848335486,133.292934706536
-1.0,-0.06721525262367405,164.70094889975
1.0,1.2897598975663154,210.664498242699
1.0,-0.191732153690614,179.995123993462
-1.0,-0.46480749855958764,144.296026044466
1.0,1.0532993806723228,188.242982263771
-1.0,-1.117171786104674,121.961284895735
-1.0,-1.143545613752237,133.262532664884
1.0,0.9075817446394008,202.805975086246
1.0,1.0093939161849363,190.654090176271
1.0,-0.29384236586346224,181.011973240364
-1.0,-0.3989273706677478,136.430728165546
1.0,1.2058585707157183,192.794562338277
1.0,0.21687817243449412,174.440823103791
-1.0,-0.44889045541597705,135.449502159375
-1.0,-0.3695342953812899,131.702450200473
-1.0,-0.5590203526519341,145.603465596979
1.0,1.8014490025036993,194.948577135866
-1.0,-1.8227483270462217,113.215333636768
-1.0,-0.5703307184327245,149.326567041739
1.0,1.9926121310453175,212.910225325521
-1.0,-0.5853096030740544,145.509863709212
-1.0,-1.0783983329725193,130.012336322795
-1.0,-0.15541081628761452,152.683155978537
-1.0,-1.8013317093658323,103.678996286948
-1.0,0.11742886848375714,149.658877299298
1.0,1.1439610940772267,188.71103570989
1.0,0.3932195065946704,177.249146440514
-1.0,-0.23586669258217702,159.043161986306
1.0,-0.6172221068577557,154.963174147379
1.0,0.4549250019118283,171.706782634827
1.0,0.6642978601438302,193.927360410157
-1.0,-1.7620413495017664,115.21539937444
-1.0,-1.5045091157595805,127.354500043278
-1.0,-1.339729258934242,98.7074925949256
-1.0,-0.21799594239487952,138.989535511843
1.0,1.2779965070137393,199.635326578537
1.0,0.4073213110986184,182.688022191678
-1.0,-0.22247258015292895,169.348875110222
1.0,0.7346152865707499,182.427616361242
1.0,-0.34474210652605536,163.004141133667
-1.0,-0.8240138427856157,140.321785168958
1.0,0.1209456316281018,180.683886970857
1.0,0.90812956292093,183.813798258816
1.0,1.9168030405632008,199.513071075091
1.0,0.3670988206973011,173.387966081254
-1.0,-0.6841095977475403,142.491203674906
1.0,1.3241576440322165,201.903092142954
-1.0,-0.7647570914075249,132.63901920712
-1.0,-0.33682904081557574,137.629857954212
1.0,-1.0450982136258427,139.196621068627
1.0,0.7514276873962743,184.654127863989
1.0,2.181039881608844,209.723549650136
1.0,0.7991868999471226,174.885728547394
1.0,-0.04982394339187237,176.479343050833
1.0,0.4422183225263352,166.263500115293
1.0,1.722162516721777,190.904148445298
1.0,0.6930156587839117,180.804449752242
-1.0,-0.8769731084957955,136.673908627291
-1.0,-0.532516546527015,136.113112416632
1.0,0.6337826811998702,174.23970824618
1.0,1.393705123622462,203.621207666061
-1.0,-1.47482550448207,130.017847924579
-1.0,-0.9762339275983462,125.09402193047
1.0,1.75147160202429,207.239547355378
1.0,-0.12341195601389023,158.184985696975
-1.0,-0.005688375924986497,158.28513170699
1.0,0.48689324834325054,163.632516077347
-1.0,-0.6358643802981919,140.883834629129
1.0,1.3960661028062131,185.842621819595
-1.0,0.3008681189379603,139.927593430327
1.0,0.8072254408336935,206.744339245614
1.0,1.0556348695540483,196.727035125791
-1.0,0.34206715804623294,151.280053614573
1.0,0.06943279370296837,165.461382023424
-1.0,-0.9389086166069487,143.679072724016
1.0,0.49557196160541733,184.519391248574
1.0,0.30550196319139844,166.334796590382
-1.0,-0.7514636407778228,130.647845260601
-1.0,-1.9723135536792304,114.160340644139
-1.0,-0.19404629488142736,133.760493295565
-1.0,-0.018250122849251545,165.014955877164
1.0,-0.24911079474331593,143.418013320364
1.0,0.13533773914738814,174.086875736044
1.0,0.4132782442227724,169.055490815102
-1.0,0.04900470487887435,154.39341744984
-1.0,0.15822328308378128,151.406741483082
-1.0,-0.5113594491728712,140.033502099948
1.0,0.3677686107818557,183.681029038066
-1.0,0.7925376061917129,170.626274579613
-1.0,-1.2333793782292228,109.725287141862
1.0,1.49583144444485,200.336805594253
-1.0,-0.23884863516666155,149.817241126221
1.0,-0.9902644793078023,132.26298045314
1.0,-0.7664515363497933,150.856910420554
1.0,-0.4323898016335463,173.585149761681
-1.0,0.04217161080143005,157.929683798501
-1.0,-0.7793850600499419,131.041402692995
1.0,-0.3037677265474748,147.360270291434
1.0,-0.32465465875650285,178.134945178843
-1.0,-0.4349728375530868,135.549114424322
-1.0,-0.42119476908823206,144.624626086045
1.0,0.2235014970630931,182.546137959834
1.0,0.8490057131579344,200.342813718824
1.0,-0.4686869183363029,164.888434776875
1.0,1.0204016306338626,189.249206322568
-1.0,0.10504833629415192,126.360234069603
1.0,0.4712796269380647,181.056095285359
1.0,1.0082547353872382,187.65569875781
-1.0,0.24323199109609547,166.711653627491
-1.0,0.4398574149672934,176.24442031394
1.0,0.864454906608812,201.481471986313
-1.0,0.46135449479311236,163.109726060221
-1.0,-0.39828515095505324,151.212559379286
-1.0,-0.7843276555497799,139.223151035297
-1.0,-0.9221021582338277,102.400373646523
1.0,0.8119810375040795,185.683585728877
1.0,1.9440614932020275,241.893563180437
1.0,0.8510685446826948,182.004522302487
1.0,0.09276154624480289,182.198405909344
-1.0,0.6584659813522787,192.640037250181
1.0,0.4650047682345246,181.051742367739
-1.0,-0.6773881975831821,117.551987292536
-1.0,-0.6349411410029372,139.653461308064
1.0,-0.11122302886814282,177.285414729857
1.0,0.43215772023298055,189.361639792627
-1.0,-1.4345554665030813,114.949997304144
1.0,1.3901334867459059,190.99431079065
-1.0,-1.3577804352433016,111.488948150509
1.0,0.5284975793409934,182.259613679654
-1.0,-0.42945768043795857,143.939716619654
1.0,1.404141014661363,200.356448013113
-1.0,-1.4974039548730123,115.437373072737
1.0,0.7608778104715688,198.956076591684
1.0,0.6747460766039114,187.519514498714
-1.0,-1.4899533958445719,109.705890716663
-1.0,-0.6064135465044315,136.379970445889
1.0,0.45813737864901277,194.925271146555
-1.0,-0.5080073925347668,142.973056513482
-1.0,-0.9609431321975359,148.76122574065
-1.0,0.08572373060867422,143.624547582329
-1.0,-0.44967918393033335,133.379545927519
-1.0,-0.7366191652014408,130.429148745009
1.0,1.7143295643546528,204.181096319557
-1.0,-0.23175967211233975,154.440886903915
1.0,0.36927805435518146,180.07779222034
1.0,0.44370016968206494,171.695509695384
-1.0,-0.8789620737426338,112.57379095656
1.0,1.0654462809836498,187.5174420175
-1.0,-1.2425126506047808,117.478149437881
-1.0,-2.3197852724341286,104.486636219839
-1.0,-0.3701584388589981,136.663869426503
1.0,-0.08910737079126656,166.96102047344
-1.0,-0.20796586474022133,166.959825735408
1.0,0.6656962384406572,167.415548932463
-1.0,-1.3599917572575535,109.50910871716
1.0,1.034497022091572,211.490800973906
1.0,1.2751075006869395,209.112998212183
1.0,0.40701486904341183,184.555483105293
-1.0,-0.9597083686804201,137.650841212974
-1.0,-1.4403108326038172,104.232114891407
-1.0,-0.2036481979247948,155.942670834442
-1.0,-1.0700183986221286,119.005386303683
1.0,0.08682508049712587,172.839809078093
-1.0,-0.9546548432785442,126.692714269078
1.0,0.5164272987898004,184.598427955692
-1.0,-0.8221838967297994,133.681868654585
-1.0,-0.8792550400778063,133.339434255286
-1.0,-1.2444412205390896,117.903634880013
1.0,0.8769799030433441,183.676901945623
1.0,1.1753912072929775,195.773075283178
1.0,-0.24160023976127978,178.446423040865
-1.0,-0.9519946655972805,142.78950103101
-1.0,-0.4454040304603391,135.07388613303
1.0,0.7140193180920521,188.717272552453
-1.0,-1.8246630912819912,100.092095362701
-1.0,-1.0189457074910462,122.606806538548
1.0,0.7424762567247035,167.738248191338
1.0,0.33409762264261866,188.889864542325
-1.0,-0.2725559102877103,154.480913000963
1.0,0.3590614885807502,169.740272090197
1.0,1.146796338874772,193.759932289639
-1.0,-1.0045029024615606,144.675912952677
1.0,-0.9238612275669801,153.495897463749
1.0,-0.7243958204282588,142.174759588665
1.0,0.8850792836756074,197.984766074009
-1.0,-0.10779381465856762,166.771220095083
1.0,0.04929874352597427,171.587884316854
1.0,0.9917313076169081,201.378733803205
-1.0,-1.054897401557654,134.097307026664
1.0,0.19716912977196838,170.043604968565
1.0,0.34778442863916476,177.256999087197
-1.0,-0.16630962616530962,144.052257077761
1.0,0.8355271760070125,214.606055462764
-1.0,-0.8456996519928175,124.818530125508
1.0,1.8019412376892916,206.103156712409
-1.0,-1.028484572277699,143.347460113507
-1.0,-1.47809146903393,113.642060430966
1.0,0.400092453004681,170.417231213329
1.0,0.3969636610802526,178.327235526801
1.0,1.3278127706025642,195.392617577504
-1.0,-0.664192040556986,149.825575478474
-1.0,-1.3888097906660053,134.193712558431
-1.0,-1.302747973651621,129.961709388801
-1.0,-0.09001757751595885,141.656245159955
-1.0,-0.64256589169451,126.905004317371
-1.0,-0.15097115822401241,159.373921755772
1.0,0.8355266351188898,193.367198069336
-1.0,-2.5520821004828496,90.8475893808927
1.0,0.11084241749647751,165.25964315067
-1.0,0.3179023505202641,161.78385388334
-1.0,-1.1521853011083039,133.460884951638
-1.0,-0.6717679920220253,149.344027647034
-1.0,-0.3151479261055546,137.806165718192
1.0,-0.1980628327779819,190.005414854354
-1.0,-0.6385031706111405,128.094073872448
-1.0,-0.17607558831529102,142.532357544652
-1.0,-1.0322483896148549,127.032748132563
-1.0,-0.48929215311522045,133.322581360073
-1.0,-1.2941785407559891,130.734180311493
1.0,0.7383052269621331,184.929293121148
-1.0,-1.0427862055020276,129.515118042822
-1.0,-1.5401073416951085,123.730406679793
1.0,1.743569370907312,203.809263328034
-1.0,-0.6698222600065351,122.121197764408
-1.0,-1.6991748630917674,99.7247419691343
1.0,0.5303120344934343,177.110738810674
-1.0,0.2841227929586598,175.292753048247
-1.0,0.35733876063053677,162.308665578035
-1.0,0.0062474283820404975,148.055640138066
-1.0,-0.47687467362472696,148.206743267389
1.0,0.010497142233861162,181.901814348062
-1.0,-1.6440312291146342,97.0346553321367
-1.0,-0.859054734385319,124.296598158519
1.0,-0.16292218844688977,173.875963217753
1.0,0.8544628732226583,189.609858053808
-1.0,-0.9577058320953279,134.899864407116
1.0,0.7268482143445223,174.395147818847
1.0,1.016944448345704,186.922283676769
1.0,-0.1791290720527283,163.142051843036
1.0,2.0879639580753615,240.94226656803
1.0,0.173442312173669,167.044233115506
-1.0,-1.5203040768023834,139.760616751574
-1.0,-1.042588575139935,120.662528666269
1.0,1.131938017256714,198.12118338321
-1.0,-0.19143428361603082,119.203378786973
1.0,1.4883806905948644,201.862658416185
-1.0,-0.26154955523392137,144.026949954807
1.0,1.1157565071182327,185.755060391124
1.0,1.6755352761102964,188.951474114366
-1.0,-0.03999628543999498,142.91653374882
-1.0,-0.3372087688730407,132.403738235196
-1.0,0.05982849284248366,152.242961212192
1.0,0.4350979574405625,185.183339389795
-1.0,-1.2459181023346078,148.396904766621
-1.0,-1.1656757097309658,116.711030078486
1.0,0.7427894886192893,193.756325798869
1.0,-0.22188164266826207,162.729848423525
1.0,1.9114665270049707,210.223500594746
-1.0,-1.4689327322366958,130.647715131428
-1.0,-1.7775343664229653,114.752101723709
-1.0,-2.020989272411393,105.808189725732
1.0,0.18105105623330855,178.514819597391
1.0,0.6661206262181025,187.801336939277
-1.0,-0.026999422480762474,149.077022816613
-1.0,-0.047773742970891854,146.077559642319
-1.0,-0.035946883484998395,169.101686826467
-1.0,-0.7754774546422246,141.950690073773
1.0,1.3636786732623247,206.163432503748
-1.0,0.4532640267327184,154.785882837839
-1.0,-2.165171520031352,100.496830643472
-1.0,-0.9367094727138889,134.619078048893
-1.0,-2.0742373421362776,85.7930852355214
1.0,0.7852635968247228,194.230427615346
1.0,0.9916030886407379,213.67605429966
-1.0,-0.6311370741509029,149.230982045662
-1.0,-2.085618729693018,110.152236666551
-1.0,-0.16593470434573165,137.752134197399
-1.0,-0.5387783772494286,148.066097319915
-1.0,-1.0919627638478706,132.240797320596
1.0,1.3809005454652232,214.259285867982
1.0,1.2659982071417573,205.385709879611
-1.0,-1.5881292556408728,110.101139831754
-1.0,-1.088592023615491,103.097460423085
-1.0,-0.2647269686968051,156.878287198887
1.0,1.5791030113968274,200.857658372645
1.0,1.1913360680291365,196.699671301864
-1.0,0.3295971736935513,169.799419540932
1.0,0.21352080304318272,168.695154616812
1.0,0.7478111656000257,179.366456640459
1.0,1.5517256263691028,216.713477707922
-1.0,-0.3478999963813072,156.822731723117
1.0,-0.5200697744263801,162.495082455027
-1.0,-0.6534061001049918,147.66914551589
1.0,1.3102465576873419,205.618956456024
-1.0,-0.1562987334040917,135.444409336519
1.0,1.3973605304335692,197.936832130393
-1.0,-1.9073886946308944,98.3726388184667
1.0,0.11604557061596633,186.324839805672
1.0,1.0912757216896534,205.052685186402
1.0,1.6350306476141312,221.885941634049
-1.0,-0.25291846093958253,146.20959507367
-1.0,-0.5681918223758772,147.92749564385
-1.0,-0.7161147993692638,123.743338578239
1.0,1.4882788386762063,207.130108912299
1.0,2.48985462545029,237.567608315894
-1.0,-0.5558885025771355,140.997714930396
-1.0,-0.9014112458938364,117.422674731288
1.0,1.2467968387572055,199.042919819346
1.0,0.8510463490932313,192.942067548301
-1.0,-1.2775461994489996,121.980092414149
-1.0,-0.19001792954617786,133.415663055818
1.0,0.027605132035597234,175.947367804346
-1.0,-0.4600911745743081,144.33032014199
-1.0,-0.8349967908646557,141.487418151798
-1.0,-0.3023075746506096,143.563339319018
-1.0,-0.8854337398435402,137.245971950026
1.0,-0.11257891229930936,162.549680444354
-1.0,-1.509394364670417,119.462053239018
1.0,0.21468454634960954,183.810973232751
-1.0,-0.2598800445915937,163.352062211233
-1.0,-0.6309908504566146,149.857247128355
-1.0,-1.2759797498675576,131.70077077779
1.0,1.0453054331141283,178.851348335504
1.0,1.6478063666196563,204.365103834944
1.0,-0.15861044744592975,167.667432358641
1.0,1.406541040286595,199.209842441218
-1.0,-0.4822806751759682,132.627365790212
1.0,0.722148889490413,202.628196093564
-1.0,-0.40372555527882725,145.905983073062
1.0,0.5520418912965507,173.423960346601
-1.0,-1.0049020507725104,128.581091995706
1.0,1.4161839867543404,205.756373667806
-1.0,-1.8192902955477983,118.764518263849
-1.0,-1.1801105781681782,129.68531010624
-1.0,-0.8912707464728031,135.58739117816
1.0,0.617283736339236,188.75703722981
-1.0,0.4679669442437369,164.961351967609
1.0,1.6695311158138384,198.337249683593
1.0,1.0249650206779104,196.749787808627
1.0,1.057144685031129,189.906583756497
-1.0,-0.4471826297572093,148.689557040019
1.0,0.32351218014807376,190.416503573136
-1.0,0.7177057397999841,173.743433577378
1.0,0.6987138972632291,204.258750662721
-1.0,0.1685454906399017,145.559180885427
1.0,1.5157033173908792,218.063751401917
-1.0,-1.7998220560260205,117.174651470467
1.0,1.3433962294553612,207.199559368969
-1.0,-0.811189524345012,138.144250969423
-1.0,0.26447005811930446,162.550612450752
1.0,1.1770282338569023,195.601365349029
1.0,-0.42781229585160363,150.61945722694
-1.0,0.017763590707607697,145.78496465018
-1.0,-1.0044564927015118,129.19800844672
-1.0,-0.2522335853034866,141.506019820105
-1.0,0.20371981975464248,156.302306778909
1.0,1.4244884274135725,200.413424520015
1.0,-0.07615819798706878,178.332049600864
1.0,1.29695534667193,201.760776882651
-1.0,-1.298161889790031,111.307885465738
1.0,2.0222559835607252,211.237967951941
-1.0,-1.4797984222112617,115.805035158068
-1.0,-0.08002901934426858,158.535626059938
-1.0,-0.8073205509846806,126.426792757169
1.0,0.004333434668473284,162.017030191035
1.0,1.748981291360864,205.157577990748
-1.0,-1.61766254862509,107.166050588278
1.0,1.6560577690770744,187.222908934528
-1.0,-0.6499939207464497,142.512729446172
1.0,0.262211509978169,173.310395551927
1.0,-0.014373226951931927,168.374071280025
-1.0,-0.37494658520777857,142.118166114949
-1.0,-0.6061502847379369,138.701315838669
1.0,1.3562539525056487,193.978622618299
1.0,1.46548331009016,213.070019345003
-1.0,-0.45449082112216066,119.681095103857
-1.0,-1.4445739733775893,126.915463276282
-1.0,1.318155566495838,175.035491537161
1.0,0.11392041443649968,176.565818557689
1.0,-1.1964254461176342,135.544201374823
-1.0,-1.922222656273183,112.975630066303
-1.0,-0.8390078442333118,127.060489414696
-1.0,-1.6089597384751098,98.7450377324097
1.0,0.36781254722838264,189.909671216622
-1.0,-2.3120694313595687,96.3135565290208
-1.0,0.767852311019288,157.161889030641
1.0,0.7772694693656417,200.941915713867
1.0,-0.815303879715937,164.502235058658
1.0,0.5960554344746604,182.35904328602
-1.0,-0.633538760894821,146.622209757364
1.0,0.8657649003881127,197.052357044188
-1.0,-0.062360780522558994,150.433688847781
1.0,1.0480797117994944,203.537194767087
1.0,0.6605583548058205,192.42806582273
-1.0,-0.5131325983871842,127.743307082642
1.0,1.4537302033027335,208.815055822955
-1.0,-0.1317615864119895,165.414135012143
1.0,0.5054157268564963,184.778847954911
1.0,0.11662501375535379,176.830676963356
-1.0,-0.9891626593200853,141.276705100823
-1.0,-0.49945110504864026,142.821216631186
-1.0,0.5066742341749291,160.443182982172
-1.0,-0.03774846671560468,144.686304641875
1.0,0.19155599808206777,165.37382420193
-1.0,0.4640154686528243,171.976777035236
1.0,1.837950472686165,226.225699981621
-1.0,-0.8529021423013946,131.093121432032
-1.0,-0.9706858701888422,127.536664725424
1.0,0.5057261196712525,175.226648576104
1.0,0.17372262611134096,175.452167682807
1.0,0.6637025953406973,180.79742710884
-1.0,-1.3663572684049408,123.386296199673
1.0,0.630436378916673,197.114929937545
1.0,0.8414310676993743,191.033419619927
-1.0,-0.7247766342799935,144.055093372015
1.0,0.2756197779038394,189.404203156975
1.0,0.35099281116507247,175.159200203876
-1.0,-1.2410862794352013,118.157335069133
1.0,0.027478973247450727,176.600529696569
-1.0,-1.6483205233493758,126.460829766303
1.0,1.6243650631241442,199.056247019883
-1.0,-1.6440524612205205,129.141595077228
-1.0,-1.6189559902223327,109.143470040034
1.0,-0.7714975510025027,152.130506079927
1.0,0.7697933957460039,196.139533714755
1.0,0.7432471456639524,185.916021451773
-1.0,-1.6544166422147648,114.445720805035
1.0,0.9035482003221917,188.686246513285
1.0,1.022012607716958,213.472574289259
-1.0,0.10568153232099174,143.761536925492
-1.0,-1.7160335982027453,133.479484363974
-1.0,0.7152305532329293,168.864402796581
1.0,1.9419593264620811,229.339511647714
-1.0,0.09965827420155027,168.435940362071
1.0,0.7281392875381937,191.820572556407
-1.0,-0.5267158099095608,126.129763501721
1.0,1.5529250087844577,215.858233901414
-1.0,0.3087981383864072,170.85531975072
-1.0,-1.6352404411482622,139.0846036881
-1.0,-0.7371585838194894,131.435989492709
-1.0,-0.571743452396571,143.413253277456
-1.0,-0.05614442631393066,146.287675670735
-1.0,0.477955175085353,166.688550302958
-1.0,0.324669656190209,171.112202786287
-1.0,0.25128782156343415,168.626296087776
-1.0,-0.3602651604568189,140.400766521233
1.0,1.0884010354285423,192.260745340535
-1.0,-0.5168896130665089,127.38635218433
1.0,0.8864095949602419,191.497898579147
-1.0,-0.49258546095379113,146.84196423838
1.0,0.5496723098087775,178.547208187336
1.0,1.4190638417946935,212.867963025049
1.0,1.1209930212102202,199.508656245495
-1.0,0.24324513196596875,165.018629756849
-1.0,-0.3782954054188219,151.491811759122
1.0,0.6546886374551821,197.642243684058
1.0,1.0519907211349104,192.683061466135
1.0,2.188047816497394,239.464342902696
-1.0,-0.34691979822921437,153.393562055098
-1.0,-1.4164437111913886,119.772634041478
-1.0,-1.1186413608268304,121.574206158023
-1.0,-0.5327572012197881,114.065008310172
1.0,0.6316889029214171,186.857838775599
1.0,1.0493401673338887,195.42271064384
1.0,0.6804693871983838,186.341902051518
1.0,0.8402497489907206,176.594888560523
1.0,0.5600424383914971,188.053333094449
1.0,1.2898548669872945,205.815358424294
-1.0,-0.585219745353618,134.301424967617
1.0,-0.3896951096082046,163.198206099379
-1.0,-2.987478349008784,78.6066703120237
1.0,0.2241691005046364,163.476266634742
1.0,0.6066892464275279,193.509268905675
1.0,0.23247288117972076,164.014427741951
1.0,0.9164780034382337,190.100836362948
1.0,2.043170975380635,219.709084885449
-1.0,-0.731502562686589,137.492070428581
1.0,1.3155953983792563,205.703629131647
-1.0,-1.0660559212154774,134.32789194218
-1.0,-0.46969422513725345,134.198153325494
1.0,0.49567313664054446,159.982314524349
1.0,1.767217318945675,232.761166336534
1.0,0.9539592199797066,190.71536807354
-1.0,-0.9016458663296407,128.560075137572
1.0,1.5950909537897568,204.627156418296
1.0,-0.9740752578069355,152.852974718754
-1.0,-1.4994728389697802,124.603354194048
1.0,-0.12951992343848476,176.181289497547
-1.0,-1.0614368866902917,130.395085483009
1.0,0.31409041891878736,175.891959595933
1.0,0.0806640776734094,174.741784443711
1.0,0.6893540191405994,186.287991990979
1.0,0.615411527633706,181.954867075458
-1.0,-0.8358850436227567,119.191194477355
-1.0,-1.6801291594325045,119.580853820813
1.0,1.64420768453274,203.453595842764
-1.0,-1.1686836976852557,125.045868776162
-1.0,-1.655559653659773,113.944988323158
1.0,0.4926239946270271,169.225034720373
-1.0,-0.41501126525081083,139.034575173835
1.0,0.5588331578157564,187.901374763361
-1.0,-0.43367713176252015,147.204547833916
-1.0,0.8054119184332287,169.114862442853
1.0,-0.7675370221799906,160.140615622405
1.0,0.6659108582315695,189.583425533766
-1.0,-2.1847907595756975,112.226983636465
1.0,1.354850144829529,205.347596206115
1.0,0.3400525024273066,179.299232124016
1.0,0.8131600423025849,203.353900351092
1.0,-2.0691344249532415,121.338322555937
1.0,0.002328773151569871,179.468886431732
-1.0,-0.7284431303857959,134.111374252931
-1.0,-0.2659631308609485,140.587103680462
1.0,0.3936047706173188,203.454868633794
-1.0,-2.4841196918802755,84.1706947685606
1.0,1.8968227303922345,222.528389858935
-1.0,-0.8837388484600156,124.810695121021
-1.0,0.03158409965025236,138.509139827607
1.0,1.295870535153486,209.309880125881
-1.0,-0.9868849662713096,126.912850119797
1.0,0.6876902457702414,190.513513766847
-1.0,-0.9292128935009937,119.173397008303
-1.0,-0.3181276477132968,141.575300322436
1.0,0.4350805525377836,203.161598329019
1.0,0.1653081826930962,171.536554598756
-1.0,-0.2841521308760963,136.508506170129
-1.0,-0.6505084361515248,158.940059887756
1.0,1.3618582829144823,204.927012136803
1.0,0.889465595208154,192.438324720181
-1.0,-0.2598631292145366,156.097455036575
-1.0,-0.6744812913779845,136.29824432494
-1.0,-1.5422374168377153,118.481624096983
-1.0,-2.578894954811716,96.6402446637704
1.0,0.6985382259813221,176.141893827807
1.0,-0.25841082345420113,172.942984226681
-1.0,-0.5905492866590145,149.274099544133
-1.0,-1.3774482526167346,105.311141498072
-1.0,-0.7760571072448741,132.974282924293
-1.0,-0.5018661380497024,151.923769902396
-1.0,-1.2133668265925008,121.053641191411
-1.0,-0.10812964156701937,144.839403133183
1.0,0.44102966213944234,188.37574625345
-1.0,-0.2614852556691462,145.599638937523
-1.0,-0.7209796057645724,144.419186927609
1.0,-1.1542041329535309,149.149684837724
-1.0,-0.8716389367591586,129.189009965093
-1.0,-1.2113417282750882,128.757893176915
-1.0,-1.7729016652080085,99.3138152288173
1.0,-0.2890183441974648,145.335260567609
-1.0,-0.9028944685473529,118.21764074294
-1.0,-0.40239173461824984,132.578705642439
-1.0,0.06530356049122593,159.147958403703
-1.0,-1.4373253249870792,115.5987524907
1.0,1.1744711074340548,224.695162461364
1.0,2.280347303435293,224.12427132956
1.0,1.7041430170365839,204.220209116356
-1.0,-1.1812339100847997,151.621748021954
1.0,-0.03157009508447793,191.636714076471
-1.0,-0.5091145570543579,139.604219139648
1.0,1.2035639724564786,188.811769976897
-1.0,-0.06567783821227023,157.725304075873
-1.0,-0.05173487937286979,172.006997965417
1.0,1.3095828645912504,216.923291191821
1.0,-0.7147985791786441,168.944897691471
-1.0,-1.5832508531012608,92.0379430397919
-1.0,-0.7738349263716292,128.617638390548
-1.0,-1.7131607454971294,120.743637801798
1.0,0.8688133077769994,184.055958773671
-1.0,-0.23048137549561054,144.64303168608
1.0,1.7431857364622807,208.058043324187
1.0,0.9894470132800115,201.713032391986
-1.0,-1.60609005972587,115.584318791353
1.0,1.2454958578074697,192.351116685837
-1.0,-0.9391350910212404,131.292879658791
-1.0,-0.8909411245030441,120.466153190048
-1.0,-0.8304461207257896,128.091026110874
-1.0,-0.7487983985409231,129.289829974431
-1.0,-1.2524128117605065,107.520131452552
1.0,0.34136851274308044,177.24014549544
1.0,0.5452094193264497,183.672869075466
1.0,0.3958181852768032,162.955173257109
-1.0,-0.3129591563246104,151.978449983096
-1.0,-0.3753078216969703,122.485795292252
1.0,-0.7252766715451113,156.820414854543
1.0,1.910200589622664,198.462226895361
1.0,0.5201098852142245,164.903328343631
1.0,0.9446590158318295,190.088062866182
-1.0,-0.9017007912284285,125.040891841666
1.0,1.1016799027616206,197.854673533081
-1.0,-1.6205268422514538,129.735131242109
1.0,0.9638692049369547,183.93885695678
-1.0,0.1215053736360727,160.981093829936
1.0,-0.004111476207445907,160.372738689544
-1.0,-0.24229724801772892,121.172604702616
-1.0,0.044342781165019565,161.143613146957
-1.0,-0.696986392188385,129.021055261541
-1.0,-0.6103868433954293,141.175989017874
1.0,0.8431402195650641,170.296196746773
1.0,0.7366654330426847,185.258335027981
1.0,0.16755118286999174,166.631665835137
1.0,1.2045577107750236,209.929323430504
1.0,1.1344215756665914,197.811882243136
1.0,1.2804631447485306,202.944771090379
1.0,0.22338223867296164,181.709618932242
-1.0,-0.9055704273242927,149.606555366288
-1.0,-0.8804479378804627,129.923012583355
1.0,1.086880272932394,194.210823255243
-1.0,-1.5099293153452544,121.465205228422
1.0,-0.7090821525810188,163.257901840427
1.0,1.0651795877507562,182.802806044838
1.0,0.054694200170313886,161.201890594841
-1.0,-0.9845952899129584,142.565483096249
1.0,-0.37471405901314353,185.00185417842
1.0,-0.05229501277299166,165.514607433147
-1.0,-1.0564435099228116,139.194288951347
-1.0,-0.07886221984532162,171.9378090339
-1.0,-3.1461840736353843,64.700126712753
-1.0,-0.5202740519917423,135.600087638517
-1.0,-1.309358201326793,119.713505557257
1.0,0.4415570680775896,170.986012664571
1.0,0.979302620250855,186.108408386061
1.0,1.1488417730142713,206.586964348073
1.0,0.531202670672588,184.148654336179
-1.0,-0.6889835671445689,144.994885996291
-1.0,-1.8492886414993197,139.140812286463
1.0,1.0357661282184438,185.864594606426
1.0,0.08303894870505814,170.712229694375
-1.0,-0.5317664562376422,128.544983092704
-1.0,-0.302316675949889,130.22819503886
1.0,1.0100428421110348,208.063890315076
1.0,0.21431528045118947,175.590881865137
-1.0,-1.878264215812317,103.026622174333
1.0,0.4273578088895217,175.015090454059
1.0,1.0616648160221906,188.098837300362
1.0,0.8796289214976213,184.158554267461
1.0,0.4236062508204155,177.619862912849
-1.0,-0.5040555705985158,138.22573740781
1.0,-0.926191341351677,148.605042361239
-1.0,-0.022941227874588944,144.894263633821
1.0,1.423249555565689,202.152955387985
1.0,1.8281413421435453,208.221064804361
-1.0,-1.0947428119557154,126.353741148101
1.0,1.33681341789933,209.381199760833
1.0,-0.07102069449261775,175.648762705368
-1.0,0.10555746219981775,162.100595728148
-1.0,-0.6036565199047933,138.761173888071
-1.0,-0.19502888810780875,160.622370169889
1.0,1.7709697346365318,223.397572330014
1.0,2.068474859432148,220.845727450162
-1.0,-0.6852656185823927,135.598592190331
-1.0,-1.3842448438714685,131.702313600744
1.0,-0.12669135225534126,157.450579917075
1.0,0.8607256254749134,205.133435498665
-1.0,-1.2648629097158006,118.812406699843
1.0,0.20036057070039007,163.845001328561
-1.0,-0.885163104070635,136.799777276035
-1.0,-0.710795065433941,133.78282492955
-1.0,-0.4469302856652657,127.970773840858
1.0,1.761119489922807,217.238225088706
1.0,0.5597875129996704,186.718801866057
1.0,0.10686979206980665,158.715870170122
-1.0,-0.5307190750146678,155.530713879534
1.0,0.7950756447626116,199.339857106691
-1.0,-0.44657592509060173,140.896248257945
1.0,0.24718033614628646,178.078360397352
1.0,0.9773848417939253,192.081131356246
1.0,0.8778203425576167,188.181124848229
1.0,0.3392199183016593,169.810674958778
1.0,1.7254398034882972,193.086474197542
-1.0,-0.29244047673064055,144.757202709172
1.0,0.15151286016421148,174.845396598486
1.0,-0.06521790009470356,146.189967034633
1.0,2.2126346243286674,236.360677960665
1.0,-0.5851143180271112,146.237397860166
1.0,-0.9395286707083297,149.7597060165
-1.0,-1.8457595053373796,100.648523552276
1.0,0.1058801734892803,161.559300847782
1.0,1.6094606638229818,210.863639710134
1.0,-0.2994289674211353,174.931143238132
-1.0,-1.750495463945309,101.4551294287
1.0,1.5773939378532886,211.942717816643
1.0,0.29937922650161464,200.897021073657
-1.0,-0.9910692358229567,135.665547924939
1.0,0.8301164765249852,199.494335791778
1.0,1.9173354317623206,215.162528642991
1.0,1.2036865946412396,195.959044747928
1.0,0.7250270147475748,206.515190253783
-1.0,-0.9827917583848524,133.928179771128
1.0,0.8635158986955811,190.933400489868
-1.0,-1.4101863260615763,126.713649298855
-1.0,-0.4316866070152334,161.677903420103
-1.0,-0.33498196657109436,151.442531232569
-1.0,-0.2715616812614601,146.752451830434
-1.0,-0.330683747595304,156.062396331944
-1.0,-1.1550492043632785,134.682126594453
1.0,1.358413228380739,203.231489397679
-1.0,-0.21575882340367455,149.294182633801
-1.0,-0.06811396917514353,154.59545113415
-1.0,0.9081274569028804,178.391841824564
1.0,0.6250830182671384,187.550830706638
-1.0,-2.119751308090011,101.757024898513
1.0,0.17681842407717496,171.34574590784
-1.0,-0.7767762968459141,123.913872067523
-1.0,0.23472219731330482,144.03910414616
1.0,0.5270765616969456,179.878977102334
-1.0,-1.1938635035770437,122.405364444669
-1.0,-1.6548861427174189,95.6256381775232
-1.0,-0.877065690584964,128.292204045507
1.0,-0.5764674611009926,153.881377247791
1.0,1.9074153928212958,231.697887262719
-1.0,-0.9101803791646371,112.896933872332
1.0,0.4224103439194919,167.176045050284
-1.0,-0.34177958099010985,150.097941625046
-1.0,-0.8196833972371809,142.566080498934
-1.0,0.9480007101147121,188.61788343531
1.0,0.8086594400805142,194.603768502719
1.0,0.04502585886704628,173.47439736509
-1.0,-0.32527948562853076,154.458253156982
1.0,-0.9985549156664094,144.750084449321
1.0,1.1622475442834637,213.736135894646
1.0,1.0694858494778938,215.487571789749
1.0,1.1124462963449528,201.2655905099
1.0,0.6676822598157697,176.652179225913
1.0,1.7507711192933486,214.372161472232
1.0,0.0908977202558044,183.715814848729
-1.0,0.24933885311409923,160.963549571199
-1.0,-1.9420383118621256,101.682613361014
