Gender,Height,Weight
-1.0,-2.0388834750248144,128.777739142407
1.0,0.7498215012076704,192.408896724658
-1.0,-0.6457682894299135,137.388288046594
1.0,0.13870689156123084,168.863548479767
1.0,0.21012270792949547,176.447504294775
-1.0,-1.3579184840742993,112.965639642002
-1.0,-0.4672507582308859,137.103401171402
1.0,1.002691864617697,191.709066845333
-1.0,-1.3397298312300456,134.955260864685
1.0,0.21088147567936674,179.444445235512
-1.0,-0.34253298206732596,128.03908607911
-1.0,-0.8354161928174701,136.621592575599
1.0,0.45647746129544586,182.796933543627
-1.0,-0.3955445004957268,160.758900412111
1.0,0.4708811621569855,170.541400967346
1.0,0.7354239630305694,194.257747797597
-1.0,-0.31001424346241535,139.989934059748
-1.0,0.1494704504500784,136.132223109725
-1.0,-0.07560501695570579,156.200706089896
-1.0,-0.03181263834177875,165.61655605684
1.0,0.34771415614318285,196.933267718119
-1.0,0.07201735943445894,145.540189733852
-1.0,-0.6298265166847955,126.978568506184
-1.0,-0.29270396829447204,128.721102972444
-1.0,-0.4593640213081572,130.657130926108
-1.0,-0.6663123496155708,131.169741930046
1.0,0.30709816174208715,183.266533117893
1.0,0.38261035460140186,169.459305890162
1.0,-0.5193480787900346,154.008091361488
-1.0,-0.9458662303979612,120.402414130795
1.0,0.35428448608184276,194.18044459866
1.0,0.42581525201103376,186.78033784958
-1.0,-0.011006091870635653,157.638024347118
-1.0,0.16090775807745172,163.573336356195
-1.0,0.14302633066367978,181.592417163426
1.0,1.7150362504450378,202.624892849943
1.0,1.309350403031812,211.172791103462
1.0,1.3658039737507734,194.419229822917
1.0,0.08304704942802787,169.207323155429
-1.0,-0.8443281328414889,138.79412120669
-1.0,-1.4921227076823176,118.54075292114
1.0,0.7760591230298598,194.450557167277
1.0,0.8615127082515384,187.57605160974
1.0,1.2164948274575362,206.689585451311
1.0,0.5186182976797931,189.203924505248
-1.0,0.06416973155577899,155.888980999046
-1.0,-1.05508306599072,120.671009456357
1.0,0.8736552695378783,203.895654986365
-1.0,0.1665118015840311,151.735235300403
-1.0,-0.6357083672464519,135.665990376898
1.0,1.6814700815035537,209.422484275198
-1.0,-1.2363071527000815,128.13774132554
1.0,0.48615316082590054,184.292560481673
1.0,-0.34442345404535374,178.301600333992
-1.0,-0.9477234234332703,119.486517223659
-1.0,-1.7587249149921635,115.227993009646
1.0,0.4987518875756169,181.404808371928
1.0,0.4623755320087675,192.153701298245
1.0,0.8322089632773985,199.82928211617
1.0,0.707321903787533,196.738709318429
-1.0,-0.3850738950793826,152.86693345711
-1.0,-0.6921402193597717,134.093409442141
1.0,-0.13695749337562074,162.484866133794
1.0,0.44254790849008874,169.315686503236
-1.0,0.07983455375313356,161.716484018849
-1.0,-1.2013140096397663,132.595679803653
-1.0,-0.9192440123774788,142.56469530455
1.0,0.18694013552601213,164.175700818982
-1.0,-1.774950694239148,121.244875534712
-1.0,-0.9322065829729762,135.628790604296
-1.0,-0.7710152729554836,145.316583178589
1.0,-0.12067012738764328,172.57523095707
-1.0,-1.0517116519753453,139.320931600689
-1.0,-0.21595654746822263,148.272979501319
-1.0,-1.7237576715312972,129.004417604914
1.0,0.5702157459952163,175.041945711247
-1.0,-0.2941378158050443,128.446414954298
1.0,0.0016726324983006048,167.784391028618
-1.0,-1.6051071159058081,96.3587759528881
-1.0,-0.8468279567057836,117.895846821556
1.0,0.3760332451698977,192.066391951822
-1.0,0.5556787118296108,176.904921236491
-1.0,-0.3453869572491912,129.510812116208
1.0,0.20039578282362666,171.876966350462
-1.0,0.8470023577236409,159.867870788118
1.0,0.40342505255500616,179.24588310095
-1.0,0.005166051918449786,124.27755195456
-1.0,-1.2587813473566263,125.01823288843
1.0,1.114246151152893,184.383603208706
1.0,-0.5933263491202536,164.462737014583
1.0,1.2315061991415786,206.493612895375
1.0,1.3204181013034473,191.177157677356
-1.0,0.3849883263545655,163.580383909747
-1.0,-1.417679458083143,123.827603454657
1.0,-0.48812607850801265,166.704316001462
1.0,0.4494538352475118,189.26634876783
-1.0,-2.2491676818274278,94.389732636505
-1.0,-0.5662137479562868,112.507011538138
-1.0,-0.19277148463534893,139.579900047867
1.0,1.007848730521812,193.012051655726
-1.0,-0.8285245221598814,124.90602445081
1.0,2.626576102273208,246.232321295104
-1.0,0.35644424319395795,172.362800365281
1.0,1.4406505283018487,198.078825480167
1.0,-0.1108404407191352,181.069175790509
-1.0,-0.2903414210577874,135.303222292726
1.0,1.054540349330769,197.90752114977
-1.0,-0.17892156098006867,157.462762647754
1.0,0.9163720447863276,200.120674175944
1.0,1.2535270708852906,183.845507094266
-1.0,-0.24624223905286277,134.612715838218
-1.0,-0.6046048514498907,141.886802103853
1.0,1.5392564477408512,213.896689527779
1.0,0.1264643783911918,180.544376625543
-1.0,-0.050774726655598734,145.798122128445
-1.0,-0.8116746774697325,125.693729070407
1.0,1.570740745494452,210.364091058104
-1.0,-1.6235630834645347,113.406966734996
1.0,0.6974682518542454,181.410663462465
1.0,0.6428016490644164,171.921149933427
-1.0,-0.81767665650683,127.861973082503
-1.0,0.09144437422662316,146.891576814818
-1.0,-0.5527073513835821,142.579014412498
1.0,0.6434198888298586,153.468050364256
1.0,1.4794735877516294,203.925879957815
-1.0,-1.908231269067061,116.811511736994
1.0,0.7527596035547768,196.375781838728
-1.0,-2.2665134673565515,99.396030767706
-1.0,-1.3226678414815634,135.081159304844
-1.0,-1.240302277240829,125.690445565054
1.0,-0.0897385205020979,167.378816529532
1.0,2.7242752449489727,254.209073180735
1.0,0.7778108642881022,177.742428212743
-1.0,-1.0842962163260554,137.284026960041
1.0,0.808312654750845,191.76385209845
1.0,1.3523510341053377,200.546570081206
1.0,1.1552416506471832,206.293369554484
-1.0,-1.2080133669203361,120.229463428618
1.0,1.0676391038486126,193.857356069757
-1.0,-0.40653232171812553,151.041999787936
1.0,-0.648280007725446,152.554619713603
1.0,0.25077576047927935,187.708566102105
-1.0,0.3500918962861442,147.672830227387
-1.0,-1.5059604429359656,126.848772597692
1.0,0.1310824314690181,170.323957507193
1.0,1.577091755478912,201.614897367215
1.0,1.3852656471924332,205.161748286445
1.0,1.9806679948720634,200.584185743067
-1.0,-0.25070180841079254,146.950388715448
1.0,0.08008736010382286,169.253940175445
1.0,0.3043012339809449,181.865044346081
-1.0,-0.2172947673510519,158.598827675123
1.0,0.644615546602382,178.256907646413
-1.0,-1.0986487391656523,117.287234136288
-1.0,-0.16608365029185926,137.839895869937
1.0,-0.5973139955676268,155.344797788702
-1.0,-0.996359549310659,126.162458344502
-1.0,-1.000443777122347,128.851529473695
-1.0,-0.6922604426912696,133.023856713654
1.0,0.43730678462908307,173.196265684568
1.0,1.0869131902421334,191.31881083447
1.0,2.421220498397536,232.104476046529
1.0,0.04243853422972561,189.361395082828
-1.0,-0.2297573267950612,138.982098177254
1.0,-0.8445600781169738,160.756703262985
1.0,0.3761153760009455,191.760001792547
1.0,0.4669914817029669,191.830234706788
-1.0,-0.7283443975306682,134.80071509218
-1.0,-0.9525164389756372,142.218519457432
-1.0,-0.525019986412298,138.815261189938
1.0,-0.023762247899415813,174.209764123141
-1.0,-1.7986819506903993,112.11835962786
1.0,1.1659990638714746,195.251666491753
-1.0,-1.1397770111592989,137.392504943325
-1.0,-0.6890140111413589,143.758991614374
-1.0,0.13686132594199057,140.3460606498
1.0,0.8339099404971934,206.600442166756
-1.0,-0.5088625856019001,136.245058498943
-1.0,-0.48927235796924096,150.402898695227
1.0,-0.40014397880609526,146.95451586425
-1.0,-1.6514534867066335,133.327530135541
1.0,0.6685205816832237,185.77874641179
-1.0,-0.036328370551282387,156.166353265997
-1.0,-0.5735690262402544,138.325501984479
-1.0,-2.039251811450756,103.76442478128
-1.0,-0.2818946698832607,150.781482245881
1.0,0.5888221614050467,185.538019698976
1.0,0.04845465291677147,171.428591885687
1.0,-0.34364449465106955,147.66026013933
1.0,0.39097380121510916,176.904595990082
-1.0,-0.4085276627480415,172.691881260367
-1.0,-2.227263043030946,112.345578239669
1.0,0.9846951635909871,185.257822705305
1.0,-0.26592332649042644,174.25868297163
-1.0,-1.5022944406328183,128.183805375338
-1.0,-0.5133028886695395,133.318356933567
-1.0,-0.22323627748890335,164.442778414257
-1.0,-1.454643326203464,109.837385673708
-1.0,-1.2390295492239956,136.609345601026
-1.0,1.0351203669963713,202.237213739559
-1.0,-1.0704408413093083,116.605800703524
1.0,0.5720360945097464,179.795968121258
1.0,-0.15700897771646322,163.230840261037
1.0,1.1524856422805696,196.467724673936
1.0,1.1902460614608836,193.506341058435
-1.0,-0.9746666276474737,138.082482281735
-1.0,-0.4394419811123311,131.1821481418
-1.0,-1.425060550603748,128.530333378349
1.0,-0.23785181551126797,174.910328161193
-1.0,-0.7555393593425354,127.305711380606
1.0,1.2529064319021772,192.969276085467
-1.0,-0.8595474485613156,122.433639344764
-1.0,-0.4663725837046908,148.475554544558
-1.0,-0.08236587722284153,138.906378734208
1.0,1.1998200953656923,182.136435149657
1.0,1.4156143811703092,192.816441679395
1.0,1.1165553549752296,195.626319057537
-1.0,0.448819649068461,141.226633056596
-1.0,-0.3334729567021331,149.194092604907
-1.0,0.4578662278566953,138.863712967618
-1.0,-1.106688628320597,124.483947181836
1.0,-0.21723087813390582,177.61822433546
1.0,0.9278733854691353,202.279069679297
1.0,1.9489670808989759,223.46474685252
1.0,0.2588623916173982,178.173833179945
-1.0,-0.2849183782564826,145.245082896938
-1.0,0.6029295581523706,173.115812588004
-1.0,-0.17517859937831995,140.608412362972
-1.0,0.06688370044612829,141.187261572672
-1.0,-1.1278419645976279,103.275029340058
-1.0,-1.658567041607472,129.417764077037
1.0,0.23996236350345745,154.718344015327
-1.0,-0.192635550695498,135.78273838376
1.0,1.0782266535444172,183.759845192649
1.0,0.871131029286566,204.217022100385
-1.0,0.055843675338550024,155.891880934276
-1.0,-0.9328675046524532,130.471472868411
1.0,-0.4860074426363393,169.841015617733
1.0,-0.17499542630284398,150.960619570537
1.0,2.1485693140319504,213.069042246911
1.0,0.22683191155511698,180.410028167943
1.0,0.7489476494270384,187.469371391246
1.0,0.5849634520441874,187.506843155807
-1.0,0.5109737977380531,175.134535138437
1.0,1.0789168444864492,199.568441028307
-1.0,-0.8607442542631817,128.398965765746
1.0,0.8936109252994244,208.435223167274
-1.0,-1.947648864703032,102.92707753871
1.0,1.4644348308488704,196.214414481383
-1.0,-1.9157713965418046,113.734396983804
1.0,0.47924440381483535,174.898716996865
-1.0,-0.6543623293708369,149.761885603035
1.0,1.4783340074309073,205.676441963688
-1.0,-0.05685259863892026,152.749747162287
-1.0,-0.708272752398346,135.422802487943
-1.0,-0.5740141914214687,137.684151448708
1.0,0.38307100064358934,179.647844388469
-1.0,-1.2176039462303558,116.423510279721
1.0,1.262728937352338,199.182762952512
-1.0,-1.5040930201621405,108.64817624809
1.0,0.344100569507254,177.113345728953
1.0,-0.10098200093455559,173.886761190519
-1.0,-0.8933807029872382,136.596762626887
1.0,1.0536184475851957,205.465481239682
-1.0,-1.0224695342424535,137.174597958243
1.0,0.924316123084058,207.074912989175
1.0,1.245531064737168,197.258662277712
-1.0,-0.5352660668155977,140.879463008474
1.0,1.0714065694121646,188.798292951655
-1.0,-0.4487518887646643,126.321941371037
-1.0,-1.842289382273611,86.8907118416325
1.0,1.1570978840756763,204.580698547964
1.0,1.50597338276864,188.913332426328
1.0,-0.11682703133691937,174.719958105635
1.0,0.32148448408521374,179.389011247273
1.0,0.7398143599037688,201.527753115406
-1.0,-0.5361891307175569,133.875404616058
1.0,0.8666019687538868,197.350489259023
-1.0,-1.128868187370209,124.603940620149
1.0,0.2157210354070652,177.313563708361
-1.0,-1.4449313585593564,110.984168692645
1.0,-0.37756711466421294,148.906905063138
-1.0,-2.0042741047534776,110.012872871417
1.0,1.0775433127605143,205.725383948652
-1.0,-0.33255178909917166,146.796102729389
1.0,-0.1019803309111172,171.076831440131
1.0,0.6811797139921162,180.365955212988
-1.0,-1.5757245943117606,107.978308854213
1.0,2.0418034294563747,223.308040304474
-1.0,-0.9051709987634065,128.361153217695
-1.0,-1.0709954302211262,117.230337235004
-1.0,0.5739178673097801,163.228849726571
1.0,0.8802595002966996,193.459981115456
1.0,1.071861935424074,203.285035100182
1.0,0.04267542001053441,168.247436849264
1.0,0.7200108815693427,188.630073594756
1.0,1.103517589085876,187.472023542885
1.0,-0.3070796112829546,165.028012640068
-1.0,-1.402711850484951,104.855402952307
-1.0,-0.4001145812226089,150.030359755927
1.0,0.1660682658636987,197.799299766309
1.0,-0.3172720424688812,153.296437253659
-1.0,0.1903509857157882,133.235697911489
-1.0,0.24537477404218458,153.910289791171
-1.0,0.21110741980754819,159.318643402433
1.0,1.3226243028361133,209.6777853537
1.0,1.3940604645887429,220.042470303077
-1.0,-0.5752259838789255,133.138355593842
1.0,1.1857524796537262,205.695751278621
1.0,-0.08781434097929679,174.058235447194
-1.0,-1.2115572743657699,124.812240995469
-1.0,-1.122657724156035,141.22454703641
1.0,0.03517737150216049,161.757176072928
1.0,-0.14561871846283667,163.851824878622
1.0,1.087242964412465,190.365182258908
1.0,-0.11266742545860778,157.706693721179
1.0,0.3643389959576723,170.296762912926
1.0,0.857006565828397,176.25927439784
1.0,0.25839567465959906,164.145922397398
1.0,1.1162093892330636,217.951882605948
1.0,0.5586514487840469,186.362411645933
-1.0,-0.24909006849403764,151.532193245431
-1.0,-0.9908504665919421,144.299189909668
-1.0,-1.1549194668508584,125.821691740655
-1.0,-0.40274154828557945,151.493586981401
1.0,1.3895628553569357,193.108946518177
-1.0,-0.36014051336543595,157.829151800939
-1.0,-1.3744856559448064,124.802926195355
1.0,0.2873518544452014,178.365728160163
1.0,2.2819292950258405,221.329227716926
1.0,-1.0066256027414269,144.461723373137
-1.0,0.6862597030332479,159.086870772944
1.0,0.3749845279376055,170.457825627499
1.0,1.3150877564652919,215.154985406312
-1.0,-0.5435753875663705,123.298801482061
-1.0,-1.1313143618063095,121.239436200904
1.0,1.6079131847118682,222.361125020361
-1.0,-0.1553546436677192,147.733361242309
1.0,0.20484014066827885,176.219278556831
-1.0,-0.14305645105598333,153.341550871176
1.0,-0.5016937784634362,166.490219384593
1.0,1.2766452910166672,192.675508043898
1.0,0.33986847143471044,193.5865353569
1.0,0.47269228045096634,171.528338387337
-1.0,-1.882478878939525,90.5207839962002
1.0,0.3670359601803947,192.199788192446
-1.0,-1.1195578299561149,123.803906326023
1.0,1.062745512821602,187.518140769157
1.0,0.5745720429666706,181.487445778666
1.0,1.1815732008863253,205.376736565815
1.0,0.3460945559020763,185.006776560315
-1.0,-1.287190232106614,106.295001359125
1.0,1.6905150546841912,229.740753102393
-1.0,-2.179702502830926,92.1184263949018
-1.0,-0.9194960537587207,146.454147814435
1.0,0.9244877802267917,211.740000564014
1.0,1.5114288849569466,201.261464391648
1.0,-0.28518806391147683,168.617746204292
1.0,0.7518792184057321,197.411781826015
1.0,0.30843117870207587,172.870347001759
-1.0,-0.7465573695555526,141.026405496844
-1.0,-1.9979787470466701,91.5460043757612
1.0,1.5746601339882484,228.974646724056
1.0,0.1689289958187539,183.381298301548
-1.0,-2.0073496209240154,95.7879688678834
-1.0,-1.754599028942606,115.247771834858
-1.0,-0.4339098241312918,162.763350038971
1.0,1.1473089563361574,209.511912850533
-1.0,-1.9081526660853954,106.37053895863
1.0,1.380402133401368,206.401780751861
-1.0,-0.47578683953848705,130.670259933203
1.0,1.4267195405135145,213.727914835904
-1.0,0.29920261460393066,170.330889207843
-1.0,-2.0966522190175243,92.2981464679836
-1.0,-0.8869218161049472,150.582520877049
-1.0,-0.7995813641933491,126.409991249452
1.0,0.18438975450287734,182.555284762756
1.0,2.1954134730451247,232.209377348429
-1.0,-0.9991559097090998,136.256130006244
-1.0,-1.1493762856872995,110.657142075488
-1.0,-0.7248074022056994,117.709241852597
-1.0,-0.28139309644727023,129.293602421454
-1.0,-0.5267645630943074,137.841074854066
1.0,-0.2931703393359325,158.61976108754
1.0,-0.0860634392097856,172.140801009789
1.0,0.900960442982264,188.041029020603
1.0,1.2486228712043543,195.38231076051
-1.0,-1.804533868028055,94.7470145707541
1.0,1.457146972728896,205.856369992931
-1.0,-0.5100151815226313,125.535720592245
1.0,-0.034081367450640235,167.297530251137
1.0,1.176128077715423,201.418036626955
1.0,0.36955983401304787,186.11903739595
1.0,0.06780684257427277,159.482828827659
-1.0,0.15306926647386326,164.08930808319
1.0,1.4206217992028225,205.193061760797
-1.0,0.7623114326147797,185.187969769128
-1.0,-1.3371499033897358,109.23424273383
1.0,1.2901792944877757,194.401079380422
-1.0,-0.6275944868324195,140.802116118289
1.0,0.04952890511210382,154.627588397121
-1.0,-1.3418646136906065,108.290104228827
-1.0,-1.8505361846397463,106.067217952156
-1.0,-1.6701012009168184,123.498491782078
1.0,1.1293154126666962,182.04572007037
1.0,0.9745472263374523,209.975992897927
1.0,1.345068849104938,203.783434776047
-1.0,-0.33219549625313727,133.313495422583
-1.0,-0.6827574870453686,134.111768150996
-1.0,-0.8654962924885491,127.070393942324
1.0,1.1803215563320186,201.883998700574
1.0,0.6868804210561511,208.536195228748
1.0,1.853452116748156,223.413224318441
1.0,0.5506468518572257,203.009243569307
1.0,1.7205703164089716,206.62939921236
1.0,1.329720309890372,209.914741516558
1.0,0.6846238121363909,211.124825201028
1.0,-0.4494501456924073,172.501320855784
-1.0,-1.7156650259013162,111.260036224449
-1.0,-1.0294125314691722,120.303349805267
1.0,1.572713503777141,196.028506330482
1.0,0.3954743056567846,170.930201784064
-1.0,-1.6536905769754147,112.664383375473
-1.0,-1.127675249409815,113.888700265216
1.0,2.5339912052160667,240.638103496331
-1.0,0.08541054937468144,156.777739615059
1.0,1.1978952511331324,191.572153555511
1.0,-0.5435103220228756,159.738668065138
1.0,-0.17228658415557827,170.100563318173
-1.0,-0.11044049698387164,157.022986870301
-1.0,1.139450983525267,192.583638851817
1.0,1.2532891997422848,202.782735719744
1.0,1.041703848345938,180.298356688671
1.0,1.3375855710818707,212.72870492711
1.0,1.7567241048361788,220.661405093753
-1.0,-0.9058516130318395,119.992575500218
1.0,0.4106764769957303,177.347779818472
1.0,0.2143083889874613,187.114143580948
-1.0,1.1142504708780026,158.781223123924
-1.0,-1.8690727105959923,115.448815582697
-1.0,-1.8919235587015202,129.272607527928
-1.0,-0.22998567748420765,135.278321527876
1.0,0.5485464393464821,190.686022530134
1.0,0.6092159032253338,195.391862159653
1.0,0.7228939049409817,182.753570178696
-1.0,0.8064705286975765,174.146100643492
1.0,0.43845672999855245,177.03190666383
-1.0,-2.309693841847552,87.4965711068527
1.0,0.049131952848126645,185.042324084993
-1.0,-0.6673711507421581,134.947032581911
-1.0,0.3893118648786564,160.916713206875
1.0,1.364649376728444,201.679351976306
-1.0,-1.0624650212354851,133.255261053524
-1.0,-0.8192227264662156,127.005158871953
-1.0,0.4990673922579405,149.851548001767
1.0,1.1748199688955854,182.887947720361
1.0,-0.4114086365582618,173.900510656103
1.0,2.0224605511361506,224.935328570726
1.0,0.9374646151479741,212.80425895999
-1.0,-2.405566074284672,98.794038096719
-1.0,-0.5095898742256927,145.9005330822
-1.0,-1.2780994228504876,100.817996164838
1.0,-0.4996865917330734,138.092635852909
1.0,0.4318716898838509,167.541952036877
-1.0,-1.177004091608215,110.414161092118
1.0,-1.5917097093939636,153.831429216947
-1.0,-1.0080948697641565,124.175464892566
-1.0,-0.1330584612222635,162.5440593786
-1.0,-0.9112622519660175,135.520535634779
1.0,1.2564798747328465,210.169870145623
-1.0,-1.477173831619108,118.077696698914
-1.0,-0.853743345503346,134.265299349196
1.0,0.7221140068630107,184.487833523429
-1.0,-0.292796768306837,150.229901485131
1.0,-0.010647106477730442,163.747154568295
-1.0,0.28115903897645206,170.830353595279
1.0,0.7831236846193869,192.759875462793
-1.0,-1.7484900241501362,100.527747331819
1.0,-0.35769044800875927,144.551043767014
1.0,0.24080510916624845,174.087727656322
-1.0,-1.3158230984133306,122.534743665854
-1.0,-0.14816592914979285,134.342744519461
1.0,1.496150030217598,203.37296541286
1.0,-0.37351293922575796,149.837680356683
1.0,0.17998456816885147,187.725678368781
1.0,2.6290294476560807,230.794195470194
-1.0,-1.491248620590586,121.421189821305
1.0,1.6894880323998953,217.335253299588
1.0,-0.01651066116903231,179.759741725801
-1.0,-0.5927165594520982,137.490516042412
-1.0,0.2143076407659396,158.342220439684
1.0,-0.05870624657834596,165.997434175877
1.0,0.6911054746373754,198.014376792176
-1.0,-1.0517710960741393,123.962780274961
1.0,0.6797065944540616,183.245915338138
-1.0,-0.012819004242302664,138.537010044666
-1.0,0.360654278197444,162.907242925103
1.0,-0.3315538397857485,160.470735856154
1.0,0.3694087721294664,173.643040393328
-1.0,-1.6458138727765799,112.952625183124
1.0,0.11213390412030032,173.208632104584
-1.0,0.2709406860693272,165.07538928965
-1.0,-0.13242742358293214,161.902044223844
-1.0,-1.3041409318953476,123.908500254437
1.0,0.4524945928968915,178.461168551695
1.0,0.305682186378206,196.493315163641
-1.0,-0.7225577229270733,117.440810971778
1.0,0.6838205319607262,181.941318051727
-1.0,0.5630515006566568,156.702269811077
1.0,1.5647215875409377,199.446899235481
1.0,2.012443457262215,212.7408555565
1.0,1.2648627434499404,214.060148220865
1.0,0.7315823510838314,171.983677611956
1.0,1.2367505625532085,205.636049561946
-1.0,-1.1629847742957626,128.557198366814
1.0,0.5778032155260543,182.08122859673
-1.0,-1.0025888468711721,133.782664735474
-1.0,-0.44896327638018585,155.31829731652
-1.0,-1.2843574505945308,118.66042067292
1.0,-0.08140244364500379,162.517072642348
-1.0,-0.44845103375832757,141.082610968689
-1.0,-1.6680753783912552,111.232280911062
1.0,2.2841391875230004,214.370580515003
1.0,0.8982694416997012,189.808602549499
-1.0,-0.8253723039822204,126.331898826172
1.0,1.0153160646548607,185.718381426101
1.0,0.8447934473051857,180.506932024877
1.0,1.5277080354590011,220.901769881142
1.0,0.7745769813936672,185.66702599532
1.0,2.4395806992175784,226.503344326265
1.0,0.8895843500026998,194.400735358696
-1.0,-1.612391781401683,120.244526484622
-1.0,-1.0819232859122025,122.917881852374
-1.0,0.19342727484855435,162.604791122585
1.0,0.46861907274796555,178.719105244279
1.0,1.164250263323365,196.306309951181
1.0,0.6398646190840537,195.162042097346
1.0,-0.3592255756253244,159.112310378071
-1.0,-1.678750030914412,94.5636974730176
-1.0,0.43363700005675276,152.125020639838
-1.0,-0.4778792237033337,131.120790736503
-1.0,-0.7383613762145794,131.806333295944
-1.0,-1.2576994103526888,127.661455482649
-1.0,-0.3447884129361955,134.280095210813
-1.0,0.02804572245289999,149.205171164975
-1.0,-1.3705888168046063,124.912102174696
1.0,0.9563776095002086,179.723488430778
1.0,-0.06797478038813477,170.262306089256
1.0,0.5519436110630581,181.211239129842
-1.0,-1.22795302825034,121.303170692814
-1.0,-0.4865886911792736,142.495848026494
1.0,0.4460807354257639,194.143049202359
1.0,0.28006933448666893,186.838868203851
-1.0,0.797780628765541,170.138856676594
-1.0,-2.1463935411901014,96.2662501541608
1.0,-0.8885652184137162,154.059125493671
-1.0,-0.29283092236335867,155.400046346551
1.0,-0.0482622524401783,156.490890700244
-1.0,-1.6159331434119741,111.302935730514
-1.0,-0.08629563212814914,151.873442773797
1.0,0.2231076591775368,177.306474665523
1.0,-0.340543879821135,157.582431535246
-1.0,-1.4000795442408738,132.21854155707
-1.0,-0.06596903405529925,159.807688078246
1.0,2.202547564997513,223.945670277953
-1.0,-1.5404422907967805,118.224491294444
1.0,0.5683464521659418,194.284740916442
-1.0,0.04310332594922475,151.827808060294
-1.0,-0.3058480552909501,152.499760668414
-1.0,-0.03185809923888728,153.376155596992
-1.0,-0.9743616996818069,118.71616812932
1.0,-1.0446818352612959,150.721987710062
1.0,1.4238991758102129,192.39048440549
-1.0,-0.1693076078858033,157.691150989167
1.0,1.7977007152396247,217.896039742328
-1.0,-0.32286039415047096,140.376335631349
-1.0,-0.1759203383454337,139.179987134382
1.0,0.9208904726873448,181.591178707636
1.0,0.0952896211337192,181.493157652824
1.0,0.9579221852093137,186.586027761307
1.0,0.031105055150221293,176.009083385557
1.0,0.8044932633835621,179.697918533356
-1.0,-0.9302053195386113,126.422734418834
1.0,1.3410547686540413,202.748739711506
1.0,1.450413711681088,209.175489088048
-1.0,-1.3907406237776616,122.551131346505
1.0,0.3305286790047611,164.583050800347
-1.0,-0.6435668102022448,133.290687827197
1.0,0.939437584131146,193.718587513775
-1.0,0.5851437633864689,163.667208715041
1.0,0.7603127112067091,187.745351863374
1.0,-0.3671323522271241,156.54478634954
1.0,-0.7892041069444159,138.147593056833
1.0,0.522248922655847,189.465942705764
1.0,0.8298389824193056,187.217485931716
-1.0,-0.4862857433293571,139.814160267031
-1.0,-0.5762837355194586,144.985145957166
-1.0,-1.2933407548096125,120.681906546154
1.0,1.3002382439896087,205.538501313755
-1.0,0.27511408224086514,157.303923669967
1.0,0.04994901826385787,179.216570220812
-1.0,-0.04924673160765715,157.792424198492
1.0,-0.9301419161108858,137.324178310072
-1.0,-0.9365117076369099,128.165570168023
-1.0,-1.0674489024613825,128.451609496612
-1.0,-2.3962976716107995,91.6454729392662
1.0,1.859663844345487,212.866099174391
1.0,0.6140714271732531,184.130431971036
1.0,1.7512761522526572,206.818026615073
1.0,1.4618125412097114,211.019112804057
1.0,2.1624140453687923,230.136923281846
-1.0,-0.7788628214797712,139.299934580169
-1.0,-0.6865016678713599,162.048029882668
1.0,1.7195435047392547,224.372519860368
1.0,1.5806488762716437,213.359530360382
1.0,0.30074826883611805,174.399730368785
-1.0,-0.615804973016837,155.598037798773
-1.0,-0.8233216815829101,147.029163554129
1.0,-0.2708964091527664,163.05514228224
1.0,0.5401626252364841,183.783382685316
1.0,-0.7560296134768199,165.747828805705
1.0,0.5843660177286516,194.120844891984
-1.0,-0.2541091978880641,140.720092888626
1.0,1.6278886670711328,204.761965470611
1.0,1.1699648958315545,199.508654365893
1.0,0.6861450127828581,170.171571447315
-1.0,-1.2454400604406062,121.648439723
-1.0,-1.094311461202431,132.001207516842
1.0,1.314256676250788,195.364915235699
1.0,0.9753425569871396,192.553956170328
1.0,-0.05165738227488436,154.594031762614
1.0,1.4099269387197508,197.417014408726
1.0,1.0668773366819313,200.575743461554
-1.0,-1.7575612329556132,109.391842484274
1.0,1.6247214144336228,207.161233261586
-1.0,-1.038071553048123,121.744224314875
-1.0,-0.2086740159932796,155.256044301334
-1.0,-0.9826135056050788,153.574348447221
-1.0,-1.3979396600406326,123.024730366336
-1.0,-1.4089525571857555,136.655841082259
-1.0,-0.4577148360717458,144.416726162008
1.0,1.0902685021548069,181.18637091709
1.0,-0.6512347393932114,155.081236703994
1.0,0.6136049666123362,171.620966570458
-1.0,-0.22964124962609797,144.410070470814
-1.0,-0.8089925844054598,123.119527831255
-1.0,-0.5147713701921189,133.115212860813
1.0,2.1255169133137333,218.437567908138
-1.0,-0.7262968910600451,130.436640653772
1.0,0.3459252982138013,179.287031263939
1.0,-0.6504609107609475,161.74026021578
1.0,1.5561969139745018,224.603654842262
-1.0,-0.5889297411319311,146.648296418732
1.0,1.1485168838185238,211.216080923481
-1.0,0.3817803867252504,156.274296728665
-1.0,-0.6879548900243198,130.086167873638
-1.0,-1.0788008536785425,112.372841814313
-1.0,-0.8765743001946313,140.450521154904
-1.0,-0.2895175477181888,149.531118367038
1.0,0.22449330010192559,178.073055063128
1.0,0.899554845507783,195.979019588875
1.0,1.5095509610941502,188.630657238075
-1.0,0.7167856461919289,165.83000804778
1.0,0.9154849222962612,203.390800819221
1.0,1.5782196843331535,230.234109872155
1.0,0.99352895814051,195.717885138051
1.0,0.40027677774141096,179.310232906941
1.0,0.9814132725214407,182.832196917338
-1.0,-0.8960773100129867,131.57367513268
-1.0,-2.119885129189013,77.5237739030693
-1.0,0.008597926787113368,157.827045468444
-1.0,-0.949694776946747,124.672840042441
-1.0,0.16787014616656173,166.436635591387
-1.0,0.19552353675493453,158.93064285898
1.0,1.664610396361843,211.164231978894
-1.0,-0.12223785594886089,150.478851413989
1.0,0.34255658366740777,178.556922838024
-1.0,-0.4164713841729893,156.071485547745
1.0,1.275984839709238,205.176109561169
-1.0,0.1828117527626399,160.413714975911
-1.0,-0.9911751167300776,113.449037730277
1.0,-0.07797912066786333,153.056657731588
-1.0,-1.6832851547311112,108.625579032739
1.0,1.0696227037075083,199.359223999908
1.0,0.6148902432815554,184.510023158701
1.0,0.01473441144052009,169.405618895853
1.0,0.6643595140594908,186.492898108706
-1.0,-0.35952641582013806,142.370643511947
1.0,1.261722082681644,200.708467329946
-1.0,-1.3842892212719486,115.082671804258
-1.0,-0.051990034890287674,153.750443897188
1.0,2.0012080277231323,214.342465803496
-1.0,0.08801099155047866,148.351406528819
1.0,0.3992408092588522,168.677913221024
-1.0,-1.0063792582502362,137.536814793135
-1.0,-1.7170817849926419,103.944018725278
1.0,0.2269464187666335,176.746305447761
-1.0,-1.6313295317576681,106.012216406315
-1.0,-1.5248978925993728,120.996983910125
-1.0,-1.0334884698975138,125.635115013887
-1.0,-0.5874973193781075,138.73073965477
1.0,0.3254009875233652,194.518819453717
-1.0,-1.4349402800836784,97.7246018780605
-1.0,0.7683378875394472,166.637555472959
1.0,1.2190127008523897,189.134012435934
1.0,0.15561632740300216,166.433244778843
1.0,0.11831154103610896,189.236103800728
1.0,1.3264507363124647,202.839156020285
-1.0,0.4973554731994931,167.340407722375
-1.0,-0.08841089287384714,140.49428401929
-1.0,-1.5028379199388744,116.430074671494
-1.0,0.18719696919366904,158.555209525114
-1.0,-1.1914303443706489,120.520643947194
-1.0,-1.251892141656231,127.075102184616
-1.0,-1.105360603676695,145.337359446736
-1.0,0.19296638211356917,168.069334051731
-1.0,0.3397050771925506,172.574370078926
-1.0,-0.298218771756686,150.441300495906
1.0,0.5933088137527016,176.030067232873
-1.0,-0.33030227060012035,152.416198216735
1.0,0.4150689594845988,173.911384044234
-1.0,1.8251659295156848,190.078728869075
-1.0,-0.8900191169054419,136.773155829146
1.0,1.2500917928348185,205.619480953876
1.0,0.5030180778287436,193.702694008131
1.0,0.7947786393449532,188.779449754868
-1.0,-0.3640091030845936,134.724966128497
-1.0,-1.9644519305862649,93.0540913754368
1.0,0.17678262531924865,183.063058066491
-1.0,0.33165260024673704,145.907967969146
-1.0,-1.4316243994341338,112.090753334639
-1.0,-0.03433218965013915,149.413467570318
1.0,0.28472454050743573,182.301285584692
-1.0,-1.3483872985484109,119.025468917105
-1.0,0.07247725800338449,156.424967571249
-1.0,-0.0022362897435169705,154.019108067268
-1.0,0.1724820829367147,154.484356890303
-1.0,-0.630978720125171,139.49595733599
1.0,1.0282264445794662,183.821787651893
-1.0,-0.6669747004419364,144.96448631367
1.0,-0.3280496269707902,149.1069187765
1.0,1.4056972045218545,210.728852153638
1.0,0.7827209706519597,194.488942344429
1.0,1.4427496169529568,203.846582041009
1.0,1.145441836610539,192.124847346168
1.0,-0.18622503575956226,164.649813939991
-1.0,-0.8298777094842863,133.685913555545
1.0,0.5808832669801979,186.96559100615
-1.0,-1.1477716494165098,127.313316973134
1.0,0.7031492038346969,190.587912957767
1.0,1.0054814215523702,196.461413498625
1.0,1.4745981908396202,199.173600442789
-1.0,-0.18435701498110268,139.458587269102
-1.0,-0.16349296516188072,153.040529129156
1.0,1.4270467991548281,193.429989763484
-1.0,-0.9060062573333446,117.366115998373
1.0,1.1474611799565664,220.436786379453
-1.0,-0.33777194130494503,160.800725592022
-1.0,1.1168093679451012,162.281555177633
1.0,0.09957393811264122,179.542017143198
-1.0,-1.2741944271575387,144.433032722408
1.0,2.805380624506825,228.707300850029
-1.0,-0.6933350553892966,142.322039721723
-1.0,-0.8904609933480458,127.248821350561
1.0,-0.27443707573097437,167.327702757749
-1.0,-0.9275285763325761,139.814576207508
-1.0,0.29729723135618585,159.949725788353
1.0,1.119047362713032,185.75988375147
-1.0,0.013820900232292132,143.874330318647
1.0,1.342128526980282,199.973543676069
-1.0,1.5756907144254697,177.969532057211
-1.0,-0.2806488515786566,127.039843168994
-1.0,-1.3929160151060929,118.038053266885
1.0,0.3388978459172917,174.724534344994
1.0,0.35815255129990975,179.554213412234
-1.0,-1.1206580753653406,125.135896881121
-1.0,-0.534487833093983,138.817429362978
1.0,0.6286835310646999,179.937695870664
-1.0,-1.4315386869108906,107.388929941296
1.0,2.3623539038322945,206.503557529833
-1.0,-1.5323065588223468,110.768228534481
-1.0,-1.1375366726710368,131.410731903028
-1.0,-0.18953124445921246,141.232385624238
-1.0,-0.5482994234337982,122.937234881327
-1.0,-1.2074540343185638,107.224707081941
1.0,0.8157333896188343,192.842105715014
1.0,0.2668655702740761,168.520743208648
-1.0,-0.34287425447940023,144.867902167782
-1.0,0.048949946744112426,158.66141058998
1.0,0.7158270825755063,192.373651924227
-1.0,-0.6986501607730412,154.91221131077
-1.0,-0.9420818312331577,135.352914549541
-1.0,-0.35824787256189805,130.433691591282
-1.0,0.012747034862597914,142.940118909056
-1.0,-0.0077721655738284745,155.66874349901
-1.0,-0.25900266472295086,136.471256041241
-1.0,-1.3752421050635244,131.336443521465
1.0,0.08037285618957223,183.197306840047
-1.0,0.4562484784015567,163.344631708686
-1.0,-1.2217692200934946,115.677892392139
1.0,-0.5048600108038707,169.109401417791
1.0,1.1790457088382758,199.362352527213
1.0,-0.7144794878388675,162.674975183263
-1.0,-0.8920120960071247,144.466046183435
1.0,1.5337270473289564,207.585872586577
1.0,0.2956179494193974,171.975039175074
-1.0,-1.193688605025307,128.342568260293
1.0,-0.14090648665826835,156.804215038989
-1.0,-1.3331767189395383,130.527647155786
-1.0,-0.8300762996810418,129.332511810487
1.0,-1.2753102407552346,135.51111565079
-1.0,-1.5876528455515087,100.58527013232
-1.0,0.7101558187186874,174.708561656321
-1.0,-0.6298350588351624,131.428058434086
1.0,1.3566936880876002,184.4579257838
1.0,-0.2794466216851097,168.710290250236
-1.0,-0.8643845983775774,119.937293351742
-1.0,-1.2115308603945745,110.923344274973
1.0,0.9477259677008035,184.374503622629
-1.0,-1.0500198666739007,111.965447665601
-1.0,-1.7096344622023785,128.253923115184
1.0,1.4222525253250815,189.032685065552
-1.0,-0.5581307322457095,131.700238301874
1.0,0.2931939055962891,175.210297477134
1.0,-0.7112268328278614,158.685876851254
-1.0,-0.573947571577465,136.847598058533
1.0,1.1739420005806103,190.554244038064
-1.0,0.06146753081485673,147.679530368386
1.0,2.1214407460391036,225.540078907474
1.0,1.9289517868574022,222.397560523835
-1.0,-0.47113783450165053,134.546663725556
-1.0,-1.7165539371770697,112.741362002212
-1.0,-1.9876200413933431,106.066862474914
-1.0,-1.3668525871794137,118.779106542497
-1.0,-1.5260863418628703,111.831682461495
-1.0,0.5192888912894862,153.742635126006
1.0,1.1732950117036813,190.678519403256
-1.0,0.6145529942649276,164.110188723456
1.0,0.7169799491901084,190.692105263721
-1.0,-0.5357840009528267,132.864068200096
1.0,-0.14589614773973336,165.850647784905
-1.0,-1.539843743104096,135.559390158229
-1.0,-0.16817494717558848,140.024855725633
-1.0,-1.0665626471063985,147.335214770323
1.0,-0.21444591447850114,168.300029263155
-1.0,-1.2020018835240986,111.964092547299
-1.0,-0.18898177630979643,148.498919556826
-1.0,-1.3496520590712495,134.638053445428
-1.0,-0.06317711780149916,162.730381361469
1.0,0.49036144777209517,178.929604083831
-1.0,-2.653291115393147,90.8152556552271
-1.0,-0.8552820594343737,141.023647165523
-1.0,-0.6546606840282424,121.095961361193
1.0,0.7175866785765512,184.142280775944
-1.0,-0.7757987500446757,132.573836916793
1.0,1.2899820168357155,198.423279196709
-1.0,-1.308340484281789,127.655439148815
-1.0,-1.262809832739991,116.065719611182
-1.0,-1.3454154663461046,129.761861954718
1.0,-0.2467228125389724,160.770308692432
1.0,0.43497498143960045,186.057643771908
-1.0,-0.8046714500989406,149.122726526788
-1.0,-0.9793352516594935,125.647206889565
1.0,0.4619303633299602,181.265824807129
1.0,-0.4988314517164188,162.619097273375
1.0,1.3442390002708802,207.307916607988
1.0,0.2639687030789921,180.092295787923
1.0,1.0984659096310327,217.644149327757
-1.0,-1.2107050287767789,120.604339328759
-1.0,-0.8841541667232685,130.024532169872
-1.0,-0.4801060452723761,138.789809264946
-1.0,-2.116311985758521,114.961707275311
-1.0,-1.2608862644692502,132.978016394
1.0,0.13261738183193642,186.880959945505
-1.0,-1.3904612866810442,120.139649263721
1.0,0.6899167416302803,198.622989558571
1.0,0.99523950853941,194.699193524582
1.0,0.8200499006330779,173.976658825753
-1.0,-1.145882621855079,132.692405283877
-1.0,-2.074317618569116,100.876274462991
-1.0,-0.0531871701752422,158.172355213959
-1.0,-1.2765451108529626,117.028716831825
-1.0,-0.3649921082644679,142.206379663482
-1.0,-0.28267972184299484,157.979981506673
-1.0,-1.6403166088478467,112.327629499251
1.0,0.20754535085458617,162.801063885889
1.0,1.3227601799081152,200.592581805722
-1.0,-0.47768245689386984,124.97002296508
-1.0,1.0541242861896347,174.608373602254
-1.0,-0.9719652957157567,121.724752976693
1.0,0.8692711732189948,201.152847636991
-1.0,-0.7196323229013157,124.829550138566
-1.0,-0.36584918042510495,154.739031155818
-1.0,-1.7521099440973875,107.471732438746
-1.0,-1.080269861377972,126.001493693523
1.0,0.6003699201540433,192.196246087213
1.0,0.2782411681938813,173.230659998737
-1.0,-0.27685370343489724,149.462818196512
-1.0,-1.666260695885459,101.503752931644
1.0,0.29232138579844946,183.383824391458
1.0,1.0428963121101544,189.717054272321
1.0,-1.1991544897980022,123.528143020198
-1.0,-0.7652537820994123,129.921671035264
-1.0,-0.06566672894879859,159.372156649349
-1.0,-0.9523311705831297,100.234800710191
1.0,1.3692438872272392,200.755320338255
-1.0,-0.9010742081687755,137.420455826089
-1.0,-0.7304135210281456,148.454148992035
1.0,0.7269501692973916,196.892315040706
1.0,0.6665676718205239,187.626609141929
-1.0,-1.0531463751780652,123.783563825451
-1.0,-0.13953397244265112,132.827888768001
1.0,1.0232024914527433,196.835051662201
-1.0,-0.4660795857551703,142.095281980248
1.0,0.8417943391946116,194.200711875856
-1.0,-1.0426842929177504,124.723533999847
-1.0,-0.5050823736251895,136.976951830596
1.0,1.060815814613266,206.499744183883
1.0,0.20892751236443838,158.368763158193
-1.0,0.5684475047028958,151.786039269199
1.0,0.3969543865967613,178.177298042261
1.0,1.4954738010616537,204.457450295104
-1.0,-0.9781980324562365,114.80629907691
1.0,0.6310400644286805,187.050906024182
-1.0,0.17841817376965,144.347355932324
-1.0,-1.791553462366541,100.883857637275
1.0,0.5777624926229591,176.843079926229
-1.0,-0.5144244773979493,130.926901853671
-1.0,-1.621355632590706,122.92409123725
-1.0,-0.43772850522271156,135.708088300298
1.0,1.1104877338413959,189.809770041737
1.0,1.002649702752194,196.949125709664
1.0,0.8825116963119078,189.828312637646
-1.0,-0.6376173693584023,131.513704638389
-1.0,-0.9332256852884786,121.768006515088
1.0,0.5988312694690664,186.129921985574
1.0,-0.16928852097548996,174.41336406206
1.0,0.41152576312690986,178.702061027292
1.0,0.7300523231983342,196.605301582096
-1.0,-0.5666525175689923,133.350625059257
1.0,1.3642989365920548,208.339311634581
-1.0,-1.2341030602906997,129.670580277501
-1.0,-0.18233718528100834,139.725461563215
1.0,-0.0071271650892888085,179.771695401876
1.0,1.3785372282159873,213.105827076438
-1.0,-0.5098976250715137,125.173247603755
-1.0,-0.3560775692646955,123.868429160287
1.0,0.5385587991639497,190.815684355948
1.0,0.4663916489555992,170.476126933133
-1.0,-1.9871778442686925,110.538417637148
-1.0,-1.0242408812224253,127.616505950701
1.0,-0.553696624951929,135.171792444257
1.0,0.8670056557572409,191.703763489647
1.0,0.19804295945167058,155.520712829209
1.0,0.5054880208021857,169.780839733618
1.0,1.2312493401611055,206.239749589886
-1.0,-0.15255605063220637,156.781257956556
1.0,1.43556613858463,203.895457654318
-1.0,-0.1597859564424565,160.290048457993
1.0,0.701921656036374,183.581658567534
-1.0,-1.280601282658206,126.299913218738
-1.0,-0.6712827924342419,140.410741148516
1.0,1.068467982824216,192.793460165216
1.0,1.167102345103823,199.966387454232
1.0,-0.2866802830171984,167.755869852531
1.0,0.6295212592579429,176.936187302851
1.0,-0.02596679659397944,170.250178653613
-1.0,1.3475935728432444,185.658270832192
1.0,-0.22575743117036515,156.869951668729
1.0,-1.4954361622503771,156.458354816187
1.0,0.07425241991469969,160.147436127873
-1.0,-0.9078828347117018,122.619329637871
1.0,-0.36037251633032535,151.013842658202
1.0,0.20198590589027382,171.207778898624
1.0,0.2816623357299934,177.84598831903
1.0,0.9532526332388207,193.775477318303
1.0,0.8398583876721282,173.922130447017
-1.0,-0.8076230521845184,137.811370151255
1.0,-0.07228644683625196,166.506640877559
-1.0,-1.3207462699655421,132.274304269493
-1.0,-0.7451218683753937,126.860582596528
1.0,-0.9680955632419257,140.042018509502
1.0,-0.19014781016667376,172.539082609337
1.0,0.5096743229171025,177.984728603887
-1.0,-2.218844740301921,83.0268025400783
-1.0,-0.48795414736231124,163.992006546742
1.0,0.5230727649581198,190.500939450456
-1.0,0.5739386865713726,153.319264343621
-1.0,-0.4975832681511703,152.70513275125
-1.0,-0.864020015450287,118.641681002697
1.0,1.6711483056022225,214.474035549004
-1.0,-1.6947087107997203,112.144544158221
1.0,1.3617227110595944,207.250476751691
-1.0,-0.7938329979857919,137.27695974185
-1.0,-1.2939003639349762,139.105836976208
-1.0,-1.0768640984556535,133.875237869795
1.0,1.2876225533065582,192.947873561237
1.0,1.145950160282058,203.241192341915
-1.0,0.02811070977798116,164.865386638469
-1.0,-0.6362697462401785,140.707170793762
-1.0,-2.353456223060755,93.876437404092
1.0,0.28578897965674005,162.475957317792
-1.0,-0.8538568467854692,135.946957015882
1.0,1.2639834774402388,209.032876811002
-1.0,-0.24324922008903532,153.818743323927
1.0,0.37226809520498555,182.193273221945
1.0,0.5779223869941154,178.929042696548
1.0,-0.23746370106691356,175.84448504479
-1.0,-1.2108912852772022,114.854464488973
1.0,0.11273415089493348,182.77501214929
1.0,0.800250136407963,198.827817062209
1.0,1.3608022115493512,208.019660901643
-1.0,0.0865773025144302,173.532518008275
-1.0,0.10162810784650299,166.232332686186
-1.0,0.07720417942030712,153.948513395745
1.0,1.4623588081418366,206.337325448888
-1.0,-1.2312218718881318,141.980447214242
1.0,0.48346569293208513,174.712431932758
-1.0,0.7813937162493091,158.455032787559
-1.0,-2.0615934573268406,113.483900015357
1.0,0.484593573083894,195.261990296064
-1.0,0.1614241384468792,156.256875536016
1.0,0.33604119267582844,173.384719262428
1.0,0.41503531712747965,190.36352333279
1.0,0.4076704518043,182.426648013226
-1.0,-1.2270617640238417,134.475773050625
1.0,1.5821529702330048,200.290004474109
-1.0,-0.9795470553331677,119.146173612437
-1.0,-0.6835607729533865,137.940289517604
-1.0,-0.795253128590517,132.97479067865
-1.0,-1.447570293949116,109.096956288588
-1.0,-0.32013843101285616,153.397484882675
-1.0,-1.0870739501844535,111.099321508592
-1.0,-1.281985396983074,125.978766739902
1.0,-0.8351980988508386,119.242855919903
1.0,2.0894775396687804,220.720177027006
1.0,-0.1349799857550436,158.193446084243
1.0,1.5153160901756715,199.49198859641
1.0,1.3604574952001478,211.031651935789
-1.0,-0.28706762049052714,138.074901360749
-1.0,-1.3452364959146916,103.586385470313
-1.0,-0.5230156751669819,138.311322814244
-1.0,0.1316871862440377,150.597823483562
1.0,0.14263781168473252,175.203934564897
-1.0,-1.3257487400931478,127.880410099806
1.0,-0.4696058244224694,161.889769141679
1.0,-1.0679918702899547,129.291982421435
-1.0,0.13913404463370607,141.31754755188
-1.0,0.018194486810137356,153.068001329042
1.0,0.05837737464843145,196.148449846229
-1.0,-1.4352913631193793,135.956449885158
1.0,1.1424102813332133,196.765261064146
1.0,1.4088509257744986,221.702505691943
1.0,-0.39570193643976836,154.441122475824
1.0,0.7126052596016639,176.045407011543
1.0,0.6884543532463262,198.707762313651
-1.0,0.06030693675198891,130.99105322827
-1.0,0.19385922899742455,165.501254256483
-1.0,-0.9137921580409195,133.456592260286
-1.0,-0.9927500647800741,130.596009236314
1.0,1.9915883581995502,215.293495258098
-1.0,-0.1053644757023629,150.76354805529
1.0,1.731726244631663,209.587800507552
-1.0,-1.6966639787767919,108.101541625255
1.0,0.38862698438551324,170.795052136636
-1.0,-1.7171954414340864,100.362087004136
1.0,2.4231896556931942,223.587548119164
-1.0,-0.5918050342355068,140.530167167976
1.0,0.7212038079583529,175.832446550486
1.0,0.3300742429838483,194.827041178524
-1.0,-0.9005793069118312,137.041794764637
-1.0,-1.075095493922486,136.681238290303
-1.0,-0.07521596810075094,144.585526260348
-1.0,-0.593662782351771,134.313713406345
-1.0,-0.3326498092503687,148.264304715129
1.0,0.08461852282296434,185.370620196101
-1.0,-0.6616247661998143,153.646201172092
-1.0,-1.1513301842339496,121.187253815547
1.0,0.27033128288210395,162.822942442544
-1.0,-0.11026861216332007,149.963954697098
-1.0,-0.6605979298830129,153.846107496592
-1.0,-1.4080473363272554,117.422588668035
1.0,0.9738645463261406,203.241731802719
1.0,1.2840814513374148,202.485157247497
-1.0,-2.071118043614575,114.914523775531
-1.0,-0.5508270962474044,139.252338622666
1.0,1.4310403118226007,211.322776441833
1.0,0.6847870059737887,188.330895833239
1.0,0.3954120152346024,169.25023085715
1.0,-0.6708948704259664,169.0727355229
1.0,2.140990246524015,249.946283195065
-1.0,0.04442921491346331,164.161857019799
1.0,0.38586987055085703,194.744522494038
1.0,0.7188147408657918,192.172136792121
1.0,1.649435201804345,207.459681732912
-1.0,-0.7141298543571394,134.723769198402
-1.0,-0.5535825134196858,147.205490109169
1.0,1.5229169945123076,203.39016932949
-1.0,-2.3190999661987792,89.4208948928405
-1.0,-0.8493964401805403,127.897077555075
1.0,0.5612970759260316,170.888430806093
1.0,-0.6619492708726089,155.187428152435
-1.0,-0.6038769956558139,149.825871046328
1.0,0.6037459826540621,200.307314478977
1.0,-1.026457295300803,162.541691417064
1.0,0.7992183777909599,180.137520344932
-1.0,-0.36223523333729557,146.576103423851
-1.0,-0.43667208620136,119.02465236004
-1.0,-0.9182457512035662,137.927244252758
1.0,0.8853818274291021,197.628079004138
-1.0,-0.5670177359727698,152.265119509105
1.0,-0.6211714854836116,142.343711561615
-1.0,-0.5841569701412148,142.708667935028
-1.0,-1.5731703225986224,111.974874107803
1.0,-0.17233243168192788,173.058822994667
-1.0,-0.1978536363301868,156.043087297473
-1.0,-1.2345662053978392,125.025052179427
-1.0,-0.43904440003996026,123.010507026547
-1.0,-1.4649142902223315,113.230495815602
-1.0,-0.4100778428794958,124.172527335362
-1.0,-1.4567912450153147,125.018560559388
-1.0,-1.0616941382823533,113.471263954069
1.0,1.7611605027377986,205.721863940232
1.0,0.4747806344178913,181.028404236627
1.0,0.35085779525298216,184.931804199742
-1.0,-0.055977058602043536,150.895695016028
-1.0,-0.7836233712662074,141.906509849061
1.0,0.21141354078820213,169.829453896223
1.0,0.18290657943233846,177.335254638963
-1.0,-0.9026924602911969,120.616740290476
-1.0,-0.3217893130426982,132.063776409835
-1.0,-1.0342570179500525,129.623800133339
-1.0,-0.4172789997327292,142.264983122025
1.0,0.15042650847334635,174.166587147448
1.0,0.31480993279782066,167.581356732465
-1.0,-0.4057025511771823,138.485217717169
-1.0,-0.8543105115072291,128.478442313831
-1.0,-0.04017842018295574,154.959790352475
1.0,0.1701397468113195,191.87457312788
1.0,1.0376351521044191,196.138027509672
1.0,0.7923820193607941,194.334751311389
-1.0,0.7057350621028498,163.632026476272
1.0,-0.6753880999354309,165.701730944036
-1.0,0.43127430425179913,161.905682619433
-1.0,-0.46700836140096713,137.513365883167
1.0,-0.22620778417636284,175.427247822009
1.0,0.547658341233711,183.375133902353
-1.0,-0.3577825176764649,150.406938749192
1.0,0.4227432140188014,187.695368895699
1.0,-0.11181966957773765,160.49028922002
-1.0,-0.9264401605261656,126.010565667123
-1.0,-0.6420115414777685,126.614512830558
1.0,-1.2362942916345938,136.668509038573
1.0,0.7634398163000059,187.551649491386
1.0,0.5143550967521052,178.675992067492
1.0,1.8543429406499703,225.972218321773
-1.0,-0.3945672645679543,144.550070680981
-1.0,-1.7027429411551531,107.579970919541
1.0,0.03430689556712273,163.309528309674
-1.0,-0.028409718152857883,160.530052507513
1.0,2.2463297089901406,221.454089079376
1.0,0.6824032249746156,166.795209231282
-1.0,-1.155189500681027,130.906703662912
1.0,0.6731616413581574,182.192512817545
-1.0,-1.2708597047088364,116.277148004896
1.0,1.3532007895598424,215.297447449297
1.0,0.7732121283062694,197.217939751914
1.0,0.24115151533004847,189.80976136385
1.0,1.060534401907826,199.38345288984
-1.0,-0.6210552522891166,135.218469598501
1.0,0.7120140806010311,188.245103226897
1.0,1.1600029777060241,204.697661970683
1.0,0.681801839553631,195.42111622529
-1.0,0.04455155643070349,164.092435507996
-1.0,0.11595577737539964,168.597929485838
1.0,0.5270151569349759,169.634399045072
-1.0,-0.9772014975112151,125.891895990819
1.0,0.4639508258609215,193.159348804157
1.0,0.31439787681562203,181.432713008126
-1.0,-0.612810353680073,127.95517511191
-1.0,0.8945222355722843,162.650675686815
1.0,1.044973839583446,176.06487019897
-1.0,-1.577418481350757,119.483353771461
-1.0,-1.7414408615764738,114.386865401454
1.0,0.5318567243141553,194.385230284124
1.0,1.4146727441977536,203.271066643973
-1.0,-0.6755430994073686,139.851059473957
1.0,-1.270944592371262,161.028752141872
1.0,0.7698946288009193,180.358843274719
-1.0,-0.5316033333558385,153.024271753804
1.0,2.198244740047251,220.336366886695
-1.0,-0.9226592249947199,122.412693365632
-1.0,-0.7539131091557202,132.368543794971
-1.0,-0.7396994095002828,136.775805341435
-1.0,-0.5449973233493479,134.13881613433
1.0,1.5550868250783145,203.042213035135
-1.0,-0.21637637831121032,146.135542370311
-1.0,-0.09150259625372209,143.548112405955
1.0,0.5913359262503556,178.816794561407
1.0,0.9266543586815409,185.429022314038
-1.0,0.7483630588829973,168.218019463714
-1.0,-0.28490752304367417,133.573311047081
-1.0,-0.7123375916893667,145.461391934053
1.0,0.9503957790654027,197.255376590188
1.0,1.9236951662676869,216.968238466275
1.0,0.8350320015431048,196.135525888408
1.0,0.5038223772155582,185.279622912512
-1.0,-0.9286370067906083,123.517806382056
1.0,0.8782625790929676,195.526568621515
1.0,0.8948352315660622,199.681981039903
1.0,1.387378983139437,202.609008338003
-1.0,-1.0512398565734153,127.130913031099
-1.0,-1.8076021663222546,103.386161328921
1.0,1.740355935039372,216.040061430521
-1.0,-0.034430375718647044,145.217177513931
1.0,0.2925275858363433,171.606063299967
-1.0,-0.975292715291588,117.439002024287
-1.0,-0.813299190596944,109.197849767591
1.0,0.2417044548076001,166.807838725463
-1.0,-2.191356825590306,97.7082846904373
1.0,1.6052010296553156,210.336424661861
1.0,1.1800833720110686,197.216551955857
1.0,0.5257011923187305,179.352181643448
-1.0,-0.5745428626501308,130.624199724108
-1.0,-1.6130358726090397,130.820809922092
1.0,0.8963448852690078,203.223323290572
1.0,-0.07205057223550873,170.006445104546
-1.0,-0.9588100050905561,136.495860337319
1.0,-0.14518316687986352,170.704844471673
-1.0,-2.0196662855653886,104.797463356533
1.0,1.063693325716147,199.183533286829
1.0,-0.15427500601629449,156.968073866854
-1.0,-0.8083301485485112,137.08782891767
-1.0,-1.2466942253788746,126.012519837462
1.0,0.9495530981957654,208.609783230505
-1.0,-1.4783831471417597,114.83103002005
1.0,0.25707093174530155,181.372970577429
-1.0,-1.1121795613651442,112.748109757602
-1.0,-0.8025617723028879,118.851399024487
-1.0,0.4189339845814229,160.270525741063
-1.0,0.2702373238926943,161.458052671168
1.0,-0.3454485972346905,164.33013320538
-1.0,-1.3543345561211888,126.508145542036
-1.0,0.9437017615101877,178.743255729628
-1.0,-0.5872304127263064,149.256016020111
1.0,0.12878522730665884,189.409124116844
1.0,1.2176189116167437,191.980253087584
-1.0,0.73911990408882,147.049381685417
1.0,-0.26625087042680456,155.729380273101
1.0,1.4787077656488665,220.13451713839
1.0,1.1958934606255058,204.410163253705
-1.0,-0.956410348493531,116.271542013176
1.0,1.5764306042154674,204.564479012419
1.0,0.2931120813106754,165.250263812122
-1.0,-1.85700334710604,131.159089656364
1.0,1.1372864478773463,201.129382197899
1.0,1.4984962329639022,184.147188834447
1.0,0.525264082736789,180.737760655285
1.0,-0.18196601427130976,161.422210929555
-1.0,-0.3273537363555615,157.584439027933
-1.0,-0.857569252416085,93.424239299503
-1.0,-0.7460991526956691,134.915438582361
1.0,0.0528190989977996,189.843709342592
-1.0,-0.5522638070036734,138.406496385409
1.0,0.043352709620564076,176.189278477426
1.0,0.5541187680629698,184.660637079457
-1.0,-2.2793773728938405,98.1827929074567
-1.0,-1.7348481795450865,110.370347859948
1.0,-0.6553915755238272,161.697693477066
-1.0,-1.0801545794124972,114.850762301452
1.0,0.7718114746830629,180.23951648144
1.0,0.3991802898483139,192.651604750575
-1.0,-0.8663968106804185,131.970135026466
1.0,0.6189600045647226,169.827477419625
1.0,0.07629782683221564,184.470442822833
-1.0,-0.5421478301766889,136.747878853207
1.0,0.6117631584687325,190.120244516944
1.0,0.5825325622221634,201.78198290154
-1.0,0.016489524230798656,125.347847996218
1.0,0.798443473917235,197.73142161472
1.0,0.991852645826357,201.071918099568
1.0,-0.20098531657668026,171.224026973693
-1.0,-0.225665989156196,152.927061091038
-1.0,-1.115779136115408,119.659324498929
1.0,1.2258613571835164,207.585582084626
-1.0,0.11082144864547035,127.096778305724
1.0,1.8837482148807838,207.679028491486
1.0,-0.6541881268609004,151.996661485131
-1.0,-1.3452522258559805,142.327635336926
1.0,1.049716517992841,200.842246885076
-1.0,-0.10467836026435827,151.631440216846
1.0,1.5938354393564211,198.939997056035
-1.0,-1.1790288661123243,144.912759286863
-1.0,-1.3733485386877349,118.743804741526
1.0,1.5334908782631897,211.464487907527
-1.0,0.08429736497154572,151.81290662973
1.0,1.6404404792014806,216.68631525849
1.0,1.2542190288103616,206.196180056506
1.0,2.0745403679978427,206.017285254686
1.0,0.3715593222932894,171.241016685433
-1.0,-0.8736122364830797,131.387132977255
1.0,1.1563354908926888,197.198401561075
1.0,0.0685778471037721,164.059156735141
1.0,0.407895012011723,188.884096818794
1.0,-0.002449149772312309,173.355927890825
1.0,0.9154383878495354,203.518326493008
-1.0,-0.5331563297605654,135.154220744067
-1.0,0.011851365927372345,167.723491996096
-1.0,-1.0518029774442115,138.804577452673
1.0,2.0020728561860297,218.423584474029
-1.0,-1.3081908910160422,114.718563573216
1.0,1.3046587263190916,198.822647415191
-1.0,-0.1630496719980258,165.156370747027
-1.0,-1.3227882178448835,132.53422880038
-1.0,-1.0284020900541868,127.015226079973
1.0,-0.521769955581472,175.085125541678
-1.0,-0.9761795365317303,134.765898952825
-1.0,-0.1804745424221526,138.473527651664
-1.0,-1.5375974386727085,122.155184874694
1.0,-1.1957107695858904,146.396972718713
-1.0,-1.2194149350999683,124.072143415762
1.0,1.210963643356262,186.229238409764
-1.0,-0.6114609801549553,146.869676692181
1.0,0.4216040439678898,181.782545607851
-1.0,-0.6401552087595269,146.692290435674
-1.0,-0.18842597678483794,155.911023326178
-1.0,-0.9675573615157242,117.460636379714
-1.0,0.8891277402868298,167.437658866369
-1.0,0.05696829416778697,143.998415428368
-1.0,-0.7290498851891005,131.795860588235
-1.0,0.09793887041890824,168.866877191217
-1.0,-0.46252301978929933,129.393176124176
-1.0,-0.7013806430332953,141.914930746632
-1.0,-0.647066853115097,125.173586465678
1.0,0.3564554290174258,178.170555578466
-1.0,-0.9854818029597742,111.379473827934
1.0,0.8947339280730013,204.426598301005
1.0,0.531378915353843,179.427933239853
1.0,1.2120224259752603,217.490957724472
1.0,2.5734972917240726,247.38674101635
1.0,-0.7482778467948124,156.732431299329
1.0,0.22946360023006257,166.59456991916
-1.0,-0.8027974503982724,134.827593587405
-1.0,-0.3530496610556934,145.823201893364
1.0,-0.04771588987119701,171.561906872241
1.0,-0.4586946504830646,149.937712593204
-1.0,-0.38926090761758514,144.226986590606
-1.0,-0.2909007236566158,137.164305171993
1.0,0.231754712848221,181.673354241019
-1.0,-0.6517589389677549,147.642319968037
-1.0,-0.228440795872477,135.013164040623
-1.0,-1.3005122721664184,115.175752886687
1.0,0.09370481722152009,155.899541329016
-1.0,-0.9442171708047038,147.370478239625
-1.0,-1.3838445768718997,113.182538192302
1.0,0.5992413133254398,182.163561701064
-1.0,-0.8730286922163241,127.541750007152
1.0,0.3533345565379484,164.933108061125
1.0,0.5067624141648697,179.370856017665
-1.0,-0.5866555524787965,146.75626290364
-1.0,-0.938727795286198,122.515319572172
1.0,1.0888688683495122,184.379448771756
1.0,1.3589332367487181,196.672556535149
1.0,1.9872054913935882,227.940503751013
1.0,0.48453747756894294,167.930407891267
1.0,1.0282267422942142,186.065532235059
-1.0,0.6931246858689882,163.852461346571
1.0,0.11258678596001041,174.988190526957
-1.0,-1.7168772661324567,95.5003308531445
1.0,1.0915772417782388,205.281296152093
1.0,2.765751938782705,251.425050545674
1.0,-0.7715730507119022,141.056988933775
-1.0,-3.05424395482291,71.393748738973
1.0,0.7692004507782033,212.289297441882
-1.0,0.30887316325734127,154.436977189173
1.0,-0.49463046305467534,157.310480696028
1.0,1.9047278638009688,218.415504458001
1.0,0.8332259671801938,191.547176722161
1.0,1.4941997781494065,203.053787131399
-1.0,-0.8148860909233512,131.906070938145
-1.0,-1.054467747353134,131.363274836162
1.0,0.09440163893607319,174.156893015953
-1.0,-1.949611081954696,100.848899977152
1.0,0.6720292584644836,180.482258816931
-1.0,-1.2650502971327833,126.088338208402
1.0,0.9642400840397152,216.624207248647
1.0,1.3221751104479036,213.33659253863
1.0,-0.3880911793248796,164.092780848501
-1.0,-1.4095034461327756,113.537588687773
-1.0,0.2991262906228492,151.764313582989
1.0,1.6950198368028908,220.908141910003
1.0,1.197953940136377,199.809881461528
-1.0,0.8430391084525845,170.025642721664
-1.0,-2.916044544035811,88.812412112758
1.0,0.5425427408960445,185.377673195131
-1.0,-0.39764394734198344,121.094631098394
-1.0,-1.314793316094942,115.788850140333
-1.0,-0.3825350439152731,158.21286082543
-1.0,-1.0361750028437366,117.819984140482
1.0,2.1384087918626578,227.116581954833
-1.0,-0.05605616701014686,145.176662951848
1.0,1.360596371979941,209.018700094943
1.0,0.8306019203336714,168.666735857766
-1.0,-1.140524416022731,116.954744870911
-1.0,-0.9690744334928041,123.991476879123
1.0,2.38762434371823,218.887283327876
-1.0,-0.4515748344545173,155.220813662508
-1.0,-1.2219169285005254,120.606159272429
1.0,1.642943269045711,194.241737568849
-1.0,-0.00732315695967239,160.985106021963
-1.0,0.38378335135765157,171.736596128538
-1.0,-0.5916685405757011,130.972209739261
-1.0,-1.1900484578407742,123.140730916332
1.0,-0.851828436998676,140.517044492207
-1.0,-0.8081459482720151,124.217167528261
1.0,0.9476182587240071,209.526499837126
-1.0,-0.45436261100443476,149.673123060416
-1.0,-0.4077103472288689,152.828705503825
-1.0,-1.3702392238198384,115.2247962515
1.0,1.2342611079020016,202.655919318012
-1.0,-1.1099565505925284,124.410835543093
1.0,-0.1994578525198815,146.334379431727
1.0,0.9537912672848432,175.978079815872
1.0,0.4647129443024844,179.253570060408
-1.0,-0.5298827883780163,140.181267726941
1.0,0.7824837002711588,212.01702558793
1.0,0.8204484276338893,184.109730174762
-1.0,0.7898799829563234,156.876698931138
-1.0,-0.4691383235242737,137.440086539848
-1.0,0.19481836554842935,154.172579921507
1.0,0.7868905173058084,204.586729668011
-1.0,-0.44621579461382826,135.033626423437
-1.0,-1.3455343767759365,132.977178906
-1.0,-0.9962099046333115,125.585201195041
-1.0,-1.3540737942351424,123.345800524612
-1.0,-0.5038650630019587,130.692337702579
1.0,0.8075775594422341,177.343917682018
-1.0,-0.1589701651751304,137.471104119053
1.0,-0.18194546083715168,174.566855841687
1.0,1.3513137229412586,198.02678513253
1.0,0.04749479532027141,179.097248801662
-1.0,0.22097360934261082,153.989572015241
1.0,0.6871250820872667,191.026743469822
1.0,1.1289315264940616,202.067981453202
-1.0,-1.1830035332630153,116.247391952186
-1.0,-0.5748992374188816,126.87533607939
-1.0,-1.4815585416983075,123.624924360335
1.0,-0.3454410518749234,170.632537515233
1.0,0.29889777276381085,157.918618761967
1.0,2.683260228282754,233.1586923868
1.0,0.7178870137233696,206.838905290186
1.0,1.199456915317706,183.743104831437
-1.0,-1.0033161724404298,126.114933801602
-1.0,-0.5989190163606399,116.471442701904
1.0,0.3536103236497133,169.458093984868
-1.0,0.3162305641009566,156.732270778401
1.0,1.0162954672437903,198.728522620424
-1.0,-1.3415143642756033,127.186299549784
-1.0,-0.4272263134827087,138.085796102834
1.0,1.8700501071415672,208.361491812853
1.0,1.4557037563369901,207.853053017636
-1.0,-1.1284407415045434,118.614219203688
1.0,0.7926993578812263,195.306359940358
-1.0,-1.221363055374717,111.619612391082
-1.0,-1.904268888916985,108.094033944991
-1.0,-1.4068113252996997,95.6866743332824
-1.0,-1.0322345745058294,108.399305946656
-1.0,-2.0788702793626124,113.89910978727
1.0,-0.06431084998875175,172.508657352486
-1.0,0.1287070680004384,156.684621332745
1.0,0.6726148507001801,193.828444651234
1.0,0.499066733018333,178.432597736547
1.0,0.11831654258008825,166.171185085083
-1.0,-0.12785853689709722,141.018132108356
-1.0,-1.2406270578381526,117.324787271048
-1.0,-0.19938739483023632,151.462245088581
1.0,-0.18888781746155214,154.503178418822
-1.0,-1.6618871263557995,111.224290083868
-1.0,-0.6693800598281342,129.341080849315
1.0,1.9611879853234515,227.257086652111
-1.0,0.602521676413258,165.924318727404
1.0,0.13280775692690688,175.366252001374
-1.0,-1.2884162912588997,139.899818308485
-1.0,0.6680195053565123,155.689830924
-1.0,-0.027490458918464068,156.890753383091
1.0,1.3884277786220638,205.648449202477
1.0,-0.27776224318713494,162.818275468988
1.0,1.1396073975900756,197.838902123071
-1.0,-1.0154422190647023,126.679585492026
1.0,0.7700879167257947,194.827390618945
1.0,1.0955764862783988,206.425748253995
-1.0,-0.8005659674950699,121.250406002931
-1.0,-0.993841640130991,142.486033516691
-1.0,-1.368051810776008,133.184099825599
-1.0,-0.9638399264849713,124.257211247832
-1.0,-0.9448466663406668,106.884047248122
1.0,1.8269742100222646,220.945760743646
-1.0,0.26362142648044673,144.306712391127
1.0,0.09515007919419477,171.524041744032
1.0,0.9574664612585904,207.194647294605
-1.0,-0.36841508631702097,142.312608027031
-1.0,-0.9154456356519575,150.258936716086
-1.0,-0.6508914510070642,128.285494343499
-1.0,-0.01910434025048259,153.138692653924
-1.0,-0.610455223748565,133.107341819717
-1.0,-0.7441162113293198,123.504327795153
-1.0,-0.6535617475056171,137.148691939272
1.0,-0.40651963835763655,185.259530616791
1.0,0.2078411209312906,158.46989586734
1.0,1.5191648782937581,188.935909316701
-1.0,-1.9253633845226474,95.7523175393934
-1.0,0.6025840843957853,157.925011878086
-1.0,-0.39341072768388236,158.445602978367
-1.0,-1.1668861764688216,101.525235742981
1.0,-0.10253712751674629,187.658379142995
1.0,0.4888794037613069,183.454229197182
1.0,0.7835182135307308,198.850085211327
-1.0,-0.2545280677014847,147.948674348008
-1.0,0.1599381453809711,140.016621121927
1.0,0.5535453356636555,192.339740712785
1.0,1.8712914574738222,219.403772607113
-1.0,-2.1948696362031788,100.540042842024
1.0,1.0585512128274317,214.17251207073
1.0,0.4493135268704305,167.747141247633
-1.0,-0.46938481802600185,142.841771124436
-1.0,-1.1761280524435165,136.879987980075
1.0,2.014464795530627,217.354137242609
-1.0,-0.27101615107202937,145.521060613319
1.0,0.924081138718303,197.26637924836
-1.0,-1.1012795093349756,125.283478076033
-1.0,0.1709062595611636,150.219175933031
-1.0,-0.6264726971635006,127.444970022639
1.0,0.545355099035381,188.079276046176
-1.0,-1.3656364007365482,114.43343603566
-1.0,-0.6413386725786013,142.84784996442
-1.0,-0.30886230396817593,149.947046307033
-1.0,-1.741389732607491,126.355255679648
-1.0,-0.7147139644594102,122.59035594592
-1.0,-0.03563567869338221,152.312632220637
1.0,0.19367169741485968,173.707504236685
1.0,0.2935681887861327,178.786913695361
-1.0,0.4914250330214744,165.845779437455
-1.0,-0.6563702673679487,129.38208285781
-1.0,-0.6242287450809385,130.611869495422
1.0,0.024922410811431553,169.965151554604
-1.0,-0.9485741472788515,116.056341644654
1.0,1.0928191124301496,174.196887301378
-1.0,-0.7319757848565918,129.162024848008
-1.0,-1.3681994076231347,111.574376941137
-1.0,0.3667869538901607,166.448484806429
-1.0,-1.2655304113696582,122.049480193377
1.0,0.20980925889750465,174.356697449342
-1.0,-1.7057172596799035,102.147229843053
-1.0,-1.062601386807459,111.441580151341
-1.0,-0.3860915770439806,140.066733090784
-1.0,-1.887894538049093,103.418916656386
1.0,0.8365260274368447,176.165703946487
-1.0,-0.29770678030518694,154.340405321502
1.0,0.6283624982306266,183.927888604031
1.0,0.7985527969217944,169.496510888749
-1.0,-0.02975402595472609,153.853087444795
1.0,1.0100083490631213,189.271868577753
-1.0,-0.5839092711298172,146.801099540977
1.0,0.40028304589585156,173.898085386098
-1.0,-0.5742214300781865,138.794824975025
1.0,0.4031584442258045,183.543801407909
1.0,-0.32058394242325344,138.654827915664
-1.0,-1.4169191415650864,120.943247945087
-1.0,-0.15051100016247743,156.867498656085
1.0,0.8742293123583672,197.639549584084
1.0,-0.15384709931447726,170.219947470445
-1.0,-0.5888611950724865,141.745050046555
1.0,1.3290155554635832,202.671539299672
-1.0,-0.9969421485740545,106.019633371106
1.0,0.4937295779966197,190.469466185276
1.0,0.6478516267493205,177.131052159944
-1.0,-1.4809399787014172,110.705427344881
1.0,-0.8283783397326704,144.773327446812
1.0,0.5683251186843192,172.215745405675
-1.0,-0.2432553100326433,139.71750100919
-1.0,-0.10671651162665757,143.253878067555
-1.0,-1.1373195283445323,112.734337675452
1.0,0.743802869347987,177.592699608627
1.0,0.21537705848906544,176.950744485422
1.0,1.067747683047073,197.894757432703
-1.0,-2.4810207796372605,101.979923512805
-1.0,-0.7132170719865002,137.904633308725
-1.0,-0.7263252453590948,128.558496285949
1.0,-0.15638921632818975,161.085465285848
-1.0,-1.1091997020149384,109.349031666849
-1.0,-2.4905872619941483,83.9930774713752
-1.0,-0.3214747533118016,130.16004551705
1.0,0.3008132039167606,177.020905756561
-1.0,-0.5459325428746699,140.303090980389
1.0,1.2442784636153164,190.860975190272
1.0,1.1169131175424125,201.802788619146
-1.0,-1.0611098228708629,132.091499136112
1.0,1.3639618038976369,209.670773879197
1.0,0.914331789387664,185.729441009546
-1.0,-0.1851753895082414,143.533127451717
-1.0,-0.18978647989730935,162.605728749611
-1.0,0.13259847362004087,153.720384307704
1.0,-0.689466323219846,139.411145312383
-1.0,-2.015913119812128,103.309512821492
1.0,0.35366295989755137,184.468450401731
1.0,-0.8035848109777385,164.553854886961
1.0,-0.4018510451148602,166.12961409456
1.0,-0.2964292142206197,167.115458785238
1.0,1.70795837176988,216.097454719831
1.0,0.4387037103517404,176.249659285991
-1.0,-0.3519945993953434,134.529192257257
-1.0,-0.1122946139843337,135.926725243504
-1.0,-0.7600139998532381,130.308631238596
-1.0,-0.04780585943788505,147.363223370786
-1.0,-0.8181598070015966,142.973406430632
1.0,0.26662250992920294,173.127460636371
1.0,1.10105296961495,188.423812318267
1.0,0.9189869207183823,221.897619021438
1.0,0.9022080625208848,178.392482558206
1.0,0.8706227989727691,201.471330687198
1.0,0.9276257161386416,177.381766370311
1.0,0.45671391761727015,186.907661618339
1.0,1.2692066802414366,209.482124657112
-1.0,-2.5558970187153536,97.7438964834685
1.0,0.11740357328115827,178.169090523627
-1.0,-1.1308055628318476,146.227379064224
-1.0,-0.7452186186221362,137.198700301645
-1.0,-0.16365218048044708,144.08991688811
-1.0,-0.8663327698411534,125.467016142592
1.0,0.048456032759957815,171.4674808307
-1.0,-1.0630339148653025,144.235252906176
1.0,0.4792218488008793,190.584200470746
1.0,1.0103841949953183,213.903062821077
-1.0,-1.1092625655088129,133.714224546198
-1.0,-0.36816306631069795,152.999492313979
1.0,0.541549922519883,166.832798718981
-1.0,0.04432093014007911,143.664713932853
1.0,1.0696029407044452,197.287686243769
1.0,0.10249277559277903,178.797508975099
-1.0,-1.0881719171563433,133.884059347308
1.0,0.6726006013399416,207.744486041115
-1.0,-0.28985114178563826,143.888330008059
1.0,1.123214575145224,186.792362671577
1.0,0.5484046412043591,187.205394744676
-1.0,0.5031204542231539,167.999553483597
1.0,1.3330212982474907,192.887289170862
-1.0,-1.0028618642641693,132.122065997657
1.0,1.7834565862150284,210.545969530572
-1.0,0.07959376586582326,148.429127913253
1.0,0.024912574716311645,166.015738476118
1.0,1.28235834011376,224.357532518425
-1.0,-1.3171972603470403,122.740595290885
-1.0,-0.19097926301023632,138.333397755781
-1.0,-0.09652433289626429,150.559976581192
1.0,0.6741435520336577,191.354179730734
1.0,0.470129675273459,190.132725436454
-1.0,-0.5784782586587828,144.071684423605
-1.0,0.9494084236942185,167.312358529085
1.0,1.4129540942880225,196.206256661538
1.0,1.2868318940300054,211.983344399568
-1.0,-0.23872452196710728,140.60862619826
1.0,1.3101514384320272,208.059373566721
-1.0,-0.09423694221815947,146.668808011168
1.0,0.7443875768517721,173.829606022707
1.0,0.6592567734792351,175.44506336193
-1.0,-0.6892015559872064,144.256790545024
-1.0,-0.9273099407401446,131.110798848857
1.0,1.1943479019906151,195.017206431056
-1.0,-1.129715878013963,136.013538730059
-1.0,-0.660838213672492,128.906812971035
1.0,0.7974518385316429,178.366554827108
1.0,-0.17075709886291437,170.900676935445
1.0,0.510376652798925,197.756770319413
1.0,-0.011074202966763117,166.615538494989
-1.0,-0.8215371738544827,140.45794140883
-1.0,-1.4008527078441466,125.10433577766
1.0,1.2442418336614371,194.38301107735
-1.0,-1.3554682634010482,115.244888470274
1.0,-0.4892137288457961,159.378629571107
-1.0,-1.4210970769684694,117.169559135498
1.0,0.4328576190074546,182.741959980889
1.0,-0.8856904243738621,154.434508300897
1.0,-0.2389418440045647,157.103232403777
-1.0,-0.11066659880205987,142.839645892174
1.0,0.18714044676154432,176.417238785546
-1.0,-0.6624689524545775,126.738999890683
1.0,0.4333313948487075,170.648409333435
-1.0,-1.357099033235947,105.382922391203
1.0,-0.21987339236776032,159.936436035272
1.0,1.6717189985879477,218.216396639014
1.0,1.1576509149537795,194.327152035254
1.0,0.7407915889648438,197.35599514765
-1.0,-0.8794734967292132,129.158382941188
1.0,-0.39540567498447415,157.718438434822
1.0,0.6379532999717407,197.616787760036
-1.0,-0.2811145214371698,143.373077174593
-1.0,-0.1668655079266821,130.568402624542
-1.0,1.1253458274514092,194.048809246781
-1.0,-0.819391692220729,139.356920191524
-1.0,-0.23029925589814498,147.739952846827
1.0,0.25535799655307384,189.58386209989
1.0,0.16930934863944883,175.92944039571
-1.0,-1.0711973270461717,122.034176101357
1.0,-0.7202657948134873,144.591922421247
1.0,-0.06466726015168389,184.130541739592
-1.0,-1.180741306129232,102.692776744418
1.0,0.9521400366288406,205.847783596065
-1.0,0.42002404582382563,153.438111730142
-1.0,-0.6201161084899028,147.812868567064
1.0,-1.3715497194709605,147.266463481623
1.0,0.886100715585278,203.455105272185
-1.0,-1.2565996111702067,115.202312834372
1.0,0.8206677091750945,170.03718625117
1.0,1.0272739662273374,190.04787966606
-1.0,-0.11955781693883073,146.414638084339
-1.0,-1.8513886189888402,104.918825532773
1.0,0.7837859376127257,200.566659110968
1.0,0.7108906370063223,192.433733864839
-1.0,-0.5468210322530092,132.283150711151
1.0,1.4137967253144912,211.36082658207
-1.0,-0.07870827116119342,146.970506537691
-1.0,-0.8731997549394531,139.39337297568
1.0,-0.9604237941558734,166.102425028272
1.0,-1.030850049650685,144.54505701457
-1.0,-1.7943068042548724,111.710518227827
1.0,1.7779748183715942,221.779278560574
1.0,1.1935349402148756,212.230144740824
1.0,0.5548795880226889,192.578382265299
-1.0,0.7282423905715015,172.795295100148
1.0,0.33953335840874155,185.099404217225
-1.0,-0.7056951334203251,132.688211174968
-1.0,-1.0856572950503416,119.767149930255
1.0,0.4518839623274465,187.420090888079
1.0,0.8766580794602158,181.152034984095
1.0,-0.4244847622608722,166.501114745286
1.0,0.9176548542933975,195.758935463703
-1.0,0.19293370033417573,161.548252255358
-1.0,-0.5814981604743019,121.2925967531
1.0,-0.01572236382650454,162.506036879899
-1.0,-0.3218769591036407,156.90163744997
1.0,-0.4060620061905254,147.363350276346
-1.0,-1.1775585072406938,136.77382596206
1.0,1.6915301888657597,190.34192075012
-1.0,-1.3394232410749998,112.915208906285
1.0,0.8368701216781618,194.49835579945
1.0,0.615899143928435,190.149003712083
1.0,-0.3454796938630059,154.104776734366
-1.0,-0.19001984788221948,157.919315776876
1.0,0.516070607294048,189.710209942456
1.0,0.09626600606648532,193.726278474487
1.0,0.7412943509759448,218.314451313483
-1.0,-0.3456244429819538,138.463631551886
-1.0,-0.9878512381735957,142.376162711184
1.0,0.23290015457367186,193.217672687431
-1.0,-1.4271290790716877,130.068216083634
1.0,0.43460116111864056,174.369476434232
1.0,1.1160670461350672,203.844791576438
-1.0,-0.773483539166789,144.534727038643
-1.0,0.30416858565115507,183.740260305341
-1.0,-2.3807678681391975,99.494823757459
1.0,0.487844618858505,174.10969379062
-1.0,-0.17550752108124917,174.794468987562
-1.0,-0.6348984348003531,132.960485399147
1.0,0.28908778971150334,184.209501103775
1.0,-0.4766472887115763,153.583453266102
1.0,1.8189966607099877,206.033858632294
1.0,0.9163426939321654,194.532819194395
1.0,0.18213754028067972,187.573493767063
-1.0,-1.3412983553690108,104.514575966614
1.0,0.45000333382076174,173.896236897721
-1.0,-0.30967512298330485,144.534167850387
-1.0,-1.5460705619100756,101.540179741294
-1.0,0.299473054741841,163.490831665133
1.0,0.6227436604259791,177.083388175076
1.0,0.8595060105363854,192.091677730476
-1.0,-2.1399389090400986,89.3572282346796
1.0,0.38496912643181125,176.172634254583
1.0,0.2145930705019528,179.722743052527
1.0,0.5059679489285042,174.243488335751
1.0,0.4236428393496557,185.123523721441
1.0,0.564115596482528,191.822914272445
-1.0,-0.4752808351711555,141.106887854606
1.0,0.6470585017794281,176.642421881176
-1.0,-1.1197047776671467,122.197037105345
1.0,0.5368474984891471,196.103082819615
1.0,0.1457390048267888,164.230196785402
-1.0,-1.2624398806045767,117.840302473304
-1.0,-1.1321339508490025,122.70938436317
1.0,0.956342586297499,183.619620777862
-1.0,-0.23303661772230638,155.580439909483
-1.0,-1.4195695906871777,129.00507236405
1.0,-0.4230835003799908,169.654054121188
1.0,0.7509515413463802,173.279165164433
1.0,1.195370249140321,193.906498798923
-1.0,0.014065104113315829,142.122820700552
-1.0,-0.6408066285775149,150.187598464574
1.0,2.5036539422268675,224.440459195823
1.0,0.6257386675910215,191.476409599666
-1.0,-1.1376911287418146,110.925974999292
1.0,0.451856148765324,186.582536426182
1.0,0.4169537951200091,166.311929952205
-1.0,-1.0573774759614794,136.446336063409
-1.0,-0.26087966981602084,133.071191353919
1.0,-1.1637144660069472,140.804101695825
1.0,0.26120199958876705,187.194155275239
-1.0,-0.9885317209891149,123.55417584971
1.0,-0.08057734962158547,167.982022512595
-1.0,-0.5210166647283212,133.183927036323
-1.0,0.3205039567736226,142.637169580626
1.0,0.9612807862742132,195.857013304231
1.0,1.235450683262153,197.345436026506
-1.0,-1.205933532511285,132.71155135217
1.0,1.214700329792069,207.260633349837
-1.0,-0.4800549873579412,133.294238258861
1.0,0.06954297791133883,170.372215566906
-1.0,-0.012992622934019215,153.246602135157
1.0,0.3253255216711335,181.905318555656
1.0,-0.03974075016232723,180.575334078804
1.0,1.384417995983322,196.726281981995
-1.0,-2.5184751007186,97.2699666809593
-1.0,-0.9096118408369044,122.781815955197
1.0,0.8842598912618972,188.844172398325
1.0,-0.18870821541858587,170.100647282763
-1.0,-1.2966396277797825,128.444527601689
1.0,0.20930554464572518,181.886240895002
-1.0,-0.3671373554084447,125.13092021464
1.0,1.2739649758771323,189.307461274244
1.0,1.5758721044325639,189.179011191401
-1.0,0.7327801764079935,166.13641093753
1.0,0.9067216387947569,207.916686230298
1.0,-0.44990316534187236,162.40702669862
1.0,-0.05872798483896523,170.898027754784
1.0,1.3171751808353367,213.337773308762
1.0,0.017186930211545815,173.995006760975
-1.0,-1.2347996391209661,117.133586874945
1.0,0.5754147580529455,181.167060950369
-1.0,-0.34258500493758076,145.073538581697
-1.0,0.7699774926205271,167.582852426375
1.0,-0.42379215731108766,150.05081279828
-1.0,-1.0742308572464612,118.852705355753
-1.0,-0.6130692626492504,154.051429787699
1.0,-0.09502472736413294,165.167722781655
1.0,1.4052961816665241,190.408985001033
-1.0,-1.5509031853407098,118.713809273295
-1.0,-0.4532489911651161,148.922934610244
1.0,0.953195038640612,174.32483921845
1.0,-0.43361572489553657,155.664255314845
-1.0,-0.8522183899870979,125.867080726794
-1.0,0.532009609295146,163.785138209359
-1.0,0.3681042197280983,162.19632301281
-1.0,-2.2135953655789526,97.040289867381
-1.0,-1.0372345914825936,115.556599279855
1.0,1.3119799863307373,197.862665414347
1.0,0.9538025040540344,199.499124221591
1.0,0.7460406709078508,159.244886180877
-1.0,-0.39716546234560474,153.572862939911
1.0,1.5081216676678277,199.03956780688
-1.0,-1.1662620881830998,133.781139026222
-1.0,-1.7623183477782476,104.046180239567
1.0,2.259254060978205,218.583687985
1.0,1.4974689793856724,216.216814748089
-1.0,-1.05671569084475,139.137905930751
-1.0,-1.7507309757754521,109.281638742373
-1.0,-0.25306167926894263,143.017835386639
1.0,-0.4627367565824088,158.374086948933
1.0,-0.6557364259738823,147.88701545115
-1.0,-0.7888516443801126,163.079037385705
1.0,0.6301740261445137,197.6794459518
-1.0,-0.6712928981770292,134.228371270992
-1.0,-0.3246974596428685,146.650334451394
-1.0,-1.0895956573326109,144.18461287139
-1.0,0.7421077099199864,155.962039250896
-1.0,-0.8408989019908908,130.514736487237
-1.0,-1.9076766383306627,111.833549001828
-1.0,-0.6086594649211834,134.182427137867
1.0,1.3706226129892694,213.741169489411
-1.0,0.15065966124181251,154.782478853802
-1.0,0.5778302616857476,171.175342045736
1.0,0.8333122025673192,165.784742409677
1.0,-0.9956033998332717,159.64599620432
-1.0,-0.39928936618347144,143.086255999237
1.0,1.206114781295487,194.080612217446
-1.0,-1.0398866983345092,131.740460390606
-1.0,-0.6522008285602637,136.852306264119
1.0,0.881669432594037,196.731371561523
1.0,1.1324024223853661,197.361246600794
-1.0,-0.6399087902261882,136.85241311712
-1.0,-1.3175546601567745,137.994478820382
1.0,0.08518535080363215,157.728114223695
-1.0,-0.960005991193949,147.517898734144
-1.0,-1.608976436150684,116.397024904313
1.0,0.7053964564729851,176.867604161727
1.0,0.532236324911754,190.128213590258
1.0,0.1427669898077643,160.432210626658
1.0,1.51860764476619,202.091037355264
-1.0,0.27174748708840046,146.090040562755
1.0,1.8004729595649456,225.260179000951
1.0,1.9358035217680993,208.866033768226
1.0,1.5804245780387847,213.239108590857
-1.0,-1.9266936074657035,99.1789840868066
1.0,-0.4669575362342462,167.444140149937
-1.0,-0.6977495732242406,131.593042914664
1.0,2.688165474278928,235.035418820022
1.0,0.29729619638729365,176.085424269687
1.0,1.882030949296429,220.033778159626
-1.0,-0.12851840329734465,155.915543502642
-1.0,-0.8090827875577433,126.637594952235
1.0,-0.17227139808582537,160.203314026261
1.0,1.9587867953853557,206.641216768758
1.0,1.6441548471958511,224.807831827396
-1.0,-1.652028950927948,113.05642669152
1.0,0.21015987731360275,174.579024534819
1.0,0.84655725814647,171.396663132362
1.0,0.3655066283775572,187.163668614167
-1.0,-0.850388879722727,142.565361070732
-1.0,-0.301170738264605,137.703041572099
1.0,1.2965706072353418,203.37635393957
1.0,1.5658577577518313,215.675265584521
-1.0,-0.5283582790474673,161.746796970365
-1.0,-0.7118935384201297,129.119271918245
1.0,0.3619478456270905,172.216450569573
1.0,-0.23697046306236733,161.328227752182
1.0,0.7389147914236359,187.624820339102
-1.0,0.07470715867591719,158.963740157672
1.0,0.7704657384718542,182.123250244944
1.0,0.575090840669602,196.419011993851
1.0,1.124789095834156,192.025785860003
-1.0,-0.8834786345224309,126.8227288203
-1.0,-1.4983446156482825,133.327392100931
1.0,1.0994258654125677,200.372577544792
-1.0,-1.1161412078563724,103.141097116868
-1.0,-0.9923943830551015,131.111181192592
1.0,-0.3395387401238269,157.030391404326
-1.0,-1.4144253218326794,114.78439915743
-1.0,-0.9481809013019165,121.811621034057
-1.0,-0.36034385183355133,129.839588948602
1.0,0.6287504979306662,175.838797375723
-1.0,-0.39672762184575483,154.425304428477
-1.0,0.9898785041008246,182.133805699515
-1.0,-1.2899514439581494,123.014974292633
1.0,1.01710191348114,187.258692333223
-1.0,-0.14332956142277523,148.475424617453
1.0,-0.18403772836699958,151.627434333072
-1.0,-0.027560033611192896,153.761022070456
-1.0,-0.6853638633026324,119.066226769403
1.0,0.1469896922192954,151.199152884171
1.0,-0.18325615318207888,170.932863963365
1.0,0.8809854773192366,181.155093365384
-1.0,-1.4953656723614368,130.370011518555
-1.0,-1.697238865583331,127.947748191752
-1.0,0.012973176638517887,139.743280295884
-1.0,-0.3004799605967562,148.994332578094
1.0,0.09003380687472672,170.065479451333
1.0,2.25372890385528,224.303507469314
-1.0,0.4791644689335756,145.486903558213
1.0,1.3863293014323352,193.094163543063
1.0,0.6229766635180886,185.934778195764
1.0,0.4944357019853755,167.910728878334
1.0,0.6982401567617531,171.775983463814
-1.0,-1.088348056842577,135.610834999441
1.0,1.5926910148184412,225.378590274705
1.0,0.3843180207924355,168.0670153247
-1.0,-1.5973787638816312,107.7312909258
1.0,1.1440731491979863,195.353057497215
-1.0,-0.6539334950848833,144.760169070485
1.0,1.3696267161211815,200.713270906352
-1.0,-0.005204260984523942,157.380964816028
1.0,0.35419709998924553,168.545076355386
1.0,0.40437096756979934,173.348646161641
1.0,0.6574574150750759,196.136269159319
1.0,2.6215959770464976,213.732348152943
1.0,1.307333047958506,198.406733806725
-1.0,0.07004715606469418,146.411268413887
1.0,0.5199719213121798,176.505303319986
-1.0,-0.4267779085213335,157.971880190933
-1.0,1.23598071255139,176.040345192776
-1.0,-0.47979953866592656,147.025010556358
1.0,0.5168786216558668,204.358874673228
1.0,0.7689274616421106,218.906557006405
1.0,2.0100742473387396,217.187610639723
-1.0,-0.43067096083072626,137.741896782866
1.0,0.0037165924184717884,172.781824110699
-1.0,-0.34324072697484675,140.823228588263
1.0,1.082828559161895,196.584345936451
-1.0,-1.1171954827847332,132.654701141979
-1.0,-1.7207916794435838,102.354857714544
-1.0,0.06449965403245285,148.707952227472
-1.0,-0.3221804210402747,150.143976255014
1.0,-0.11388089691331041,168.090412215803
1.0,0.1422632085031406,169.882489592538
1.0,0.7911881550874812,177.470616229738
-1.0,-1.682368303575847,129.173838843876
1.0,0.5530537349713481,179.929816647941
-1.0,0.37483192324140685,161.619961942107
-1.0,-1.6175607140143293,111.190707849205
1.0,0.6461080554798503,210.869084178877
-1.0,-1.2036043490981618,106.438565925417
-1.0,-1.7332865910667983,111.148256038695
-1.0,-0.9150232863978508,152.610384327734
-1.0,-0.6280042420787568,132.106321704748
